svm_type c_svc
kernel_type linear
nr_class 10
total_sv 24885
rho 3.12533 1.00154 1.0048 6.60769 1.00633 1.00192 30.2467 7.03196 -0.80547 0.999482 0.999349 0.999439 0.999318 1.00014 0.99811 1.00234 -0.877622 0.99971 -1.0002 -0.9998 -0.999511 -1.00022 -0.99968 -1.00005 -1.00011 -0.999971 -1.00004 -1.0003 -1.00011 -1.00027 0.999143 0.999529 -1.89767 -0.999447 -2.02362 1.00028 -1.00063 -0.999113 -0.999776 -1.00032 -0.999274 -0.999603 -0.999317 -1.00058 -5.71577
label 9 8 1 0 4 3 2 5 6 7
nr_sv 5 5 10599 12368 93 513 1206 54 36 6
SV
0.01913263202737126 1 1 1 1 1 0.5343090635541906 0.5138506989849957 0.1166821425159441 1:1 2:10 3:1 4:11 5:1 6:13 7:1 8:12 9:1 10:1 
0 1 1 0 1 1 0 0 0 1:2 2:11 3:2 4:13 5:2 6:10 7:2 8:12 9:2 10:1 
0 1 1 1 1 1 0.07792140926785961 0.3561904708529014 0.07629119362563225 1:3 2:12 3:3 4:11 5:3 6:13 7:3 8:10 9:3 10:1 
0.02551979505205512 1 1 0.7610396462791842 1 1 0.2877651252894773 0.7944579530036552 0.07905750156721618 1:4 2:10 3:4 4:11 5:4 6:1 7:4 8:13 9:4 10:12 
0.02457706037412505 1 1 0.5128119492415387 1 1 0.1790189879554776 0.1144141468714063 0.02177719374309163 1:4 2:1 3:4 4:13 5:4 6:12 7:4 8:11 9:4 10:10 
-0 1 1 1 1 1 1 1 0 1:1 2:2 3:1 4:4 5:1 6:5 7:1 8:3 9:1 10:6 
-0.04332729134208942 1 1 1 1 1 1 1 0.1345387574728507 1:1 2:9 3:1 4:12 5:1 6:10 7:1 8:11 9:1 10:13 
-0 1 1 1 1 1 1 1 0.02662239857194581 1:2 2:1 3:2 4:2 5:2 6:3 7:2 8:4 9:2 10:5 
-0.01582412087315143 1 1 1 1 1 1 1 0.1202462246409884 1:3 2:5 3:3 4:6 5:3 6:9 7:3 8:7 9:3 10:8 
-0.01007807523831055 1 1 1 1 1 1 1 0.09988720419303261 1:4 2:1 3:4 4:4 5:4 6:2 7:4 8:3 9:4 10:5 
-0 -0 1 0 0 0 0 0 0 1:1 2:1 3:2 4:1 5:3 6:9 7:1 8:5 9:2 10:3 
-0 -0 1 0 0 0 0 0 0 1:3 2:8 3:4 4:12 5:3 6:9 7:4 8:2 9:3 10:2 
-0 -0 1 0 0 0 0 0 0 1:3 2:7 3:2 4:7 5:4 6:11 7:1 8:12 9:3 10:1 
-0 -0 1 0 0 0 0 0 0 1:1 2:13 3:4 4:8 5:2 6:7 7:2 8:10 9:3 10:13 
-0 -0 1 0 0 0 0 0 0 1:3 2:10 3:2 4:10 5:4 6:5 7:1 8:2 9:3 10:8 
-0 -0 1 0.05201405586784978 0.05514849529655724 0.4535495497439928 0.08472182738149234 0 0 1:2 2:1 3:3 4:13 5:4 6:6 7:1 8:9 9:4 10:1 
-0 -0 1 0 0 0 0 0 0 1:2 2:10 3:2 4:8 5:1 6:8 7:3 8:2 9:2 10:13 
-0 -0 1 0 0 0 0 0 0 1:2 2:13 3:1 4:5 5:4 6:5 7:4 8:8 9:3 10:3 
-0 -0 1 0 0 0.6511663531133627 0 0 0 1:3 2:1 3:1 4:5 5:2 6:7 7:3 8:13 9:1 10:1 
-0 -0 1 0 0 0 0 0 0 1:1 2:7 3:1 4:5 5:4 6:8 7:1 8:6 9:2 10:6 
-0 -0 1 0 0 0 0 0 0 1:2 2:6 3:4 4:8 5:4 6:3 7:2 8:2 9:1 10:2 
-0 -0 1 0 0 0 0 0 0 1:4 2:13 3:1 4:6 5:3 6:8 7:1 8:3 9:2 10:3 
-0 -0 1 0 0 0.1368656366500091 0 0 0 1:2 2:10 3:3 4:12 5:1 6:2 7:2 8:2 9:2 10:13 
-0 -0 1 0 0 0 0 0 0 1:2 2:5 3:2 4:12 5:2 6:3 7:1 8:2 9:3 10:3 
-0 -0 1 0 0 0 0 0 0 1:2 2:8 3:3 4:2 5:2 6:5 7:1 8:12 9:4 10:8 
-0 -0 1 0 0 0 0 0 0 1:2 2:1 3:4 4:7 5:4 6:6 7:4 8:5 9:1 10:5 
-0 -0 1 0 0 0 0 0 0 1:4 2:10 3:4 4:13 5:3 6:5 7:2 8:8 9:1 10:10 
-0 -0 1 0 0.02147489884245194 0.435475795424883 0.03059909541200595 0 0 1:4 2:9 3:3 4:13 5:2 6:1 7:3 8:9 9:4 10:12 
-0 -0 1 0 0.1071599635494188 0.4205958386517953 0 0 0 1:4 2:1 3:3 4:1 5:1 6:3 7:4 8:4 9:2 10:11 
-0 -0 1 0 0 0 0 0 0 1:2 2:5 3:3 4:13 5:3 6:12 7:3 8:7 9:1 10:13 
-0 -0 1 0 0 0 0 0 0 1:4 2:8 3:3 4:2 5:2 6:8 7:2 8:9 9:3 10:11 
-0 -0 1 0 0 0.1217250942868763 0 0 0 1:3 2:13 3:2 4:2 5:4 6:10 7:3 8:3 9:2 10:13 
-0 -0 1 0 0 0.200845964615315 0 0 0 1:2 2:1 3:1 4:4 5:4 6:1 7:4 8:11 9:3 10:7 
-0 -0 1 0 0 0 0 0 0 1:2 2:9 3:4 4:2 5:3 6:3 7:2 8:6 9:3 10:9 
-0 -0 1 0 0 0 0 0 0 1:3 2:1 3:1 4:5 5:4 6:8 7:3 8:10 9:3 10:5 
-0 -0 1 0 0 0 0 0 0 1:4 2:7 3:4 4:5 5:2 6:9 7:3 8:8 9:1 10:5 
-0 -0 1 0.09583602688865064 0.286416164134037 1 0 0 0 1:4 2:13 3:3 4:8 5:1 6:1 7:4 8:6 9:1 10:13 
-0 -0 1 0 0 0 0 0 0 1:2 2:3 3:4 4:10 5:3 6:5 7:3 8:13 9:4 10:3 
-0 -0 1 0 0 0 0 0 0 1:3 2:2 3:4 4:10 5:2 6:6 7:1 8:12 9:3 10:10 
-0 -0 1 0 0 0 0 0 0 1:2 2:4 3:1 4:4 5:2 6:5 7:1 8:8 9:1 10:13 
-0 -0 1 0 0 0 0 0 0 1:2 2:13 3:1 4:9 5:1 6:2 7:1 8:4 9:4 10:4 
-0 -0 1 0 0 0.163159973009617 0 0 0 1:2 2:12 3:4 4:6 5:3 6:9 7:4 8:1 9:4 10:12 
-0 -0 1 0 0 0 0 0 0 1:2 2:1 3:3 4:12 5:3 6:8 7:1 8:2 9:3 10:1 
-0 -0 1 0 0 0 0 0 0 1:2 2:1 3:2 4:8 5:2 6:6 7:3 8:1 9:3 10:4 
-0.07516789612826222 -0 1 0 0 0 0 0 0 1:4 2:11 3:3 4:12 5:3 6:4 7:4 8:12 9:4 10:7 
-0 -0 1 0 0 0 0 0 0 1:3 2:12 3:2 4:12 5:2 6:8 7:3 8:11 9:1 10:6 
-0 -0 1 0 0 0 0 0 0 1:3 2:10 3:1 4:7 5:4 6:7 7:4 8:6 9:1 10:11 
-0 -0 1 0 0 0 0 0 0 1:2 2:10 3:1 4:4 5:3 6:12 7:4 8:9 9:2 10:9 
-0 -0 1 0 0.5909652610835939 1 0.05877607404200708 0.05301197648114636 0 1:1 2:13 3:1 4:3 5:1 6:12 7:4 8:11 9:2 10:12 
-0 -0 1 0 0 0 0 0 0 1:2 2:7 3:1 4:6 5:3 6:6 7:4 8:13 9:4 10:9 
-0 -0 1 0 0.5491960624609232 1 0.01922010231917634 0 0 1:2 2:1 3:3 4:2 5:2 6:10 7:4 8:1 9:4 10:12 
-0 -0 1 0 0 0 0 0 0 1:1 2:6 3:3 4:9 5:2 6:8 7:2 8:2 9:4 10:9 
-0 -0 1 0 0 0 0 0 0 1:1 2:7 3:4 4:4 5:4 6:12 7:3 8:7 9:2 10:2 
-0 -0 1 0 0 0 0 0 0 1:4 2:5 3:3 4:11 5:2 6:7 7:4 8:8 9:3 10:8 
-0 -0 1 0 0 0.1190897052649568 0 0 0 1:2 2:2 3:3 4:4 5:4 6:13 7:1 8:5 9:2 10:13 
-0 -0 1 0.1293028626509838 0.02463606269184267 0.3715139975667146 0 0 0 1:3 2:6 3:2 4:13 5:4 6:13 7:3 8:10 9:2 10:12 
-0 -0 1 0 0 0 0 0 0 1:4 2:7 3:3 4:2 5:4 6:5 7:3 8:9 9:2 10:5 
-0 -0 1 0 0 0 0 0 0 1:4 2:2 3:2 4:7 5:3 6:13 7:2 8:12 9:1 10:7 
-0 -0 1 0 0 0 0 0 0 1:3 2:1 3:4 4:10 5:2 6:10 7:1 8:5 9:2 10:11 
-0 -0 1 0.3965820917954591 1 1 0.3170561190628888 0.09960086161371132 0.0285546578856291 1:4 2:11 3:3 4:13 5:1 6:1 7:1 8:13 9:2 10:2 
-0 -0 1 0 0 0 0 0 0 1:2 2:12 3:2 4:4 5:3 6:2 7:2 8:7 9:4 10:12 
-0 -0 1 0 0 0.3228469751304378 0 0 0 1:1 2:2 3:4 4:2 5:4 6:10 7:2 8:11 9:3 10:1 
-0 -0 1 0 0 0 0 0 0 1:3 2:10 3:1 4:9 5:4 6:3 7:2 8:4 9:1 10:4 
-0 -0 1 0 0 0 0 0 0 1:3 2:12 3:3 4:10 5:4 6:6 7:2 8:6 9:2 10:13 
-0 -0 1 0 0.3467491329160152 1 0 0.03043402649887828 0 1:4 2:12 3:3 4:1 5:2 6:13 7:2 8:6 9:2 10:1 
-0 -0 1 0 0 0 0 0 0 1:4 2:12 3:2 4:9 5:2 6:5 7:2 8:12 9:3 10:10 
-0 -0 1 0 0 0 0 0 0 1:3 2:10 3:1 4:7 5:4 6:7 7:2 8:6 9:2 10:4 
-0 -0 1 0.02962351377732225 0.3705202666741669 1 0 0.1083017173668437 0 1:1 2:13 3:2 4:5 5:4 6:12 7:2 8:12 9:4 10:1 
-0 -0 1 0 0 0 0 0 0 1:1 2:8 3:4 4:7 5:4 6:13 7:2 8:6 9:3 10:6 
-0 -0 1 0 0 0 0 0 0 1:3 2:8 3:1 4:8 5:2 6:5 7:3 8:3 9:3 10:1 
-0 -0 1 0 0 0 0 0 0 1:3 2:7 3:2 4:5 5:1 6:11 7:3 8:4 9:3 10:5 
-0 -0.0001199807951649142 1 0 0 0 0 0 0 1:2 2:4 3:1 4:4 5:1 6:7 7:4 8:8 9:1 10:5 
-0 -0 1 0 0 0 0 0 0 1:4 2:7 3:2 4:12 5:3 6:3 7:1 8:8 9:1 10:7 
-0 -0 1 0 0 0.5010977646133537 0 0 0 1:1 2:4 3:1 4:6 5:4 6:13 7:2 8:13 9:4 10:3 
-0 -0 1 0 0 0 0 0 0 1:2 2:7 3:4 4:10 5:1 6:10 7:1 8:2 9:4 10:5 
-0 -0 1 0 0 0 0 0 0 1:2 2:9 3:2 4:4 5:1 6:10 7:3 8:7 9:2 10:7 
-0 -0 1 0 0 0 0 0 0 1:3 2:3 3:3 4:8 5:4 6:8 7:1 8:1 9:1 10:11 
-0 -0 1 0 0 0 0 0 0 1:2 2:12 3:4 4:2 5:1 6:5 7:3 8:10 9:1 10:10 
-0 -0 1 0 0 0 0 0 0 1:2 2:3 3:1 4:6 5:2 6:12 7:3 8:6 9:4 10:5 
-0 -0 1 0 0 0 0 0 0 1:2 2:6 3:4 4:4 5:1 6:13 7:4 8:6 9:4 10:5 
-0 -0 1 0 0 0 0 0 0 1:4 2:3 3:4 4:10 5:2 6:8 7:1 8:7 9:3 10:10 
-0 -0 1 0 0 0.7817504850423762 0 0 0 1:4 2:5 3:1 4:11 5:3 6:10 7:1 8:1 9:3 10:1 
-0 -0 1 0 0 0 0 0 0 1:3 2:11 3:2 4:7 5:2 6:12 7:2 8:5 9:1 10:7 
-0 -0 1 0 0 0 0 0 0 1:2 2:10 3:3 4:1 5:3 6:9 7:2 8:9 9:3 10:5 
-0 -0 1 0 0 0 0 0 0 1:2 2:13 3:1 4:1 5:2 6:12 7:1 8:7 9:2 10:7 
-0 -0 1 0 0 0 0 0 0 1:3 2:10 3:2 4:3 5:2 6:1 7:4 8:7 9:4 10:10 
-0 -0 1 0.1368645634040228 0.08337990134064577 0.6699664210064779 0 0 0 1:3 2:1 3:2 4:11 5:4 6:11 7:1 8:13 9:2 10:2 
-0 -0 1 0 0 0 0 0 0 1:2 2:4 3:2 4:7 5:4 6:4 7:2 8:6 9:2 10:8 
-0 -0 1 0 0.1658900738975391 0.7342880558300433 0.09171684058250183 0 0 1:1 2:3 3:4 4:3 5:4 6:4 7:3 8:1 9:4 10:13 
-0 -0 1 0 0.04448614540591869 0.3800807410659072 0 0 0 1:3 2:3 3:1 4:1 5:4 6:3 7:2 8:13 9:4 10:8 
-0 -0 1 0 0 0.09091471456379778 0 0 0 1:4 2:5 3:2 4:5 5:2 6:1 7:4 8:8 9:1 10:13 
-0 -0 1 0 0 0 0 0 0 1:1 2:10 3:3 4:9 5:3 6:10 7:1 8:8 9:4 10:13 
-0 -0 1 0 0 0 0 0 0 1:2 2:1 3:2 4:9 5:3 6:9 7:3 8:13 9:2 10:8 
-0 -0 1 0 0 0.4734400957482102 0 0.06535049067689061 0 1:3 2:10 3:1 4:12 5:1 6:7 7:3 8:13 9:2 10:12 
-0 -0 1 0 0 0 0 0 0 1:3 2:10 3:2 4:7 5:4 6:2 7:3 8:12 9:2 10:2 
-0 -0 1 0 0 0 0 0 0 1:2 2:7 3:4 4:9 5:1 6:5 7:3 8:9 9:3 10:6 
-0 -0 1 0 0 0 0 0 0 1:2 2:4 3:2 4:2 5:2 6:5 7:4 8:1 9:4 10:4 
-0 -0 1 0 0 0 0 0 0 1:1 2:12 3:2 4:8 5:2 6:2 7:1 8:1 9:3 10:8 
-0 -0 1 0.177499452551709 0.6107616759951197 1 0.05241443415426276 0 0 1:1 2:1 3:1 4:13 5:4 6:11 7:3 8:13 9:4 10:4 
-0 -0 1 0 0.07174139906638892 0.1195947627691374 0 0 0 1:3 2:13 3:1 4:2 5:3 6:2 7:1 8:9 9:3 10:11 
-0 -0 1 0 0 0 0 0 0 1:3 2:6 3:2 4:11 5:3 6:2 7:3 8:10 9:1 10:11 
-0 -0 1 0 0 0 0 0 0 1:4 2:8 3:2 4:11 5:2 6:12 7:3 8:3 9:4 10:11 
-0 -0 1 0 0 0 0 0 0 1:3 2:13 3:1 4:3 5:2 6:7 7:1 8:8 9:4 10:8 
-0 -0 1 0 0 0 0 0 0 1:1 2:7 3:3 4:1 5:1 6:5 7:1 8:1 9:2 10:3 
-0 -0 1 0 0 0 0 0 0 1:1 2:4 3:1 4:12 5:1 6:2 7:4 8:9 9:2 10:12 
-0 -0 1 0 0 0.144183805072738 0 0 0 1:4 2:11 3:1 4:1 5:2 6:1 7:1 8:3 9:3 10:5 
-0 -0 1 0 0 0 0 0 0 1:3 2:1 3:3 4:10 5:1 6:4 7:2 8:10 9:2 10:3 
-0 -0 1 0 0 0 0 0 0 1:3 2:13 3:2 4:4 5:2 6:9 7:2 8:3 9:3 10:3 
-0 -0 1 0 0 0 0 0 0 1:3 2:11 3:2 4:10 5:3 6:12 7:1 8:3 9:1 10:10 
-0 -0 1 0 0 0 0 0 0 1:2 2:7 3:2 4:3 5:3 6:13 7:1 8:5 9:4 10:5 
-0 -0 1 0 0 0 0 0 0 1:2 2:9 3:4 4:8 5:2 6:8 7:2 8:3 9:2 10:7 
-0 -0 1 0 0 0 0 0 0 1:3 2:9 3:1 4:13 5:4 6:8 7:4 8:9 9:1 10:6 
-0 -0 1 0 0 0 0 0 0 1:4 2:2 3:1 4:8 5:2 6:6 7:2 8:10 9:3 10:8 
-0 -0 1 0 0 0 0 0 0 1:4 2:7 3:3 4:7 5:4 6:9 7:4 8:3 9:4 10:10 
-0 -0 1 0 0 0 0 0 0 1:3 2:7 3:2 4:7 5:3 6:4 7:3 8:6 9:1 10:3 
-0 -0 1 0 0 0 0 0 0 1:4 2:6 3:2 4:9 5:4 6:7 7:1 8:8 9:3 10:8 
-0 -0 1 0 0 0 0 0 0 1:4 2:12 3:1 4:3 5:3 6:3 7:4 8:7 9:3 10:10 
-0 -0 1 0 0 0 0 0 0 1:1 2:11 3:2 4:6 5:2 6:3 7:4 8:12 9:4 10:11 
-0 -0 1 0 0 0 0 0 0 1:3 2:6 3:2 4:13 5:3 6:9 7:1 8:13 9:1 10:10 
-0 -0 1 0 0 0 0 0 0 1:2 2:11 3:3 4:6 5:4 6:7 7:3 8:2 9:3 10:11 
-0 -0 1 0 0 0 0 0 0 1:3 2:1 3:2 4:9 5:2 6:8 7:2 8:6 9:1 10:1 
-0 -0 1 0 0 0 0 0 0 1:3 2:7 3:1 4:4 5:2 6:2 7:3 8:2 9:2 10:12 
-0 -0 1 0 0 0 0 0 0 1:2 2:7 3:2 4:13 5:3 6:10 7:1 8:9 9:1 10:10 
-0 -0 1 0 0 0 0 0 0 1:4 2:9 3:2 4:2 5:1 6:11 7:2 8:12 9:3 10:11 
-0 -0 1 0 0 0 0 0 0 1:2 2:3 3:3 4:4 5:2 6:8 7:4 8:4 9:3 10:12 
-0 -0 1 0 0 0 0 0 0 1:2 2:8 3:1 4:6 5:2 6:6 7:2 8:7 9:3 10:13 
-0 -0 1 0 0.4204995127681476 0.498253461987213 0 0 0 1:1 2:1 3:1 4:12 5:4 6:3 7:4 8:6 9:3 10:1 
-0 -0 1 0 0 0 0 0 0 1:4 2:10 3:1 4:5 5:3 6:7 7:4 8:9 9:1 10:9 
-0 -0 1 0 0 0 0 0 0 1:1 2:5 3:4 4:3 5:4 6:12 7:3 8:5 9:2 10:13 
-0 -0 1 0.06195361474273049 0.2334391145971676 0.3857515986559069 0 0 0 1:4 2:9 3:1 4:12 5:4 6:1 7:1 8:4 9:3 10:1 
-0 -0 1 0 0 0 0 0 0 1:1 2:8 3:2 4:8 5:1 6:7 7:1 8:12 9:2 10:4 
-0 -0 1 0 0 0 0 0 0 1:1 2:8 3:2 4:2 5:2 6:3 7:4 8:2 9:2 10:7 
-0 -0 1 0 0 0 0 0 0 1:1 2:3 3:2 4:13 5:3 6:4 7:4 8:5 9:1 10:5 
-0 -0 1 0 0 0 0 0 0 1:4 2:4 3:2 4:3 5:3 6:12 7:1 8:10 9:3 10:10 
-0 -0 1 0 0 0 0 0 0 1:4 2:4 3:2 4:8 5:4 6:12 7:1 8:4 9:3 10:2 
-0 -0 1 0 0 0 0 0 0 1:2 2:7 3:1 4:4 5:1 6:12 7:1 8:13 9:4 10:4 
-0 -0 1 0 0 0 0 0 0 1:4 2:10 3:2 4:9 5:2 6:4 7:4 8:13 9:3 10:9 
-0 -0 1 0 0 0.21934743039671 0 0 0 1:1 2:2 3:2 4:10 5:4 6:1 7:2 8:2 9:4 10:5 
-0 -0 1 0 0 0 0 0 0 1:2 2:8 3:4 4:11 5:2 6:5 7:4 8:5 9:4 10:2 
-0 -0 1 0 0.3752892372330868 0.08628614828001373 0 0 0 1:3 2:2 3:3 4:11 5:1 6:1 7:4 8:7 9:4 10:2 
-0 -0 1 0 0 0 0 0 0 1:2 2:12 3:4 4:4 5:4 6:6 7:1 8:12 9:1 10:9 
-0 -0 1 0.07093203356370556 0.6975138571013664 1 0 0.05118066694247601 0.04750166090745207 1:4 2:1 3:1 4:13 5:1 6:7 7:3 8:13 9:3 10:11 
-0 -0 1 0 0 0 0 0 0 1:1 2:10 3:2 4:10 5:4 6:2 7:2 8:6 9:4 10:4 
-0 -0 1 0 0 0 0 0 0 1:1 2:5 3:1 4:7 5:4 6:7 7:1 8:13 9:3 10:11 
-0 -0 1 0 0 0 0 0 0 1:2 2:3 3:1 4:13 5:1 6:4 7:2 8:13 9:4 10:8 
-0 -0 1 0.02905651274976986 0.3959267416869652 1 0.05807414183616767 0.04522845394808295 0 1:1 2:1 3:1 4:13 5:4 6:1 7:2 8:6 9:4 10:10 
-0 -0 1 0 0 0 0 0 0 1:1 2:6 3:1 4:13 5:3 6:11 7:3 8:6 9:1 10:2 
-0 -0 1 0 0.1887014870169782 0.7552715032790479 0 0 0 1:1 2:11 3:1 4:13 5:4 6:9 7:1 8:7 9:3 10:13 
-0 -0 1 0 0.01051457195287295 0.1988191646386197 0 0.01163284066039106 0 1:4 2:3 3:2 4:12 5:4 6:12 7:1 8:13 9:3 10:10 
-0 -0 1 0 0 0 0 0 0 1:3 2:7 3:3 4:12 5:1 6:12 7:4 8:3 9:4 10:4 
-0 -0 1 0 0 0 0 0 0 1:4 2:4 3:4 4:9 5:1 6:7 7:1 8:9 9:4 10:5 
-0 -0 1 0 0 0 0 0 0 1:1 2:4 3:1 4:7 5:3 6:7 7:1 8:3 9:1 10:13 
-0 -0 1 0 0 0 0 0 0 1:1 2:11 3:2 4:9 5:4 6:10 7:4 8:5 9:1 10:9 
-0 -0 1 0 0 0 0 0 0 1:2 2:11 3:1 4:2 5:1 6:3 7:3 8:11 9:4 10:4 
-0 -0 1 0 0 0 0 0 0 1:2 2:12 3:1 4:2 5:4 6:12 7:4 8:8 9:2 10:11 
-0 -0 1 0 0.4024954647335022 0.8930279240179314 0 0 0 1:2 2:1 3:3 4:6 5:2 6:2 7:4 8:4 9:3 10:1 
-0 -0 1 0 0 0 0 0 0 1:1 2:9 3:2 4:13 5:4 6:5 7:1 8:11 9:2 10:9 
-0 -0 1 0 0 0.2045390381622359 0 0 0 1:2 2:13 3:4 4:8 5:4 6:13 7:4 8:6 9:3 10:2 
-0 -0 1 0 0 0 0 0 0 1:4 2:10 3:3 4:12 5:3 6:7 7:1 8:12 9:2 10:5 
-0 -0 1 0 0.3131043977550263 1 0 0 0 1:2 2:13 3:4 4:12 5:4 6:13 7:1 8:7 9:4 10:8 
-0 -0 1 0 0 0 0 0 0 1:1 2:3 3:2 4:6 5:1 6:6 7:2 8:13 9:3 10:11 
-0 -0 1 0 0 0 0 0 0 1:1 2:5 3:2 4:1 5:3 6:5 7:3 8:2 9:1 10:6 
-0 -0 1 0 0 1 0 0 0 1:3 2:13 3:1 4:13 5:2 6:1 7:3 8:8 9:1 10:4 
-0 -0 1 0 0 0 0 0 0 1:1 2:4 3:2 4:9 5:2 6:5 7:3 8:5 9:4 10:7 
-0 -0 1 0 0 0 0 0 0 1:2 2:7 3:4 4:7 5:1 6:4 7:3 8:11 9:3 10:9 
-0 -0 1 0 0 0.3083017492925029 0 0 0 1:2 2:1 3:4 4:6 5:1 6:4 7:1 8:9 9:1 10:1 
-0 -0 1 0 0 0 0 0 0 1:2 2:12 3:1 4:7 5:2 6:9 7:4 8:8 9:3 10:7 
-0 -0 1 0 0 0 0 0 0 1:3 2:6 3:3 4:8 5:2 6:12 7:4 8:8 9:3 10:11 
-0 -0 1 0 0 0 0 0 0 1:2 2:9 3:4 4:8 5:4 6:2 7:4 8:9 9:4 10:11 
-0 -0 1 0 0 0 0 0 0 1:3 2:4 3:2 4:10 5:3 6:3 7:4 8:13 9:4 10:4 
-0 -0 1 0 0 0 0 0 0 1:4 2:5 3:4 4:2 5:2 6:10 7:4 8:11 9:2 10:11 
-0 -0 1 0 0 0 0 0 0 1:2 2:7 3:3 4:3 5:4 6:3 7:4 8:10 9:3 10:12 
-0 -0 1 0 0 0.07946681667852543 0 0 0 1:4 2:7 3:3 4:2 5:2 6:3 7:4 8:13 9:4 10:2 
-0 -0 1 0 0 0 0 0 0 1:3 2:4 3:3 4:13 5:2 6:8 7:3 8:9 9:1 10:9 
-0 -0 1 0 0 0.3934927326970069 0 0 0 1:3 2:8 3:4 4:2 5:2 6:13 7:3 8:13 9:4 10:11 
-0 -0 1 0 0 0 0 0 0 1:4 2:1 3:3 4:9 5:3 6:2 7:2 8:11 9:2 10:9 
-0 -0 1 0 0 0 0 0 0 1:2 2:4 3:3 4:12 5:2 6:1 7:2 8:7 9:1 10:7 
-0 -0 1 0 0 0 0 0 0 1:3 2:3 3:1 4:13 5:2 6:9 7:2 8:8 9:3 10:8 
-0 -0 1 0 0 0 0 0 0 1:4 2:1 3:2 4:6 5:3 6:8 7:3 8:2 9:1 10:6 
-0 -0 1 0 0 0.1379575234557694 0 0 0 1:4 2:5 3:1 4:8 5:2 6:12 7:1 8:12 9:1 10:13 
-0 -0 1 0 0 0 0 0 0 1:2 2:5 3:3 4:5 5:3 6:2 7:2 8:13 9:4 10:4 
-0 -0 1 0 0 0 0 0 0 1:2 2:13 3:1 4:3 5:1 6:7 7:2 8:9 9:3 10:7 
-0 -0 1 0 0 0.758618571447453 0 0 0 1:4 2:2 3:3 4:11 5:2 6:4 7:4 8:13 9:2 10:13 
-0 -0 1 0 0.2039426883970648 0.4662133046259973 0 0 0 1:4 2:1 3:2 4:1 5:4 6:3 7:2 8:4 9:2 10:8 
-0 -0 1 0 0 0 0 0 0 1:4 2:6 3:1 4:11 5:3 6:5 7:2 8:5 9:1 10:10 
-0 -0 1 0 0 0 0 0 0 1:4 2:11 3:3 4:4 5:4 6:2 7:2 8:4 9:1 10:6 
-0 -0 1 0 0 0 0 0 0 1:4 2:9 3:2 4:8 5:2 6:6 7:3 8:6 9:4 10:11 
-0 -0 1 0 0 0 0 0 0 1:2 2:5 3:3 4:8 5:2 6:4 7:1 8:5 9:3 10:11 
-0 -0 1 0 0 0 0 0 0 1:3 2:9 3:3 4:13 5:1 6:5 7:2 8:8 9:4 10:8 
-0 -0 1 0 0 0 0 0 0 1:1 2:1 3:3 4:11 5:2 6:4 7:2 8:8 9:1 10:8 
-0 -0 1 0 0 0 0 0 0 1:3 2:9 3:3 4:1 5:1 6:8 7:4 8:9 9:2 10:10 
-0 -0 1 0 0 0 0 0 0 1:2 2:10 3:1 4:11 5:1 6:7 7:1 8:2 9:3 10:11 
-0 -0 1 0 0 0 0 0 0 1:1 2:4 3:1 4:11 5:4 6:6 7:4 8:10 9:3 10:10 
-0 -0 1 0 0 0 0 0 0 1:2 2:7 3:4 4:8 5:3 6:11 7:4 8:5 9:4 10:7 
-0 -0 1 0 0 0.04365330131753822 0 0 0 1:3 2:5 3:1 4:13 5:4 6:11 7:2 8:2 9:3 10:11 
-0 -0 1 0 0 0 0 0 0 1:1 2:10 3:1 4:4 5:1 6:3 7:3 8:3 9:3 10:1 
-0 -0 1 0.03499294960118685 0.03468258511966253 0.5230987303657927 0 0.02173200089051795 0 1:1 2:13 3:2 4:12 5:4 6:13 7:2 8:4 9:2 10:2 
-0 -0 1 0 0.6799691122914675 1 0 0 0 1:1 2:10 3:1 4:1 5:1 6:3 7:2 8:2 9:1 10:2 
-0 -0 1 0 0 0 0 0 0 1:3 2:9 3:4 4:11 5:2 6:5 7:3 8:5 9:1 10:13 
-0 -0 1 0 0 0.07226299356167409 0 0 0 1:1 2:2 3:1 4:7 5:3 6:2 7:4 8:1 9:4 10:5 
-0 -0 1 0 0 0 0 0 0 1:3 2:2 3:3 4:4 5:2 6:12 7:3 8:12 9:1 10:6 
-0 -0 1 0 0 0 0 0 0 1:4 2:7 3:2 4:9 5:2 6:7 7:4 8:6 9:1 10:4 
-0 -0 1 0 0 0 0 0 0 1:4 2:13 3:1 4:7 5:4 6:11 7:1 8:11 9:2 10:4 
-0 -0 1 0 0 0 0 0 0 1:4 2:13 3:1 4:9 5:3 6:7 7:3 8:11 9:1 10:7 
-0 -0.3311216554408559 1 0 0 0 0 0 0 1:2 2:3 3:2 4:6 5:2 6:9 7:2 8:7 9:3 10:9 
-0 -0 1 0 0 0 0 0 0 1:1 2:3 3:3 4:3 5:1 6:13 7:1 8:6 9:1 10:4 
-0 -0 1 0 0 0 0 0 0 1:3 2:6 3:3 4:5 5:1 6:13 7:1 8:6 9:2 10:10 
-0 -0 1 0 0 0 0 0 0 1:1 2:11 3:4 4:11 5:1 6:5 7:3 8:1 9:2 10:9 
-0 -0 1 0 0 0 0 0 0 1:1 2:5 3:2 4:5 5:3 6:2 7:3 8:1 9:4 10:3 
-0 -0 1 0 0 0 0 0 0 1:1 2:4 3:4 4:4 5:2 6:12 7:1 8:3 9:1 10:10 
-0 -0 1 0 0 0 0 0 0 1:3 2:1 3:1 4:5 5:4 6:5 7:3 8:9 9:4 10:4 
-0 -0 1 0 0 0.361355015347623 0 0 0 1:2 2:13 3:1 4:9 5:3 6:8 7:4 8:1 9:1 10:1 
-0 -0 1 0 0 0 0 0 0 1:2 2:6 3:4 4:11 5:4 6:6 7:4 8:5 9:3 10:10 
-0 -0 1 0 0 0 0 0 0 1:3 2:6 3:2 4:12 5:3 6:3 7:2 8:3 9:1 10:9 
-0 -0 1 0 0 0.09371699044976034 0 0 0 1:2 2:10 3:4 4:5 5:2 6:13 7:2 8:2 9:3 10:13 
-0 -0 1 0 0 0 0 0 0 1:4 2:10 3:1 4:9 5:1 6:4 7:2 8:4 9:1 10:2 
-0 -0 1 0 0.1014954330390002 0.0823957875398149 0 0 0 1:2 2:9 3:3 4:7 5:1 6:13 7:2 8:13 9:1 10:2 
-0 -0 1 0.2499413810173853 0.01049508717015656 0.4790602198682852 0 0.07325383590355748 0.02187343447947208 1:2 2:12 3:4 4:12 5:4 6:11 7:1 8:4 9:3 10:13 
-0 -0 1 0 0 0 0 0 0 1:4 2:3 3:3 4:9 5:2 6:12 7:3 8:5 9:2 10:9 
-0 -0 1 0 0 0 0 0 0 1:1 2:3 3:3 4:9 5:3 6:12 7:3 8:6 9:2 10:9 
-0 -0 1 0 0 0 0 0 0 1:4 2:8 3:4 4:10 5:3 6:5 7:2 8:12 9:1 10:5 
-0 -0 1 0 0 0 0 0 0 1:1 2:11 3:1 4:9 5:4 6:11 7:2 8:13 9:3 10:10 
-0 -0 1 0 0 0 0 0 0 1:3 2:10 3:2 4:12 5:2 6:10 7:3 8:2 9:3 10:4 
-0 -0 1 0 0 0 0 0 0 1:3 2:4 3:4 4:4 5:4 6:10 7:4 8:13 9:2 10:2 
-0 -0 1 0.4892864371915979 1 1 0.2418518499069315 0.2458733422986706 0 1:2 2:2 3:2 4:1 5:4 6:12 7:4 8:13 9:3 10:13 
-0 -0 1 0 0 0 0 0 0 1:1 2:8 3:3 4:9 5:2 6:6 7:4 8:11 9:2 10:9 
-0 -0 1 0 0 0 0 0 0 1:2 2:13 3:2 4:8 5:1 6:8 7:4 8:10 9:4 10:1 
-0 -0 1 0 0 0 0 0 0 1:4 2:3 3:3 4:3 5:3 6:8 7:1 8:5 9:2 10:13 
-0 -0 1 0 0 0 0 0 0 1:2 2:3 3:3 4:6 5:2 6:13 7:4 8:3 9:2 10:5 
-0 -0 1 0 0 0 0 0 0 1:3 2:4 3:4 4:7 5:2 6:12 7:2 8:7 9:4 10:10 
-0 -0 1 0 0 0 0 0 0 1:3 2:7 3:1 4:7 5:3 6:5 7:2 8:4 9:2 10:13 
-0 -0 1 0 0 0 0 0 0 1:2 2:6 3:1 4:10 5:2 6:10 7:2 8:4 9:3 10:3 
-0 -0 1 0 0 0 0 0 0 1:2 2:1 3:3 4:12 5:3 6:8 7:1 8:8 9:4 10:10 
-0 -0 1 0 0 0 0 0 0 1:2 2:12 3:3 4:3 5:1 6:7 7:3 8:6 9:4 10:12 
-0 -0 1 0 0 0 0 0 0 1:4 2:1 3:2 4:1 5:2 6:7 7:3 8:6 9:2 10:8 
-0 -0 1 0 0 0 0 0 0 1:3 2:7 3:2 4:10 5:3 6:10 7:2 8:8 9:1 10:3 
-0 -0 1 0 0 0 0 0 0 1:3 2:4 3:3 4:13 5:3 6:8 7:2 8:3 9:3 10:3 
-0 -0 1 0 0 0 0 0 0 1:4 2:4 3:3 4:7 5:1 6:7 7:2 8:12 9:4 10:11 
-0 -0 1 0 0 0.1081333584228653 0 0 0 1:2 2:9 3:3 4:13 5:1 6:10 7:2 8:7 9:1 10:13 
-0 -0 1 0 0 0 0 0 0 1:2 2:2 3:2 4:11 5:2 6:13 7:3 8:11 9:1 10:10 
-0 -0 1 0 0 0 0 0 0 1:3 2:4 3:1 4:3 5:1 6:11 7:2 8:3 9:1 10:8 
-0 -0 1 0 0 0 0 0 0 1:4 2:2 3:1 4:4 5:2 6:9 7:3 8:5 9:3 10:4 
-0 -0 1 0 0 0 0 0 0 1:2 2:1 3:1 4:9 5:2 6:10 7:4 8:6 9:2 10:6 
-0 -0 1 0 0 0 0 0 0 1:3 2:6 3:2 4:6 5:4 6:10 7:1 8:7 9:3 10:13 
-0 -0 1 0 0 0 0 0 0 1:2 2:9 3:3 4:13 5:4 6:6 7:2 8:13 9:1 10:8 
-0 -0 1 0 0 0 0 0 0 1:2 2:1 3:2 4:7 5:1 6:2 7:3 8:2 9:1 10:8 
-0 -0 1 0 0 0 0 0 0 1:4 2:12 3:2 4:12 5:1 6:4 7:1 8:3 9:2 10:11 
-0 -0 1 0 0 0 0 0 0 1:3 2:11 3:2 4:8 5:1 6:2 7:3 8:1 9:4 10:11 
-0 -0 1 0 0 0 0 0 0 1:4 2:7 3:3 4:10 5:3 6:11 7:1 8:11 9:3 10:3 
-0 -0 1 0 0 0 0 0 0 1:2 2:9 3:3 4:11 5:4 6:4 7:1 8:4 9:2 10:12 
-0 -0 1 0 0 0 0 0 0 1:1 2:10 3:2 4:2 5:4 6:12 7:4 8:10 9:2 10:5 
-0 -0 1 0 0 0.1482229537406302 0 0 0 1:1 2:1 3:4 4:4 5:1 6:8 7:2 8:1 9:3 10:9 
-0 -0 1 0 0 0 0 0 0 1:4 2:7 3:1 4:5 5:4 6:2 7:4 8:5 9:1 10:11 
-0 -0 1 0.06430846454922701 0 0.2971038036789316 0 0.06436573722124241 0 1:1 2:13 3:1 4:8 5:2 6:13 7:1 8:10 9:4 10:2 
-0 -0 1 0 0 0 0 0 0 1:1 2:9 3:4 4:13 5:2 6:5 7:4 8:5 9:1 10:8 
-0 -0 1 0 0 0 0 0 0 1:3 2:7 3:2 4:3 5:3 6:11 7:3 8:3 9:3 10:12 
-0 -0 1 0 0 0 0 0 0 1:1 2:12 3:4 4:1 5:3 6:12 7:4 8:4 9:3 10:7 
-0 -0 1 0 0 0 0 0 0 1:2 2:7 3:1 4:3 5:2 6:4 7:4 8:9 9:4 10:4 
-0 -0 1 0 0.2036584782050012 0.6709627456469404 0 0 0 1:4 2:6 3:3 4:13 5:4 6:1 7:2 8:13 9:2 10:7 
-0 -0 1 0 0 0.1715890400062954 0 0 0 1:3 2:11 3:3 4:1 5:2 6:3 7:3 8:12 9:1 10:12 
-0 -0 1 0 0.1379081950253641 1 0.07815488334946363 0 0 1:2 2:2 3:3 4:13 5:2 6:13 7:3 8:11 9:3 10:1 
-0 -0 1 0 0 0 0 0 0 1:2 2:6 3:3 4:13 5:2 6:7 7:4 8:8 9:3 10:8 
-0 -0 1 0 0 0 0 0 0 1:1 2:3 3:1 4:7 5:4 6:11 7:3 8:10 9:4 10:7 
-0 -0 1 0 0 0 0 0 0 1:4 2:8 3:1 4:3 5:2 6:13 7:4 8:10 9:2 10:10 
-0 -0 1 0 0 0 0 0 0 1:3 2:8 3:4 4:7 5:4 6:12 7:2 8:5 9:2 10:7 
-0 -0 1 0 0 0 0 0 0 1:2 2:10 3:3 4:8 5:1 6:3 7:3 8:10 9:4 10:7 
-0 -0 1 0 0 0.06917956054458697 0 0 0 1:3 2:2 3:2 4:3 5:2 6:1 7:2 8:9 9:4 10:2 
-0 -0 1 0 0 0 0 0 0 1:2 2:8 3:2 4:10 5:1 6:6 7:3 8:10 9:3 10:13 
-0 -0 1 0 0 0 0 0 0 1:4 2:4 3:2 4:9 5:2 6:13 7:1 8:9 9:2 10:3 
-0 -0 1 0 0 0 0 0 0 1:2 2:12 3:3 4:7 5:1 6:12 7:4 8:8 9:4 10:9 
-0 -0 1 0 0 0 0 0 0 1:4 2:8 3:1 4:4 5:4 6:5 7:1 8:5 9:1 10:3 
-0 -0 1 0 0 0 0 0 0 1:4 2:5 3:4 4:1 5:3 6:11 7:1 8:5 9:1 10:10 
-0 -0 1 0 0 0 0 0 0 1:4 2:9 3:4 4:4 5:1 6:3 7:3 8:13 9:1 10:4 
-0 -0 1 0.04217007463424691 0 0.4904289540889845 0 0 0 1:1 2:1 3:2 4:13 5:1 6:10 7:1 8:2 9:2 10:10 
-0 -0 1 0 0 0 0 0 0 1:1 2:8 3:3 4:12 5:1 6:13 7:4 8:8 9:1 10:6 
-0 -0 1 0 0.1087354161201837 0.2251380872677526 0 0 0 1:3 2:3 3:3 4:1 5:1 6:9 7:1 8:6 9:1 10:1 
-0 -0 1 0 0 0 0 0 0 1:3 2:5 3:2 4:10 5:1 6:6 7:3 8:13 9:2 10:6 
-0 -0 1 0 0 0 0 0 0 1:4 2:3 3:3 4:9 5:4 6:9 7:1 8:8 9:2 10:5 
-0 -0 1 0 0 0 0 0 0 1:1 2:13 3:4 4:5 5:3 6:13 7:3 8:7 9:2 10:4 
-0 -0 1 0 0 0 0 0 0 1:4 2:12 3:3 4:8 5:2 6:7 7:4 8:7 9:3 10:3 
-0 -0 1 0 0 0 0 0 0 1:1 2:1 3:2 4:11 5:3 6:12 7:2 8:5 9:1 10:5 
-0 -0 1 0 0 0 0 0 0 1:2 2:7 3:1 4:12 5:1 6:4 7:2 8:2 9:2 10:12 
-0 -0 1 0 0.240058790876126 1 0.0009907518833150828 0.01572375715245851 0 1:2 2:12 3:4 4:11 5:4 6:1 7:2 8:4 9:1 10:1 
-0 -0 1 0 0 0 0 0 0 1:4 2:13 3:1 4:7 5:2 6:7 7:1 8:9 9:3 10:10 
-0 -0 1 0 0 0 0 0 0 1:3 2:8 3:4 4:1 5:1 6:2 7:2 8:2 9:1 10:9 
-0 -0 1 0 0 0 0 0 0 1:3 2:11 3:2 4:6 5:1 6:12 7:1 8:4 9:3 10:12 
-0 -0 1 0 0 0 0 0 0 1:2 2:12 3:2 4:4 5:2 6:7 7:3 8:13 9:3 10:12 
-0 -0 1 0 0 0 0 0 0 1:1 2:10 3:1 4:2 5:4 6:7 7:3 8:7 9:3 10:4 
-0 -0 1 0 0 0 0 0 0 1:2 2:13 3:1 4:2 5:2 6:2 7:2 8:3 9:3 10:4 
-0 -0 1 0 0 0 0 0 0 1:4 2:5 3:4 4:4 5:4 6:10 7:1 8:7 9:1 10:10 
-0 -0 1 0 0 0 0 0 0 1:3 2:10 3:1 4:6 5:2 6:7 7:1 8:13 9:3 10:6 
-0 -0 1 0 0 0 0 0 0 1:2 2:10 3:2 4:11 5:4 6:11 7:4 8:12 9:1 10:2 
-0 -0 1 0 0 0 0 0 0 1:2 2:9 3:2 4:12 5:3 6:11 7:3 8:9 9:4 10:2 
-0 -0 1 0 0 0 0 0 0 1:4 2:4 3:3 4:7 5:4 6:12 7:1 8:5 9:2 10:7 
-0 -0 1 0 0 0 0 0 0 1:4 2:5 3:4 4:9 5:3 6:13 7:2 8:7 9:4 10:13 
-0 -0 1 0 0 0.07189183546052476 0 0 0 1:2 2:11 3:2 4:13 5:2 6:12 7:1 8:4 9:3 10:12 
-0 -0 1 0 0 0 0 0 0 1:4 2:9 3:2 4:12 5:3 6:8 7:1 8:3 9:4 10:12 
-0 -0 1 0 0 0 0 0 0 1:3 2:7 3:1 4:3 5:2 6:9 7:4 8:12 9:2 10:3 
-0 -0 1 0 0 0 0 0 0 1:2 2:3 3:4 4:7 5:1 6:6 7:2 8:2 9:2 10:6 
-0 -0 1 0 0 0 0 0 0 1:3 2:3 3:1 4:11 5:2 6:9 7:2 8:10 9:2 10:3 
-0 -0 1 0 0 0 0 0 0 1:4 2:6 3:2 4:13 5:2 6:10 7:4 8:13 9:3 10:4 
-0 -0 1 0.04637691184256242 0.5820879305749898 1 0.09162845134604589 0.05920648523088141 0 1:3 2:2 3:3 4:5 5:4 6:2 7:1 8:1 9:1 10:13 
-0 -0 1 0 0 0 0 0 0 1:4 2:11 3:1 4:9 5:2 6:3 7:3 8:13 9:3 10:9 
-0 -0 1 0 0.5744470189926151 1 0 0 0 1:1 2:13 3:3 4:6 5:1 6:12 7:4 8:11 9:2 10:13 
-0 -0 1 0 0.09005964833831337 0.07057943429329577 0 0 0 1:4 2:4 3:2 4:13 5:1 6:12 7:2 8:9 9:4 10:12 
-0 -0 1 0 0 0 0 0 0 1:1 2:1 3:2 4:3 5:2 6:4 7:3 8:2 9:3 10:4 
-0 -0 1 0 0 0 0 0 0 1:1 2:8 3:2 4:11 5:1 6:4 7:2 8:6 9:3 10:8 
-0 -0 1 0 0 0 0 0 0 1:2 2:10 3:4 4:6 5:1 6:7 7:2 8:7 9:3 10:13 
-0 -0 1 0 0 0 0 0 0 1:4 2:9 3:3 4:12 5:2 6:8 7:4 8:8 9:2 10:7 
-0 -0 1 0 0 0 0 0 0 1:2 2:12 3:1 4:7 5:3 6:4 7:4 8:5 9:1 10:4 
-0 -0 1 0 0 0 0 0 0 1:4 2:4 3:2 4:8 5:3 6:10 7:3 8:7 9:1 10:10 
-0 -0 1 0 0 0 0 0 0 1:2 2:4 3:4 4:4 5:2 6:9 7:1 8:10 9:2 10:5 
-0 -0 1 0 0 0 0 0 0 1:2 2:5 3:4 4:11 5:3 6:7 7:4 8:5 9:2 10:6 
-0 -0 1 0 0 0.09384455501183833 0 0 0 1:4 2:9 3:1 4:2 5:1 6:5 7:3 8:2 9:4 10:1 
-0 -0 1 0 0 0 0 0 0 1:3 2:10 3:2 4:2 5:2 6:12 7:1 8:10 9:1 10:4 
-0 -0 1 0 0 0 0 0 0 1:4 2:7 3:3 4:1 5:3 6:6 7:2 8:7 9:1 10:12 
-0 -0 1 0 0 0.09908833328558639 0 0 0 1:3 2:3 3:1 4:6 5:3 6:2 7:3 8:13 9:4 10:3 
-0 -0 1 0 0 0 0 0 0 1:2 2:11 3:2 4:8 5:4 6:8 7:1 8:5 9:4 10:1 
-0 -0 1 0 0 0 0 0 0 1:3 2:4 3:4 4:9 5:2 6:12 7:1 8:6 9:1 10:12 
-0 -0 1 0 0 0 0 0 0 1:2 2:5 3:4 4:7 5:2 6:3 7:1 8:3 9:3 10:2 
-0 -0 1 0 0 0.06332431240998473 0 0 0 1:1 2:5 3:1 4:12 5:3 6:10 7:1 8:10 9:1 10:13 
-0 -0 1 0.02686582985118474 0 0.09740892055186708 0 0 0 1:1 2:13 3:4 4:7 5:1 6:1 7:1 8:10 9:2 10:7 
-0 -0 1 0 0 0 0 0 0 1:1 2:8 3:4 4:10 5:4 6:12 7:2 8:10 9:4 10:1 
-0 -0 1 0 0 0 0 0 0 1:1 2:12 3:2 4:2 5:2 6:12 7:1 8:4 9:4 10:8 
-0 -0 1 0 0 0 0 0 0 1:1 2:5 3:1 4:4 5:2 6:8 7:2 8:6 9:3 10:6 
-0 -0 1 0 0 0 0 0 0 1:3 2:11 3:2 4:10 5:1 6:10 7:3 8:12 9:2 10:2 
-0 -0 1 0 0 0 0 0 0 1:4 2:4 3:3 4:3 5:2 6:3 7:2 8:11 9:2 10:2 
-0 -0 1 0 0 0 0 0 0 1:4 2:2 3:2 4:4 5:2 6:2 7:2 8:5 9:4 10:6 
-0 -0 1 0 0 0.2175369956573492 0 0 0 1:4 2:11 3:2 4:1 5:4 6:1 7:3 8:5 9:3 10:10 
-0 -0 1 0 0 0 0 0 0 1:2 2:6 3:3 4:12 5:2 6:11 7:3 8:8 9:3 10:6 
-0 -0 1 0 0 0 0 0 0 1:3 2:9 3:3 4:4 5:2 6:3 7:1 8:5 9:4 10:9 
-0 -0 1 0 0 0 0 0 0 1:3 2:10 3:3 4:1 5:2 6:4 7:1 8:10 9:2 10:11 
-0 -0 1 0 0 0 0 0 0 1:3 2:2 3:3 4:13 5:3 6:7 7:4 8:7 9:2 10:11 
-0 -0 1 0 0 0 0 0 0 1:4 2:4 3:2 4:12 5:2 6:4 7:2 8:2 9:1 10:10 
-0 -0 1 0 0 0.05488320539647877 0 0 0 1:3 2:6 3:1 4:1 5:4 6:6 7:2 8:2 9:1 10:12 
-0 -0 1 0 0 0 0 0 0 1:3 2:1 3:4 4:11 5:1 6:10 7:2 8:4 9:4 10:10 
-0 -0 1 0 0 0 0 0 0 1:1 2:2 3:1 4:7 5:2 6:3 7:1 8:3 9:2 10:5 
-0 -0 1 0 0 0 0 0 0 1:2 2:3 3:1 4:13 5:2 6:9 7:1 8:7 9:3 10:3 
-0 -0 1 0 0 0 0 0 0.02424350370308914 1:4 2:6 3:4 4:13 5:4 6:2 7:1 8:6 9:4 10:10 
-0 -0 1 0 0.04151003964472377 0.1041522668704719 0 0.1116561806728784 0 1:4 2:2 3:1 4:2 5:2 6:11 7:1 8:1 9:3 10:5 
-0 -0 1 0 0 0 0 0 0 1:2 2:11 3:4 4:5 5:3 6:2 7:1 8:1 9:2 10:2 
-0 -0 1 0 0 0 0 0 0 1:4 2:2 3:2 4:13 5:3 6:8 7:1 8:2 9:3 10:5 
-0 -0 1 0 0 0 0 0 0 1:1 2:9 3:1 4:7 5:1 6:5 7:4 8:5 9:4 10:3 
-0 -0 1 0 0 0 0 0 0 1:3 2:4 3:1 4:6 5:4 6:5 7:3 8:8 9:1 10:8 
-0 -0 1 0 0.2143404938813461 1 0 0 0 1:2 2:12 3:3 4:12 5:4 6:13 7:4 8:2 9:1 10:10 
-0 -0 1 0 0 0 0 0 0 1:4 2:7 3:3 4:5 5:3 6:1 7:1 8:13 9:2 10:7 
-0 -0 1 0 0 0 0 0 0 1:2 2:1 3:4 4:8 5:4 6:7 7:3 8:9 9:1 10:8 
-0 -0 1 0.2537467814785828 0.3460017600826367 1 0.03197583262415928 0 0 1:1 2:2 3:2 4:12 5:4 6:13 7:3 8:8 9:1 10:13 
-0 -0 1 0 0 0 0 0 0 1:2 2:4 3:1 4:9 5:3 6:5 7:3 8:11 9:3 10:4 
-0 -0 1 0 0 0 0 0 0 1:1 2:11 3:4 4:4 5:3 6:12 7:2 8:5 9:1 10:5 
-0 -0 1 0 0 0 0 0 0 1:3 2:13 3:4 4:7 5:1 6:7 7:4 8:9 9:3 10:1 
-0 -0 1 0 0 0 0 0 0 1:2 2:6 3:4 4:3 5:3 6:6 7:4 8:9 9:1 10:4 
-0 -0 1 0 0 0 0 0 0 1:4 2:3 3:2 4:3 5:2 6:13 7:1 8:2 9:4 10:6 
-0 -0 1 0 0 0 0 0 0 1:3 2:3 3:1 4:10 5:1 6:4 7:2 8:4 9:4 10:8 
-0 -0 1 0 0 0 0 0 0 1:3 2:5 3:2 4:4 5:1 6:12 7:4 8:2 9:2 10:2 
-0 -0 1 0 0 0 0 0 0 1:3 2:2 3:1 4:2 5:4 6:6 7:2 8:12 9:4 10:10 
-0 -0 1 0 0 0.2323468122441849 0 0 0 1:2 2:11 3:4 4:1 5:1 6:1 7:1 8:7 9:4 10:4 
-0 -0 1 0 0 0 0 0 0 1:3 2:8 3:1 4:11 5:1 6:10 7:1 8:6 9:4 10:8 
-0 -0 1 0 0 0 0 0 0 1:2 2:5 3:4 4:12 5:2 6:12 7:2 8:4 9:2 10:13 
-0 -0 1 0 0 0 0 0 0 1:4 2:7 3:4 4:2 5:3 6:5 7:2 8:5 9:2 10:11 
-0.001126301685610253 -0 1 0 0 0 0 0 0 1:2 2:8 3:4 4:12 5:2 6:6 7:3 8:11 9:4 10:8 
-0 -0 1 0 0 0.3210295229908081 0 0 0 1:4 2:12 3:3 4:9 5:2 6:12 7:4 8:3 9:3 10:13 
-0 -0 1 0 0 0 0 0 0 1:2 2:9 3:3 4:10 5:4 6:13 7:1 8:10 9:2 10:8 
-0 -0 1 0 0 0 0 0 0 1:1 2:7 3:2 4:12 5:4 6:10 7:1 8:10 9:4 10:6 
-0 -0 1 0 0.1927735419500257 1 0 0 0 1:3 2:13 3:1 4:13 5:4 6:3 7:4 8:9 9:1 10:10 
-0 -0 1 0 0 0.8395224987092148 0 0.04638968475345277 0 1:4 2:9 3:2 4:9 5:1 6:2 7:3 8:1 9:3 10:13 
-0 -0 1 0 0 0 0 0 0 1:2 2:3 3:1 4:10 5:4 6:8 7:1 8:3 9:4 10:7 
-0 -0 1 0 0 0 0 0 0 1:3 2:1 3:2 4:1 5:3 6:5 7:2 8:2 9:4 10:8 
-0 -0 1 0 0 0 0 0 0 1:4 2:7 3:2 4:8 5:1 6:2 7:4 8:2 9:2 10:3 
-0 -0 1 0 0 0 0 0 0 1:4 2:1 3:4 4:9 5:3 6:6 7:4 8:6 9:2 10:13 
-0 -0 1 0 0 0 0 0 0 1:3 2:5 3:2 4:12 5:1 6:5 7:3 8:3 9:1 10:8 
-0 -0 1 0 0 0 0 0 0 1:3 2:1 3:3 4:9 5:4 6:7 7:1 8:9 9:1 10:6 
-0 -0 1 0 0 0 0 0 0 1:1 2:13 3:4 4:8 5:4 6:11 7:3 8:11 9:1 10:5 
-0 -0 1 0.1843657158626247 0 0.5145231704313902 0 0 0 1:3 2:13 3:1 4:11 5:1 6:5 7:4 8:13 9:4 10:9 
-0 -0 1 0 0 0 0 0 0 1:4 2:4 3:3 4:1 5:2 6:1 7:2 8:8 9:3 10:7 
-0 -0 1 0 0 0 0 0 0 1:1 2:7 3:1 4:10 5:1 6:5 7:3 8:8 9:2 10:8 
-0 -0 1 0 0 0 0 0 0 1:2 2:12 3:4 4:11 5:1 6:6 7:1 8:11 9:3 10:5 
-0 -0 1 0 0 0 0 0 0 1:1 2:2 3:4 4:8 5:1 6:10 7:2 8:8 9:1 10:11 
-0 -0 1 0 0 0 0 0 0 1:4 2:3 3:3 4:2 5:4 6:9 7:1 8:9 9:1 10:12 
-0 -0 1 0 0 0 0 0 0 1:2 2:4 3:4 4:3 5:2 6:10 7:1 8:8 9:4 10:4 
-0 -0 1 0 0 0 0 0 0 1:4 2:9 3:4 4:2 5:2 6:9 7:3 8:12 9:3 10:4 
-0 -0 1 0 0 0 0 0 0 1:1 2:11 3:3 4:1 5:3 6:3 7:1 8:7 9:2 10:11 
-5.313162418293629e-005 -0 1 0.04990665665604799 0.227686776942902 1 0 0 0 1:4 2:12 3:4 4:9 5:1 6:13 7:4 8:13 9:3 10:3 
-0 -0 1 0 0 0 0 0 0 1:2 2:7 3:4 4:9 5:3 6:2 7:4 8:8 9:1 10:7 
-0 -0 1 0 0 0 0 0 0 1:4 2:12 3:2 4:8 5:1 6:8 7:4 8:6 9:4 10:5 
-0 -0 1 0 0 0 0 0 0 1:3 2:8 3:2 4:10 5:3 6:7 7:1 8:7 9:2 10:2 
-0 -0 1 0 0.9092152761599502 1 0 0 0 1:4 2:1 3:3 4:13 5:2 6:2 7:2 8:1 9:3 10:9 
-0 -0 1 0 0 0 0 0 0 1:3 2:11 3:4 4:12 5:2 6:11 7:4 8:5 9:1 10:6 
-0 -0 1 0 1 0.8741733786624391 0 0 0 1:2 2:1 3:1 4:2 5:3 6:11 7:2 8:3 9:4 10:2 
-0 -0 1 0 0 1 0 0 0 1:2 2:13 3:2 4:5 5:3 6:13 7:3 8:4 9:1 10:1 
-0 -0 1 0 0 0 0 0 0 1:4 2:4 3:3 4:5 5:1 6:9 7:2 8:7 9:2 10:5 
-0 -0 1 0 0.3295787887623891 1 0 0 0 1:4 2:9 3:3 4:1 5:4 6:13 7:4 8:7 9:1 10:13 
-0 -0 1 0 0 0 0 0 0 1:4 2:2 3:4 4:10 5:1 6:10 7:1 8:7 9:2 10:5 
-0 -0 1 0 0.202070947308951 0.1837436963955104 0 0 0 1:2 2:4 3:1 4:13 5:1 6:12 7:2 8:5 9:2 10:13 
-0 -0 1 0.1572789598545773 0.6497655931867041 1 0 0.1022947961889654 0 1:1 2:10 3:4 4:9 5:3 6:12 7:3 8:13 9:2 10:13 
-0 -0 1 0 0 0 0 0 0 1:1 2:7 3:4 4:6 5:3 6:6 7:2 8:11 9:3 10:2 
-0 -0 1 0 0 0 0 0 0 1:4 2:9 3:3 4:13 5:1 6:12 7:2 8:9 9:4 10:8 
-0 -0 1 0 0 0 0 0 0 1:1 2:9 3:1 4:2 5:4 6:10 7:3 8:9 9:4 10:3 
-0 -0 1 0 0 0 0 0 0 1:3 2:10 3:2 4:3 5:2 6:9 7:3 8:3 9:3 10:1 
-0 -0 1 0 0 0 0 0 0 1:4 2:10 3:3 4:5 5:3 6:1 7:2 8:1 9:1 10:7 
-0 -0 1 0 0 0 0 0 0 1:3 2:10 3:4 4:4 5:2 6:4 7:4 8:1 9:1 10:2 
-0 -0 1 0 0 0 0 0 0 1:3 2:13 3:3 4:9 5:2 6:1 7:1 8:3 9:2 10:9 
-0 -0 1 0 0 0 0.156978732458764 0 0 1:3 2:1 3:1 4:9 5:4 6:1 7:3 8:8 9:2 10:12 
-0 -0 1 0 0 0 0 0 0 1:2 2:6 3:4 4:11 5:3 6:11 7:4 8:4 9:4 10:10 
-0 -0 1 0 0 0 0 0 0 1:1 2:6 3:4 4:8 5:2 6:12 7:4 8:2 9:2 10:6 
-0 -0 1 0 0 0 0 0 0 1:3 2:3 3:2 4:8 5:4 6:8 7:1 8:5 9:2 10:10 
-0 -0 1 0 0.6563544798299066 1 0 0 0 1:2 2:12 3:3 4:13 5:1 6:11 7:4 8:11 9:2 10:10 
-0 -0 1 0 0 0 0 0 0 1:3 2:2 3:4 4:4 5:1 6:5 7:1 8:8 9:1 10:2 
-0 -0 1 0 0 0 0 0 0 1:4 2:9 3:2 4:6 5:4 6:7 7:1 8:4 9:3 10:4 
-0 -0 1 0 0 0 0 0 0 1:4 2:12 3:4 4:8 5:3 6:6 7:2 8:4 9:3 10:4 
-0 -0 1 0 0 0.1837445619958333 0 0 0 1:4 2:2 3:1 4:2 5:1 6:10 7:4 8:3 9:2 10:4 
-0 -0 1 0 0 0 0 0 0 1:3 2:7 3:4 4:3 5:1 6:9 7:3 8:5 9:3 10:3 
-0 -0 1 0 0 0 0 0 0 1:3 2:8 3:3 4:9 5:1 6:12 7:2 8:8 9:2 10:11 
-0 -0 1 0.2414696457756823 1 1 0.1596540273447981 0 0 1:1 2:13 3:4 4:1 5:1 6:3 7:3 8:12 9:4 10:13 
-0 -0 1 0 0 0 0 0 0 1:3 2:8 3:4 4:3 5:1 6:3 7:2 8:9 9:3 10:13 
-0 -0 1 0 0.1104462875597525 0.1644047002083975 0.1357653054116227 0 0 1:4 2:11 3:4 4:10 5:4 6:12 7:3 8:1 9:2 10:12 
-0 -0 1 0 0.1701022072291899 1 0.01673883039106207 0 0 1:2 2:1 3:3 4:11 5:3 6:13 7:4 8:5 9:4 10:1 
-0 -0 1 0.1301191010953733 0.5348183781057448 1 7.167894990120347e-005 0 0 1:1 2:11 3:4 4:1 5:1 6:12 7:4 8:12 9:3 10:2 
-0 -0 1 0 0 0 0 0 0 1:1 2:13 3:4 4:8 5:3 6:1 7:2 8:5 9:1 10:5 
-0 -0 1 0 0 0 0 0 0 1:3 2:9 3:1 4:8 5:2 6:7 7:4 8:9 9:2 10:6 
-0 -0 1 0 0 0 0 0 0 1:3 2:2 3:4 4:8 5:1 6:7 7:2 8:13 9:3 10:8 
-0 -0 1 0 0 0.1989368949548716 0 0 0 1:4 2:6 3:2 4:13 5:4 6:13 7:4 8:3 9:2 10:5 
-0 -0 1 0 0 0 0 0 0 1:4 2:7 3:2 4:8 5:1 6:11 7:3 8:2 9:1 10:2 
-0 -0 1 0 0 0.09432239418933494 0 0 0 1:4 2:1 3:1 4:13 5:1 6:3 7:3 8:7 9:2 10:7 
-0 -0 1 0 0.1384867333855732 1 0 0 0 1:4 2:1 3:1 4:8 5:3 6:13 7:4 8:9 9:2 10:1 
-0 -0 1 0 0 0 0 0 0 1:4 2:7 3:1 4:4 5:4 6:12 7:3 8:4 9:1 10:3 
-0 -0 1 0 0 0 0 0 0 1:4 2:2 3:3 4:6 5:2 6:11 7:2 8:13 9:1 10:6 
-0 -0 1 0 0 0 0 0 0 1:4 2:9 3:1 4:12 5:3 6:9 7:1 8:6 9:1 10:13 
-0 -0 1 0 0 0 0 0 0 1:3 2:11 3:3 4:13 5:1 6:6 7:2 8:11 9:3 10:3 
-0 -0.05455191356731926 1 0 0 0 0 0 0 1:3 2:10 3:1 4:13 5:3 6:9 7:2 8:10 9:3 10:4 
-0 -0 1 0 0.07749822176612867 0.8366201949506184 0 0 0 1:4 2:11 3:1 4:12 5:1 6:13 7:1 8:3 9:3 10:3 
-0 -0 1 0 0 0 0 0 0 1:1 2:3 3:4 4:6 5:3 6:2 7:2 8:6 9:2 10:1 
-0 -0 1 0 0.346277066123364 1 0 0 0 1:2 2:6 3:2 4:3 5:1 6:2 7:4 8:1 9:4 10:2 
-0 -0 1 0 0 0 0 0 0 1:2 2:8 3:3 4:2 5:3 6:5 7:1 8:8 9:3 10:4 
-0 -0 1 0 0 0 0 0 0 1:3 2:9 3:3 4:3 5:4 6:9 7:4 8:13 9:1 10:11 
-0 -0 1 0 0 0.120395717802015 0 0 0 1:1 2:2 3:4 4:4 5:4 6:10 7:3 8:2 9:1 10:11 
-0 -0 1 0 0 0 0 0 0 1:4 2:8 3:4 4:11 5:1 6:2 7:2 8:4 9:3 10:11 
-0 -0 1 0 0 0 0 0 0 1:2 2:10 3:4 4:1 5:1 6:7 7:3 8:1 9:1 10:5 
-0 -0 1 0 0 1 0 0.05909739225652354 0 1:2 2:2 3:1 4:13 5:4 6:10 7:4 8:13 9:1 10:9 
-0 -0 1 0 0 0.09826906675914281 0 0 0 1:4 2:12 3:2 4:12 5:2 6:1 7:4 8:7 9:4 10:4 
-0 -0 1 0 0 0 0 0 0 1:1 2:7 3:4 4:5 5:4 6:4 7:2 8:9 9:3 10:4 
-0 -0 1 0 0 0 0 0 0 1:4 2:4 3:2 4:7 5:3 6:6 7:4 8:3 9:2 10:4 
-0 -0 1 0 0 0 0 0 0 1:3 2:7 3:1 4:4 5:2 6:10 7:4 8:2 9:1 10:10 
-0 -0 1 0 0 0.04129435817231656 0 0 0 1:3 2:12 3:2 4:1 5:3 6:9 7:1 8:1 9:1 10:6 
-0 -0 1 0 0 0 0 0 0 1:3 2:11 3:1 4:3 5:1 6:11 7:2 8:2 9:4 10:6 
-0 -0 1 0 0 0 0 0 0 1:4 2:11 3:2 4:9 5:1 6:5 7:3 8:9 9:2 10:7 
-0 -0 1 0 0 0 0 0 0 1:3 2:8 3:2 4:7 5:2 6:3 7:3 8:7 9:1 10:12 
-0 -0 1 0 0 0 0 0 0 1:2 2:7 3:2 4:5 5:4 6:9 7:4 8:6 9:1 10:9 
-0 -0 1 0 0 0 0 0 0 1:2 2:9 3:3 4:9 5:2 6:7 7:2 8:5 9:3 10:1 
-0 -0 1 0 0 0.04861397719850197 0 0 0 1:3 2:12 3:3 4:2 5:4 6:11 7:2 8:11 9:1 10:3 
-0 -0 1 0 0 0 0 0 0 1:4 2:10 3:4 4:11 5:1 6:10 7:2 8:9 9:4 10:1 
-0 -0 1 0 0 0 0 0 0 1:4 2:2 3:3 4:10 5:4 6:7 7:4 8:10 9:2 10:6 
-0 -0 1 0 0 0 0 0 0 1:2 2:10 3:3 4:9 5:1 6:11 7:2 8:11 9:4 10:5 
-0 -0 1 0 0 0 0 0 0 1:2 2:10 3:3 4:10 5:2 6:3 7:2 8:5 9:1 10:6 
-0 -0 1 0 0 0 0 0 0 1:3 2:9 3:1 4:2 5:1 6:9 7:1 8:10 9:3 10:3 
-0 -0 1 0 0 0.09544561817558438 0 0 0 1:3 2:3 3:4 4:13 5:1 6:5 7:1 8:11 9:1 10:3 
-0 -0 1 0 0 0 0 0 0 1:3 2:4 3:3 4:7 5:3 6:11 7:2 8:4 9:3 10:2 
-0 -0 1 0 0 0 0 0 0 1:3 2:1 3:3 4:9 5:2 6:10 7:1 8:8 9:3 10:8 
-0 -0.4780169335776068 1 0 0 0 0 0 0 1:3 2:1 3:2 4:5 5:2 6:3 7:3 8:4 9:3 10:5 
-0 -0 1 0 0 0 0 0 0 1:2 2:9 3:2 4:13 5:3 6:11 7:2 8:6 9:2 10:11 
-0 -0 1 0 0.2301711387272791 0.5268613440056799 0 0 0 1:4 2:13 3:1 4:12 5:4 6:11 7:2 8:11 9:1 10:6 
-0 -0 1 0 0 0 0 0 0 1:2 2:7 3:4 4:8 5:3 6:5 7:3 8:1 9:1 10:5 
-0 -0 1 0 0 0 0 0 0 1:2 2:8 3:3 4:6 5:2 6:7 7:4 8:7 9:2 10:1 
-0 -0 1 0 0 0 0 0 0 1:3 2:9 3:2 4:9 5:1 6:6 7:1 8:3 9:2 10:5 
-0 -0 1 0 0 0 0 0 0 1:2 2:10 3:4 4:6 5:4 6:8 7:3 8:8 9:3 10:9 
-0 -0 1 0 0 0 0 0 0 1:3 2:6 3:2 4:7 5:2 6:1 7:4 8:4 9:4 10:1 
-0 -0 1 0 0 0 0 0 0 1:2 2:7 3:1 4:4 5:2 6:1 7:4 8:7 9:4 10:10 
-0 -0 1 0 0 0 0 0 0 1:2 2:4 3:1 4:4 5:2 6:7 7:3 8:1 9:1 10:13 
-0 -0 1 0 0.2661143133557014 0.2544199963198513 0 0 0 1:4 2:1 3:1 4:6 5:3 6:5 7:4 8:13 9:4 10:5 
-0 -0 1 0.1050838708934406 1 1 0.47978281184216 0.1341283633749804 0 1:4 2:4 3:4 4:12 5:4 6:1 7:3 8:1 9:1 10:13 
-0 -0 1 0 0 0 0 0 0 1:3 2:7 3:4 4:2 5:3 6:9 7:2 8:11 9:3 10:2 
-0 -0 1 0.06469878235485117 0.1753153786647665 1 0 0 0 1:4 2:3 3:4 4:13 5:1 6:13 7:4 8:12 9:3 10:6 
-0 -0 1 0 0 0 0 0 0 1:2 2:6 3:2 4:7 5:4 6:10 7:3 8:2 9:2 10:10 
-0 -0 1 0 0 0 0 0 0 1:3 2:1 3:1 4:8 5:4 6:8 7:4 8:5 9:2 10:3 
-0 -0 1 0 0 0 0 0 0 1:4 2:10 3:4 4:3 5:1 6:5 7:2 8:3 9:2 10:9 
-0 -0 1 0 0 0 0 0 0 1:4 2:7 3:3 4:5 5:4 6:5 7:1 8:3 9:3 10:8 
-0 -0 1 0 0 0 0 0 0 1:3 2:2 3:2 4:11 5:3 6:11 7:4 8:10 9:4 10:8 
-0 -0 1 0.1180048888587792 1 1 0.03122593976868465 0.02936656351590531 0 1:2 2:2 3:2 4:13 5:3 6:13 7:3 8:1 9:3 10:11 
-0 -0 1 0 0 0 0 0 0 1:2 2:9 3:1 4:9 5:4 6:6 7:2 8:13 9:3 10:5 
-0 -0 1 0.2404252118093148 0.4559150978944168 1 0 0 0.04108743959993415 1:3 2:5 3:2 4:13 5:4 6:12 7:1 8:13 9:1 10:1 
-0 -0 1 0 0 0 0 0 0 1:2 2:9 3:4 4:7 5:3 6:9 7:2 8:13 9:2 10:6 
-0 -0 1 0 0 0 0 0 0 1:1 2:3 3:4 4:10 5:4 6:9 7:1 8:10 9:4 10:5 
-0 -0 1 0 0 0 0 0 0 1:2 2:1 3:1 4:10 5:2 6:10 7:3 8:6 9:4 10:7 
-0 -0 1 0.1285240347696744 0.1364670646276215 0.6914918668348076 0 0 0 1:1 2:5 3:1 4:6 5:1 6:1 7:2 8:13 9:3 10:13 
-0 -0 1 0 0 0 0 0 0 1:1 2:5 3:4 4:11 5:4 6:5 7:4 8:1 9:2 10:8 
-0 -0 1 0 0 0 0 0 0 1:2 2:3 3:1 4:13 5:1 6:10 7:3 8:2 9:2 10:10 
-0 -0 1 0 0 0.1024130677084622 0 0 0 1:4 2:4 3:4 4:7 5:1 6:11 7:4 8:11 9:4 10:13 
-0 -0 1 0 0 0.09987874218492587 0 0 0 1:1 2:6 3:4 4:1 5:4 6:12 7:3 8:12 9:1 10:8 
-0 -0 1 0 0 0 0 0 0 1:1 2:9 3:3 4:11 5:1 6:11 7:3 8:3 9:1 10:7 
-0 -0 1 0 0 0 0 0 0 1:3 2:1 3:1 4:6 5:4 6:11 7:3 8:3 9:4 10:6 
-0 -0 1 0 0 0.09858077754204925 0 0 0 1:4 2:13 3:1 4:2 5:2 6:8 7:3 8:2 9:4 10:9 
-0 -0 1 0 0 1 0 0 0 1:2 2:11 3:4 4:1 5:2 6:13 7:4 8:4 9:1 10:11 
-0 -0 1 0 0 0 0 0 0 1:3 2:6 3:3 4:4 5:2 6:13 7:4 8:10 9:2 10:10 
-0 -0 1 0 0 0 0 0 0 1:2 2:8 3:1 4:3 5:2 6:5 7:1 8:10 9:3 10:3 
-0 -0 1 0 0 0.3133385256650869 0 0 0 1:4 2:13 3:2 4:2 5:1 6:3 7:3 8:9 9:4 10:2 
-0 -0 1 0 0 0 0 0 0 1:2 2:6 3:4 4:8 5:3 6:10 7:2 8:9 9:2 10:10 
-0 -0 1 0 0 0 0 0 0 1:1 2:12 3:4 4:11 5:4 6:3 7:3 8:9 9:1 10:9 
-0 -0 1 0 0 0.1550619898786455 0 0 0 1:2 2:13 3:3 4:13 5:1 6:7 7:3 8:12 9:2 10:3 
-0 -0 1 0 0 0 0 0 0 1:2 2:6 3:3 4:13 5:3 6:6 7:4 8:2 9:1 10:9 
-0 -0 1 0 0 0 0 0 0 1:1 2:6 3:1 4:3 5:3 6:6 7:3 8:13 9:4 10:12 
-0 -0 1 0 0 0 0 0 0 1:4 2:4 3:1 4:9 5:1 6:2 7:3 8:10 9:3 10:2 
-0 -0 1 0 0 0 0 0 0 1:2 2:12 3:3 4:3 5:4 6:13 7:2 8:3 9:4 10:4 
-0 -0 1 0 0 0 0 0 0 1:4 2:5 3:3 4:5 5:1 6:10 7:3 8:11 9:2 10:3 
-0 -0 1 0 0 0 0 0 0 1:1 2:3 3:1 4:12 5:3 6:11 7:2 8:12 9:3 10:10 
-0 -0 1 0 0 0 0 0 0 1:1 2:2 3:4 4:8 5:2 6:8 7:2 8:13 9:2 10:12 
-0 -0 1 0 0 0 0 0 0 1:2 2:5 3:4 4:6 5:2 6:10 7:2 8:6 9:3 10:12 
-0 -0 1 0 0 0 0 0 0 1:2 2:4 3:4 4:13 5:3 6:8 7:3 8:13 9:2 10:10 
-0 -0 1 0 0 0 0 0 0 1:3 2:8 3:3 4:3 5:2 6:6 7:2 8:1 9:1 10:3 
-0 -0 1 0 0 0.07140426405767705 0 0 0 1:1 2:13 3:1 4:2 5:1 6:9 7:2 8:2 9:3 10:6 
-0 -0 1 0 0 0 0 0 0 1:3 2:4 3:4 4:3 5:3 6:12 7:4 8:10 9:1 10:4 
-0 -0 1 0 0 0 0 0 0 1:4 2:3 3:1 4:4 5:2 6:10 7:4 8:5 9:3 10:4 
-0 -0 1 0 0 0 0 0 0 1:3 2:10 3:2 4:8 5:1 6:6 7:4 8:1 9:1 10:10 
-0 -0 1 0 0 0 0 0 0 1:1 2:13 3:2 4:8 5:2 6:10 7:2 8:5 9:1 10:5 
-0 -0 1 0 0 0 0 0 0 1:2 2:4 3:2 4:8 5:4 6:4 7:1 8:11 9:3 10:12 
-0 -0 1 0 0 0.07954721821837783 0 0 0 1:4 2:9 3:4 4:2 5:2 6:6 7:3 8:13 9:2 10:2 
-0 -0 1 0 0 0 0 0 0 1:1 2:7 3:2 4:8 5:4 6:7 7:3 8:5 9:4 10:9 
-0 -0 1 0 0 0 0 0 0 1:4 2:11 3:2 4:4 5:3 6:4 7:1 8:10 9:2 10:7 
-0 -0.01266031636012386 1 0 0 0 0 0 0 1:3 2:6 3:1 4:11 5:1 6:12 7:1 8:6 9:1 10:5 
-0 -0 1 0.02446406143188263 0.3094663209051187 1 0 0 0 1:2 2:1 3:1 4:1 5:4 6:9 7:2 8:6 9:2 10:13 
-0 -0 1 0 0 0 0 0 0 1:1 2:8 3:2 4:7 5:1 6:13 7:1 8:3 9:3 10:8 
-0 -0 1 0 0 0 0 0 0 1:1 2:8 3:1 4:12 5:4 6:5 7:2 8:5 9:4 10:11 
-0 -0 1 0 0 0 0 0 0 1:4 2:10 3:4 4:7 5:1 6:12 7:2 8:6 9:2 10:12 
-0 -0 1 0 0 0 0 0 0 1:3 2:1 3:3 4:7 5:1 6:4 7:2 8:12 9:2 10:7 
-0 -0 1 0 0 0 0 0 0 1:4 2:1 3:2 4:6 5:3 6:5 7:3 8:6 9:2 10:13 
-0 -0 1 0 0 0 0 0 0 1:1 2:10 3:4 4:5 5:1 6:6 7:3 8:7 9:2 10:5 
-0 -0 1 0 0 0 0 0 0 1:4 2:7 3:1 4:10 5:2 6:2 7:3 8:13 9:2 10:10 
-0 -0 1 0 0 0 0 0 0 1:2 2:8 3:1 4:5 5:4 6:11 7:4 8:5 9:2 10:13 
-0 -0 1 0 0 0 0 0 0 1:3 2:4 3:2 4:11 5:2 6:4 7:4 8:1 9:4 10:10 
-0 -0 1 0 0 0 0 0 0 1:4 2:3 3:1 4:3 5:1 6:2 7:2 8:9 9:1 10:10 
-0 -0 1 0 0 0 0 0 0 1:1 2:12 3:4 4:11 5:3 6:4 7:1 8:3 9:1 10:11 
-0 -0 1 0 0 0 0 0 0 1:3 2:4 3:3 4:8 5:3 6:6 7:2 8:3 9:1 10:4 
-0 -0 1 0 0 0 0 0 0 1:2 2:2 3:1 4:6 5:2 6:3 7:3 8:7 9:3 10:2 
-0 -0 1 0 0 0 0 0 0 1:1 2:11 3:4 4:11 5:1 6:3 7:2 8:6 9:2 10:1 
-0 -0 1 0 0 0.3405486099290797 0 0 0 1:2 2:11 3:3 4:13 5:1 6:11 7:2 8:9 9:3 10:12 
-0 -0 1 0 0 0 0 0 0 1:1 2:9 3:1 4:6 5:2 6:9 7:3 8:8 9:3 10:10 
-0 -0 1 0 0 0 0 0 0 1:4 2:5 3:2 4:10 5:2 6:2 7:3 8:8 9:1 10:10 
-0 -0 1 0 0 0 0 0 0 1:2 2:3 3:1 4:11 5:4 6:3 7:4 8:5 9:3 10:8 
-0 -0 1 0 0 0 0 0 0 1:4 2:9 3:2 4:5 5:3 6:5 7:3 8:3 9:1 10:11 
-0 -0 1 0 0 0 0 0 0 1:2 2:4 3:2 4:12 5:3 6:7 7:3 8:2 9:4 10:4 
-0 -0 1 0 0 0 0 0 0 1:2 2:6 3:1 4:3 5:2 6:8 7:3 8:3 9:1 10:1 
-0 -0 1 0 0 0.03314680864280024 0 0 0 1:2 2:11 3:4 4:5 5:4 6:13 7:1 8:5 9:1 10:8 
-0 -0 1 0 0 0 0 0 0 1:1 2:2 3:4 4:8 5:3 6:10 7:2 8:4 9:3 10:4 
-0 -0 1 0 0 0 0 0 0 1:4 2:7 3:2 4:3 5:1 6:5 7:2 8:7 9:3 10:10 
-0 -0 1 0 0 0 0 0 0 1:1 2:2 3:1 4:12 5:3 6:10 7:3 8:6 9:2 10:10 
-0 -0 1 0 0.3234156389928923 1 0 0 0 1:4 2:10 3:2 4:13 5:1 6:9 7:4 8:3 9:1 10:13 
-0 -0 1 0 0 0 0.01711317700164187 0 0 1:3 2:2 3:3 4:6 5:4 6:2 7:4 8:1 9:4 10:5 
-0 -0 1 0 0 0 0 0 0 1:3 2:1 3:4 4:7 5:3 6:4 7:2 8:4 9:1 10:8 
-0 -0 1 0 0 0 0 0 0 1:3 2:10 3:3 4:8 5:4 6:5 7:2 8:12 9:1 10:5 
-0 -0 1 0 0 0 0 0 0 1:4 2:7 3:2 4:10 5:2 6:4 7:1 8:4 9:3 10:11 
-0 -0 1 0 0 0 0 0 0 1:3 2:2 3:2 4:3 5:2 6:2 7:3 8:6 9:3 10:12 
-0 -0 1 0 0 0 0 0 0 1:1 2:7 3:4 4:10 5:4 6:7 7:3 8:6 9:1 10:4 
-0 -0 1 0 0 0 0 0 0 1:4 2:5 3:2 4:9 5:1 6:6 7:1 8:9 9:4 10:4 
-0 -0 1 0 0 0 0 0 0 1:1 2:12 3:3 4:1 5:3 6:5 7:3 8:12 9:2 10:9 
-0 -0 1 0 0 0 0 0 0 1:4 2:8 3:1 4:8 5:2 6:5 7:4 8:11 9:4 10:9 
-0 -0 1 0 0 0 0 0 0 1:4 2:7 3:4 4:5 5:3 6:11 7:2 8:4 9:2 10:5 
-0 -0 1 0 0 0 0 0 0 1:4 2:6 3:1 4:10 5:4 6:10 7:3 8:11 9:2 10:1 
-0 -0 1 0.03717852720493695 0.4469345612974811 1 0 0 0 1:3 2:12 3:4 4:13 5:3 6:3 7:2 8:1 9:3 10:1 
-0 -0 1 0 0 0 0 0 0 1:4 2:12 3:2 4:9 5:4 6:3 7:4 8:6 9:2 10:12 
-0 -0 1 0 0 0 0 0 0 1:1 2:12 3:3 4:13 5:2 6:7 7:2 8:9 9:2 10:12 
-0 -0 1 0 0 0 0 0 0 1:1 2:9 3:4 4:10 5:4 6:4 7:2 8:1 9:4 10:9 
-0 -0 1 0 0 0 0 0 0 1:4 2:8 3:1 4:5 5:1 6:7 7:2 8:4 9:1 10:8 
-0 -0 1 0 0 0 0 0 0 1:1 2:10 3:1 4:1 5:2 6:1 7:2 8:7 9:2 10:11 
-0 -0 1 0 0 0.1115565710238369 0 0 0 1:3 2:2 3:1 4:13 5:1 6:8 7:4 8:3 9:2 10:3 
-0 -0 1 0 0 0 0 0 0 1:4 2:12 3:2 4:12 5:1 6:8 7:1 8:6 9:1 10:3 
-0 -0 1 0 0 0 0 0 0 1:1 2:8 3:3 4:2 5:3 6:8 7:2 8:11 9:2 10:10 
-0 -0 1 0 0 0 0 0 0 1:3 2:13 3:3 4:4 5:4 6:11 7:2 8:3 9:1 10:4 
-0 -0 1 0 0 0 0 0 0 1:4 2:7 3:2 4:9 5:4 6:2 7:2 8:2 9:3 10:3 
-0 -0 1 0.3042887626657703 1 1 0 0 0 1:1 2:13 3:4 4:12 5:2 6:9 7:3 8:12 9:4 10:11 
-0 -0 1 0 0 0.5357925436123348 0 0 0 1:4 2:9 3:1 4:2 5:3 6:1 7:3 8:3 9:2 10:2 
-0 -0 1 0 0 0 0 0 0 1:4 2:12 3:1 4:7 5:2 6:7 7:1 8:6 9:2 10:2 
-0 -0 1 0.1432956047524123 1 1 0.09792332507139712 0.08323425172167735 0 1:4 2:13 3:1 4:1 5:3 6:1 7:3 8:2 9:4 10:3 
-0 -0 1 0 0 0 0 0 0 1:4 2:4 3:4 4:3 5:4 6:7 7:2 8:7 9:2 10:8 
-0 -0 1 0 0 0.05363441636933892 0 0 0 1:1 2:11 3:2 4:1 5:3 6:8 7:1 8:1 9:4 10:6 
-0 -0 1 0 0 0 0 0 0 1:2 2:7 3:4 4:10 5:1 6:10 7:3 8:12 9:1 10:4 
-0 -0 1 0 0 0 0 0 0 1:4 2:1 3:2 4:5 5:1 6:6 7:3 8:9 9:1 10:5 
-0 -0 1 0 0 0 0 0 0 1:1 2:12 3:1 4:11 5:2 6:8 7:1 8:8 9:3 10:9 
-0 -0 1 0 0 0 0 0 0 1:2 2:4 3:2 4:5 5:1 6:12 7:4 8:12 9:4 10:10 
-0 -0 1 0 0 0 0 0 0 1:3 2:3 3:1 4:9 5:4 6:6 7:4 8:8 9:1 10:3 
-0 -0 1 0 0 0 0 0 0 1:2 2:1 3:2 4:10 5:3 6:11 7:4 8:5 9:3 10:5 
-0 -0 1 0 0 0 0 0 0 1:2 2:11 3:2 4:3 5:1 6:7 7:3 8:3 9:3 10:2 
-0 -0 1 0 0 0 0 0 0 1:1 2:8 3:2 4:12 5:3 6:6 7:2 8:7 9:3 10:8 
-0 -0 1 0 0 0 0 0 0 1:1 2:11 3:4 4:3 5:2 6:11 7:2 8:4 9:4 10:2 
-0 -0 1 0 0 0.2896505022602234 0 0 0 1:1 2:13 3:4 4:6 5:2 6:3 7:3 8:3 9:1 10:12 
-0 -0 1 0 0 0 0 0 0 1:4 2:2 3:3 4:8 5:3 6:5 7:2 8:8 9:1 10:3 
-0 -0 1 0 0 0 0 0 0 1:1 2:12 3:2 4:9 5:4 6:1 7:3 8:9 9:2 10:2 
-0 -0 1 0 0 0 0 0 0 1:2 2:8 3:4 4:1 5:4 6:7 7:3 8:8 9:3 10:3 
-0 -0 1 0 0 0 0 0 0 1:3 2:13 3:3 4:1 5:3 6:6 7:3 8:11 9:1 10:11 
-0 -0 1 0 0 0 0 0 0 1:2 2:7 3:4 4:2 5:1 6:2 7:3 8:4 9:3 10:11 
-0 -0 1 0 0 0 0 0 0 1:2 2:5 3:1 4:13 5:2 6:2 7:3 8:8 9:2 10:13 
-0 -0 1 0.03983847951815527 0.4607502040616707 1 0.05961698405866555 0.03066382530205025 0 1:1 2:1 3:2 4:13 5:1 6:5 7:3 8:12 9:2 10:1 
-0 -0 1 0 0 0 0 0 0 1:1 2:8 3:3 4:13 5:4 6:5 7:1 8:11 9:4 10:8 
-0 -0 1 0.04148940225829634 0.1286822666333153 0.901998742476562 0.1901360688081725 0 0 1:3 2:13 3:1 4:4 5:1 6:12 7:2 8:3 9:1 10:13 
-0 -0 1 0.09918233994311809 0.2262539623674045 1 0 0 0.04595443258551282 1:4 2:1 3:1 4:12 5:1 6:9 7:1 8:1 9:4 10:6 
-0 -0 1 0 0 0.02088464862876668 0 0 0 1:4 2:7 3:3 4:12 5:1 6:10 7:4 8:12 9:4 10:11 
-0 -0 1 0 0 0 0 0 0 1:4 2:5 3:2 4:4 5:1 6:5 7:1 8:8 9:3 10:7 
-0 -0 1 0 0 0 0 0 0 1:2 2:11 3:1 4:4 5:1 6:9 7:3 8:9 9:1 10:2 
-0 -0 1 0 0 0 0 0 0 1:3 2:12 3:1 4:12 5:4 6:5 7:3 8:11 9:2 10:6 
-0 -0 1 0 0 0 0 0 0 1:2 2:2 3:4 4:2 5:3 6:1 7:1 8:10 9:1 10:6 
-0 -0 1 0 0.751049483413486 1 0 0 0 1:2 2:7 3:2 4:3 5:1 6:1 7:3 8:2 9:2 10:1 
-0 -0 1 0 0 0 0 0 0 1:3 2:13 3:1 4:7 5:2 6:13 7:1 8:4 9:1 10:9 
-0 -0 1 0 0 0 0 0 0 1:4 2:12 3:3 4:5 5:3 6:10 7:1 8:10 9:1 10:6 
-0 -0 1 0 0 0 0 0 0 1:4 2:12 3:4 4:13 5:3 6:8 7:3 8:12 9:2 10:6 
-0 -0 1 0 0 0 0 0 0 1:2 2:10 3:1 4:10 5:4 6:11 7:2 8:4 9:1 10:9 
-0 -0 1 0 0 0 0 0 0 1:1 2:7 3:1 4:2 5:4 6:9 7:4 8:2 9:1 10:8 
-0 -0 1 0 0 0 0 0 0 1:2 2:5 3:1 4:2 5:2 6:10 7:3 8:1 9:2 10:2 
-0 -0 1 0 0 0 0 0 0 1:2 2:2 3:3 4:11 5:3 6:1 7:2 8:3 9:3 10:2 
-0 -0 1 0 0.08135161783276793 1 0.1215023583786863 0 0 1:3 2:12 3:4 4:4 5:3 6:2 7:3 8:1 9:4 10:12 
-0 -0 1 0 0 0 0 0 0 1:4 2:7 3:2 4:9 5:4 6:11 7:3 8:11 9:1 10:4 
-0 -0 1 0 0 0 0 0 0 1:1 2:5 3:3 4:10 5:2 6:10 7:3 8:11 9:3 10:13 
-0 -0 1 0 0 0 0 0 0 1:3 2:4 3:3 4:1 5:3 6:11 7:2 8:1 9:1 10:8 
-0 -0 1 0 0 0 0 0 0 1:1 2:8 3:1 4:2 5:2 6:4 7:1 8:11 9:4 10:4 
-0 -0 1 0 0 0 0 0 0 1:1 2:5 3:4 4:2 5:4 6:5 7:1 8:8 9:1 10:1 
-0 -0 1 0 0.5860950978816892 1 0.1547538470020977 0 0 1:1 2:1 3:3 4:1 5:1 6:10 7:3 8:2 9:2 10:12 
-0 -0 1 0 0 0 0 0 0 1:3 2:7 3:1 4:7 5:3 6:8 7:4 8:4 9:2 10:10 
-0 -0 1 0 0 0 0 0 0 1:2 2:3 3:3 4:3 5:4 6:11 7:3 8:6 9:3 10:13 
-0 -0 1 0 0.09030169098624014 0.8890686848865073 0 0 0 1:1 2:2 3:2 4:2 5:2 6:5 7:4 8:13 9:4 10:12 
-0 -0 1 0.2091037669423103 0.3867590021472946 1 0.1876446136511323 0 0 1:3 2:13 3:1 4:13 5:3 6:7 7:2 8:12 9:1 10:1 
-0 -0 1 0 0.07875371392554342 0 0 0 0 1:2 2:9 3:2 4:1 5:1 6:5 7:1 8:1 9:1 10:11 
-0 -0 1 0 0 0 0 0 0 1:4 2:11 3:1 4:10 5:2 6:11 7:3 8:2 9:4 10:5 
-0 -0 1 0 0 0 0 0 0 1:3 2:7 3:4 4:6 5:4 6:9 7:1 8:5 9:3 10:6 
-0 -0 1 0 0 0 0 0 0 1:1 2:12 3:2 4:9 5:3 6:10 7:4 8:7 9:2 10:12 
-0 -0 1 0 0 0 0 0 0 1:3 2:12 3:1 4:12 5:4 6:2 7:2 8:9 9:3 10:3 
-0 -0 1 0 0 0 0 0 0 1:3 2:7 3:3 4:11 5:1 6:10 7:2 8:4 9:1 10:7 
-0 -0 1 0 0 0.02662065828270535 0 0 0 1:4 2:11 3:2 4:1 5:4 6:4 7:3 8:1 9:2 10:5 
-0 -0 1 0 0 0 0 0 0 1:1 2:3 3:3 4:7 5:4 6:13 7:3 8:12 9:1 10:7 
-0 -0 1 0 0 0 0 0 0 1:1 2:2 3:3 4:12 5:3 6:6 7:4 8:12 9:2 10:10 
-0 -0 1 0.05273234112958975 0.21152892449232 0.5136312643740593 0 0 0 1:4 2:9 3:1 4:1 5:2 6:1 7:1 8:13 9:3 10:7 
-0 -0 1 0 0 0 0 0 0 1:2 2:13 3:2 4:2 5:3 6:4 7:4 8:2 9:4 10:7 
-0 -0 1 0 0 0 0 0 0 1:1 2:3 3:2 4:11 5:3 6:1 7:2 8:8 9:1 10:1 
-0 -0 1 0 0 0 0 0 0 1:2 2:12 3:3 4:13 5:3 6:2 7:1 8:7 9:4 10:7 
-0 -0 1 0 0 0 0 0 0 1:2 2:10 3:4 4:1 5:1 6:8 7:1 8:7 9:1 10:10 
-0 -0 1 0 0 0 0 0 0 1:2 2:12 3:4 4:2 5:1 6:8 7:1 8:12 9:1 10:6 
-0 -0 1 0 0 0 0 0 0 1:3 2:2 3:1 4:1 5:3 6:8 7:2 8:11 9:4 10:8 
-0 -0 1 0 0 0 0 0 0 1:3 2:8 3:4 4:1 5:4 6:11 7:4 8:6 9:4 10:8 
-0 -0 1 0 0 0 0 0 0 1:2 2:1 3:3 4:6 5:1 6:10 7:3 8:12 9:3 10:1 
-0 -0 1 0 0 0 0 0 0 1:4 2:2 3:1 4:9 5:4 6:12 7:4 8:9 9:3 10:7 
-0 -0 1 0 0 0 0 0 0 1:2 2:10 3:4 4:6 5:1 6:6 7:4 8:2 9:1 10:8 
-0 -0 1 0 0 0 0 0 0 1:2 2:2 3:1 4:3 5:4 6:10 7:1 8:5 9:4 10:2 
-0 -0 1 0 0 0 0 0 0 1:4 2:13 3:3 4:10 5:1 6:11 7:2 8:11 9:1 10:4 
-0 -0 1 0 0 0 0 0 0 1:4 2:9 3:4 4:3 5:3 6:9 7:3 8:1 9:2 10:8 
-0 -0 1 0 0 0 0 0 0 1:2 2:5 3:1 4:5 5:3 6:4 7:3 8:12 9:4 10:9 
-0 -0 1 0 0 0 0 0 0 1:4 2:6 3:2 4:1 5:3 6:13 7:2 8:5 9:1 10:6 
-0 -0 1 0 0 0 0 0 0 1:3 2:1 3:3 4:2 5:1 6:4 7:1 8:8 9:4 10:8 
-0 -0 1 0 0 0 0 0 0 1:1 2:11 3:3 4:4 5:3 6:3 7:4 8:3 9:3 10:12 
-0 -0 1 0 0 0 0 0 0 1:4 2:11 3:2 4:9 5:1 6:2 7:2 8:2 9:1 10:7 
-0 -0 1 0 0 0 0 0 0 1:3 2:4 3:1 4:5 5:3 6:5 7:2 8:13 9:3 10:9 
-0 -0 1 0 0 0 0 0 0 1:2 2:12 3:1 4:7 5:4 6:9 7:3 8:12 9:4 10:4 
-0 -0 1 0 0.09865477685846257 0.1693774277002728 0 0 0 1:3 2:2 3:4 4:3 5:1 6:13 7:4 8:2 9:4 10:9 
-0 -0 1 0 0 0 0 0 0 1:1 2:13 3:3 4:10 5:1 6:10 7:3 8:4 9:1 10:8 
-0 -0 1 0 0 0 0 0 0 1:2 2:11 3:1 4:8 5:1 6:4 7:3 8:4 9:1 10:12 
-0 -0 1 0 0 0 0 0 0 1:3 2:3 3:4 4:1 5:4 6:3 7:3 8:6 9:1 10:9 
-0 -0 1 0 0 0.1789377290064952 0 0 0 1:1 2:10 3:1 4:9 5:4 6:11 7:3 8:11 9:3 10:13 
-0 -0 1 0 0 0 0 0 0 1:2 2:11 3:4 4:12 5:4 6:8 7:3 8:11 9:2 10:3 
-0 -0 1 0 0 0 0 0 0 1:2 2:7 3:3 4:2 5:4 6:3 7:1 8:8 9:1 10:7 
-0 -0 1 0 0 0 0 0 0 1:2 2:10 3:3 4:11 5:2 6:12 7:3 8:4 9:4 10:11 
-0 -0 1 0.1670332035101898 0.5758610667179741 1 0 0 0 1:4 2:1 3:1 4:13 5:1 6:1 7:2 8:12 9:2 10:7 
-0 -0 1 0 0 0 0 0 0 1:1 2:1 3:2 4:9 5:4 6:5 7:4 8:8 9:3 10:9 
-0 -0 1 0 0 0 0 0 0 1:3 2:6 3:3 4:13 5:1 6:5 7:1 8:12 9:2 10:6 
-0 -0 1 0 0 0 0 0 0 1:2 2:11 3:1 4:5 5:3 6:5 7:4 8:7 9:2 10:3 
-0 -0 1 0 0 0.05770565396363936 0 0 0 1:2 2:9 3:1 4:12 5:4 6:12 7:4 8:8 9:4 10:1 
-0 -0 1 0 0 0 0 0 0 1:3 2:3 3:4 4:11 5:4 6:7 7:2 8:4 9:3 10:11 
-0 -0 1 0 0 0 0 0 0 1:2 2:1 3:2 4:8 5:4 6:1 7:1 8:10 9:4 10:7 
-0 -0 1 0 0 0 0 0 0 1:2 2:8 3:4 4:4 5:1 6:8 7:1 8:6 9:3 10:2 
-0 -0 1 0 0 0 0 0 0 1:4 2:7 3:1 4:12 5:4 6:10 7:2 8:13 9:2 10:10 
-0 -0 1 0 0 0 0 0 0 1:1 2:2 3:3 4:2 5:2 6:8 7:4 8:6 9:1 10:12 
-0 -0 1 0 0 0.2378199888551412 0 0 0 1:2 2:13 3:1 4:3 5:1 6:9 7:1 8:1 9:4 10:9 
-0 -0 1 0 0 0 0 0 0 1:3 2:10 3:1 4:2 5:2 6:2 7:1 8:8 9:3 10:4 
-0 -0 1 0 0 0 0 0 0 1:2 2:2 3:2 4:8 5:3 6:11 7:4 8:8 9:4 10:3 
-0 -0 1 0 0 0 0 0 0 1:3 2:5 3:2 4:13 5:4 6:3 7:4 8:7 9:1 10:3 
-0 -0 1 0 0 0 0 0 0 1:4 2:9 3:1 4:13 5:1 6:9 7:3 8:10 9:3 10:11 
-0 -0 1 0 0 0 0 0 0 1:1 2:7 3:3 4:10 5:2 6:8 7:4 8:8 9:3 10:12 
-0 -0 1 0 0 0 0 0 0 1:1 2:8 3:4 4:5 5:2 6:5 7:2 8:2 9:1 10:10 
-0 -0 1 0 0 0 0 0 0 1:3 2:2 3:3 4:12 5:2 6:9 7:1 8:2 9:4 10:8 
-0 -0 1 0 0 0 0 0 0 1:1 2:12 3:2 4:2 5:3 6:4 7:3 8:9 9:1 10:9 
-0 -0 1 0 0 0 0 0 0 1:2 2:9 3:4 4:6 5:3 6:7 7:4 8:13 9:2 10:13 
-0 -0 1 0 0 0 0 0 0 1:1 2:13 3:3 4:4 5:4 6:6 7:3 8:13 9:2 10:3 
-0 -0 1 0 0 0.04029040316275585 0 0 0 1:1 2:6 3:3 4:12 5:4 6:11 7:2 8:11 9:3 10:13 
-0 -0 1 0 0 0 0 0 0 1:3 2:11 3:1 4:6 5:2 6:6 7:3 8:7 9:2 10:5 
-0 -0 1 0 0 0.1046126193716679 0 0 0 1:3 2:2 3:1 4:10 5:1 6:13 7:3 8:11 9:2 10:10 
-0 -0 1 0 0 0.06653822635856233 0 0 0 1:4 2:8 3:3 4:12 5:4 6:12 7:4 8:13 9:2 10:6 
-0 -0 1 0 0 0 0 0 0 1:2 2:1 3:4 4:1 5:2 6:8 7:2 8:6 9:3 10:11 
-0 -0 1 0 0 0.2151167084339931 0 0 0 1:4 2:4 3:1 4:4 5:1 6:12 7:1 8:10 9:2 10:1 
-0 -0 1 0 0.4076155984820849 0.9811879079179771 0 0 0 1:4 2:1 3:2 4:6 5:3 6:4 7:2 8:1 9:4 10:2 
-0 -0 1 0 0 0.5832224168875245 0 0 0 1:3 2:12 3:3 4:3 5:2 6:1 7:3 8:1 9:4 10:9 
-0 -0 1 0 0 0 0 0 0 1:1 2:5 3:3 4:5 5:3 6:1 7:2 8:13 9:3 10:8 
-0 -0 1 0 0 0 0 0 0 1:1 2:5 3:2 4:6 5:3 6:10 7:4 8:10 9:3 10:3 
-0 -0 1 0 0 0 0 0 0 1:3 2:6 3:4 4:7 5:4 6:4 7:3 8:10 9:1 10:7 
-0 -0 1 0 0 0 0 0 0 1:1 2:1 3:2 4:6 5:3 6:8 7:3 8:6 9:4 10:2 
-0 -0 1 0 0 0 0 0 0 1:2 2:9 3:4 4:5 5:2 6:11 7:1 8:5 9:4 10:10 
-0 -0 1 0 0 0.1403173826724181 0 0 0 1:2 2:6 3:1 4:1 5:4 6:6 7:1 8:13 9:4 10:10 
-0 -0 1 0 0 0 0 0 0 1:2 2:3 3:1 4:2 5:2 6:11 7:2 8:7 9:3 10:3 
-0 -0 1 0 0 0 0 0 0 1:4 2:4 3:2 4:6 5:4 6:7 7:1 8:4 9:2 10:11 
-0 -0 1 0 0 0 0 0 0 1:2 2:6 3:4 4:6 5:2 6:12 7:4 8:10 9:1 10:3 
-0 -0 1 0 0 0 0 0 0 1:1 2:10 3:4 4:6 5:3 6:10 7:4 8:5 9:4 10:9 
-0 -0 1 0 0 0 0 0 0 1:3 2:6 3:1 4:7 5:4 6:7 7:1 8:1 9:1 10:5 
-0 -0 1 0 0 0 0 0 0 1:3 2:3 3:2 4:2 5:3 6:2 7:2 8:9 9:2 10:10 
-0 -0 1 0 0 0 0 0 0 1:1 2:3 3:1 4:11 5:3 6:10 7:4 8:7 9:2 10:10 
-0 -0 1 0 0 0 0 0 0 1:3 2:10 3:3 4:2 5:2 6:6 7:3 8:7 9:2 10:2 
-0 -0 1 0 0.1689858168121527 0.3339793973719254 0 0 0 1:1 2:8 3:3 4:13 5:4 6:2 7:2 8:3 9:1 10:13 
-0 -0 1 0 0 0 0 0 0 1:2 2:11 3:4 4:2 5:4 6:8 7:1 8:4 9:1 10:8 
-0 -0 1 0 0 0.100518064306234 0 0 0 1:1 2:12 3:2 4:3 5:1 6:2 7:4 8:8 9:4 10:2 
-0 -0 1 0 0 0 0 0 0 1:2 2:8 3:4 4:6 5:1 6:5 7:3 8:9 9:4 10:5 
-0 -0 1 0 0 0 0 0 0 1:2 2:13 3:4 4:1 5:3 6:5 7:1 8:6 9:2 10:6 
-0 -0 1 0 0.06574957584240358 0.411129848402375 0 0 0 1:1 2:12 3:3 4:5 5:3 6:1 7:4 8:1 9:3 10:10 
-0 -0 1 0 0 0 0 0 0 1:3 2:2 3:3 4:12 5:1 6:5 7:1 8:11 9:3 10:11 
-0 -0 1 0 0 0 0 0 0 1:4 2:7 3:2 4:13 5:4 6:5 7:2 8:8 9:3 10:7 
-0 -0 1 0 0 0 0 0 0 1:4 2:3 3:2 4:12 5:2 6:10 7:3 8:7 9:3 10:10 
-0 -0 1 0 0.1158267706008989 0.447221293046171 0 0 0 1:2 2:12 3:4 4:13 5:3 6:6 7:3 8:2 9:2 10:13 
-0 -0 1 0 0 0 0 0 0 1:1 2:12 3:2 4:11 5:2 6:9 7:3 8:10 9:3 10:11 
-0 -0 1 0 0 0 0 0 0 1:4 2:9 3:2 4:9 5:1 6:11 7:3 8:13 9:2 10:7 
-0 -0 1 0 0 0 0 0 0 1:3 2:1 3:3 4:6 5:2 6:6 7:2 8:3 9:4 10:9 
-0 -0 1 0 0 0 0 0 0 1:3 2:13 3:2 4:13 5:3 6:4 7:2 8:8 9:4 10:10 
-0 -0 1 0 0 0 0 0 0 1:4 2:8 3:4 4:3 5:4 6:5 7:4 8:11 9:3 10:3 
-0 -0 1 0 0 0 0 0 0 1:3 2:3 3:3 4:11 5:2 6:3 7:1 8:13 9:2 10:12 
-0 -0 1 0 0 0 0 0 0 1:2 2:6 3:4 4:5 5:1 6:5 7:2 8:2 9:2 10:13 
-0 -0 1 0 0 0 0 0 0 1:1 2:10 3:4 4:8 5:3 6:8 7:4 8:4 9:2 10:5 
-0 -0 1 0 0 0 0 0 0 1:1 2:12 3:1 4:6 5:3 6:10 7:1 8:10 9:4 10:8 
-0 -0 1 0 0.1415670000876891 0.3936669645675919 0 0 0 1:2 2:3 3:3 4:1 5:4 6:11 7:4 8:1 9:1 10:6 
-0 -0 1 0.1346242916050174 0.6181633301110969 1 0 0.06239799278652236 0 1:2 2:1 3:4 4:11 5:4 6:10 7:1 8:2 9:1 10:1 
-0 -0 1 0 0 0 0 0 0 1:4 2:5 3:3 4:8 5:1 6:7 7:4 8:7 9:3 10:13 
-0 -0 1 0 0 0 0 0 0 1:2 2:2 3:2 4:3 5:1 6:7 7:1 8:3 9:3 10:5 
-0 -0 1 0 0 0 0 0 0 1:1 2:1 3:2 4:10 5:4 6:11 7:4 8:1 9:3 10:6 
-0.002784578343936237 -0 1 0 0 0 0 0 0 1:2 2:9 3:4 4:13 5:3 6:10 7:3 8:13 9:1 10:6 
-0 -0 1 0.04031994005297494 1 1 0.0438382312782387 0.06161740712600645 0 1:1 2:1 3:1 4:4 5:4 6:1 7:4 8:10 9:1 10:2 
-0 -0 1 0 0 0 0 0 0 1:1 2:2 3:2 4:5 5:1 6:11 7:4 8:2 9:3 10:4 
-0 -0 1 0 0 0.2347146417687364 0 0 0 1:1 2:1 3:2 4:8 5:1 6:4 7:2 8:6 9:3 10:1 
-0 -0 1 0 0 0 0 0 0 1:4 2:9 3:4 4:11 5:3 6:8 7:3 8:9 9:3 10:5 
-0 -0 1 0.3371129425534191 0.6658868297351979 1 0.05724767111418559 0.01781275828027923 0 1:3 2:13 3:2 4:8 5:2 6:12 7:4 8:1 9:4 10:13 
-0 -0 1 0 0 0 0 0 0 1:2 2:10 3:4 4:13 5:3 6:10 7:4 8:3 9:2 10:6 
-0 -0 1 0 0 0 0 0 0 1:2 2:6 3:1 4:9 5:3 6:6 7:1 8:3 9:1 10:7 
-0 -0 1 0 0 0 0 0 0 1:3 2:7 3:3 4:6 5:2 6:9 7:1 8:3 9:2 10:6 
-0 -0 1 0 0 0 0 0 0 1:1 2:11 3:1 4:5 5:1 6:7 7:2 8:6 9:2 10:5 
-0 -0 1 0 0 0 0 0 0 1:2 2:8 3:3 4:2 5:4 6:7 7:2 8:2 9:4 10:6 
-0 -0 1 0 0 0 0 0 0 1:2 2:7 3:3 4:1 5:4 6:5 7:3 8:5 9:1 10:3 
-0 -0 1 0 0 0 0 0 0 1:1 2:3 3:2 4:11 5:2 6:3 7:1 8:5 9:2 10:8 
-0 -0 1 0 0 0 0 0 0 1:2 2:7 3:1 4:1 5:2 6:6 7:1 8:8 9:4 10:8 
-0 -0 1 0 0 0 0 0 0 1:3 2:12 3:2 4:11 5:2 6:6 7:2 8:7 9:1 10:11 
-0 -0 1 0 0 0 0 0 0 1:3 2:2 3:2 4:8 5:3 6:6 7:4 8:2 9:1 10:3 
-0 -0 1 0 0 0.8939635099477918 0 0 0 1:2 2:11 3:1 4:2 5:3 6:11 7:2 8:12 9:4 10:1 
-0 -0 1 0 0 0 0 0 0 1:3 2:5 3:4 4:12 5:4 6:8 7:1 8:6 9:1 10:5 
-0 -0 1 0 0 0 0 0 0 1:2 2:8 3:1 4:7 5:4 6:12 7:3 8:9 9:2 10:9 
-0 -0 1 0 0 0 0 0 0 1:2 2:7 3:1 4:10 5:4 6:1 7:3 8:7 9:4 10:13 
-0 -0 1 0 0 0 0 0 0 1:3 2:2 3:2 4:6 5:3 6:9 7:1 8:9 9:3 10:3 
-0 -0 1 0 0 0 0 0 0 1:3 2:9 3:3 4:11 5:2 6:8 7:2 8:6 9:1 10:11 
-0 -0 1 0 0 0 0 0 0 1:1 2:5 3:2 4:11 5:1 6:9 7:1 8:8 9:3 10:11 
-0 -0 1 0 0 0 0 0 0 1:2 2:13 3:4 4:7 5:2 6:5 7:3 8:2 9:1 10:5 
-0 -0 1 0 0 0 0 0 0 1:1 2:3 3:4 4:5 5:1 6:7 7:1 8:6 9:4 10:3 
-0 -0 1 0 0 0 0 0 0 1:2 2:6 3:3 4:6 5:2 6:10 7:1 8:13 9:3 10:12 
-0 -0 1 0 0 0.07144308681926789 0 0 0 1:2 2:8 3:1 4:13 5:2 6:3 7:3 8:12 9:4 10:12 
-0 -0 1 0 0 0 0 0 0 1:2 2:12 3:2 4:6 5:2 6:3 7:3 8:6 9:4 10:5 
-0 -0 1 0 0.109764053081317 0.4276327420986951 0 0 0 1:4 2:4 3:1 4:3 5:4 6:2 7:1 8:1 9:3 10:4 
-0 -0 1 0 0 0.3358679275625026 0 0 0 1:1 2:13 3:3 4:7 5:2 6:1 7:4 8:11 9:1 10:11 
-0 -0 1 0 0 0 0 0 0 1:2 2:1 3:1 4:3 5:4 6:11 7:1 8:7 9:2 10:11 
-0 -0 1 0 0 0 0 0 0 1:4 2:5 3:2 4:8 5:4 6:4 7:2 8:5 9:1 10:7 
-0 -0 1 0 0 0 0 0 0 1:4 2:2 3:2 4:13 5:2 6:7 7:3 8:2 9:2 10:5 
-0 -0 1 0 0 0 0 0 0 1:4 2:1 3:2 4:5 5:2 6:6 7:3 8:13 9:4 10:5 
-0 -0 1 0 0 0 0 0 0 1:2 2:11 3:2 4:6 5:4 6:3 7:4 8:6 9:2 10:10 
-0 -0 1 0 0 0 0 0 0 1:2 2:11 3:2 4:12 5:1 6:12 7:1 8:10 9:4 10:8 
-0 -0 1 0 0 0 0 0 0 1:2 2:8 3:3 4:11 5:2 6:2 7:4 8:2 9:4 10:3 
-0 -0 1 0 0 0 0 0 0 1:1 2:9 3:4 4:3 5:1 6:8 7:2 8:5 9:3 10:5 
-0 -0 1 0 0 0 0 0 0 1:3 2:1 3:1 4:10 5:2 6:9 7:3 8:7 9:1 10:9 
-0 -0 1 0.09690010510589037 0.1674574049974507 1 0 0 0 1:4 2:13 3:1 4:7 5:1 6:1 7:4 8:8 9:3 10:1 
-0 -0 1 0 0 0 0 0 0 1:2 2:13 3:1 4:8 5:1 6:9 7:3 8:7 9:4 10:7 
-0 -0 1 0 0 0 0 0 0 1:4 2:6 3:1 4:9 5:1 6:6 7:2 8:8 9:3 10:4 
-0 -0 1 0 0 0 0 0 0 1:4 2:1 3:2 4:10 5:2 6:6 7:2 8:9 9:1 10:1 
-0 -0 1 0.04366727929851678 0.5780253581535381 1 0.06637592830616147 0 0 1:3 2:13 3:3 4:1 5:2 6:1 7:1 8:2 9:2 10:10 
-0 -0 1 0 0 0 0 0 0 1:3 2:6 3:2 4:1 5:2 6:6 7:3 8:7 9:1 10:3 
-0 -0 1 0 0 0 0 0 0 1:4 2:6 3:1 4:7 5:4 6:10 7:4 8:7 9:4 10:12 
-0 -0 1 0 0 0 0 0 0 1:2 2:11 3:4 4:3 5:1 6:11 7:2 8:7 9:3 10:4 
-0 -0 1 0 0 0 0 0 0 1:3 2:3 3:3 4:7 5:2 6:11 7:1 8:11 9:2 10:4 
-0 -0 1 0.07899840537376687 0.6843468304223046 1 0 0.04623452727488611 0 1:3 2:4 3:3 4:1 5:1 6:3 7:3 8:13 9:1 10:1 
-0 -0 1 0 0 0 0 0 0 1:1 2:12 3:1 4:11 5:3 6:11 7:4 8:4 9:4 10:5 
-0 -0 1 0 0 0 0 0 0 1:3 2:4 3:2 4:1 5:4 6:1 7:3 8:8 9:4 10:10 
-0 -0 1 0 0.06348439606013323 0.4201034949305854 0 0 0 1:2 2:13 3:1 4:4 5:3 6:13 7:3 8:8 9:3 10:1 
-0 -0 1 0 0 0 0 0 0 1:2 2:6 3:1 4:10 5:4 6:7 7:4 8:6 9:4 10:5 
-0 -0 1 0 0 0 0 0 0 1:3 2:12 3:3 4:2 5:2 6:8 7:1 8:2 9:2 10:3 
-0 -0 1 0 0 0 0 0 0 1:3 2:12 3:2 4:11 5:3 6:4 7:3 8:11 9:1 10:5 
-0 -0 1 0 0 0 0 0 0 1:4 2:2 3:3 4:9 5:2 6:4 7:3 8:8 9:4 10:9 
-0 -0 1 0 0 0 0 0 0 1:3 2:11 3:4 4:9 5:1 6:3 7:2 8:8 9:2 10:3 
-0 -0 1 0 0 0 0 0 0 1:2 2:4 3:1 4:3 5:4 6:6 7:1 8:4 9:1 10:10 
-0 -0 1 0 0 0 0 0 0 1:4 2:13 3:4 4:2 5:2 6:6 7:3 8:6 9:2 10:7 
-0 -0 1 0 0 0 0 0 0 1:1 2:4 3:1 4:8 5:3 6:5 7:4 8:4 9:2 10:6 
-0 -0 1 0 0 0 0 0 0 1:2 2:6 3:1 4:4 5:4 6:5 7:1 8:9 9:4 10:6 
-0 -0 1 0 0 0 0 0 0 1:4 2:3 3:2 4:5 5:4 6:4 7:3 8:3 9:3 10:13 
-0 -0 1 0.04594010803523176 0.06770696823598803 1 0 0 0 1:4 2:12 3:2 4:1 5:4 6:3 7:2 8:12 9:2 10:2 
-0 -0 1 0 0 0 0 0 0 1:4 2:2 3:4 4:8 5:4 6:10 7:3 8:2 9:2 10:4 
-0 -0 1 0 0 0 0 0 0 1:4 2:10 3:1 4:7 5:1 6:10 7:1 8:12 9:1 10:1 
-0 -0 1 0 0 0 0 0 0 1:4 2:11 3:4 4:6 5:1 6:5 7:3 8:8 9:2 10:8 
-0 -0 1 0 0 0 0 0 0 1:4 2:7 3:3 4:12 5:3 6:7 7:4 8:11 9:3 10:4 
-0 -0 1 0 0 0 0 0 0 1:3 2:5 3:3 4:11 5:2 6:4 7:1 8:1 9:2 10:5 
-0 -0 1 0 0 0 0 0 0 1:3 2:12 3:4 4:6 5:1 6:6 7:3 8:4 9:3 10:10 
-0 -0 1 0 0 0 0 0 0 1:1 2:4 3:1 4:6 5:3 6:5 7:3 8:7 9:1 10:7 
-0 -0 1 0 0 0 0 0 0 1:1 2:12 3:3 4:10 5:4 6:5 7:2 8:5 9:4 10:7 
-0 -0 1 0 0 0 0 0 0 1:4 2:12 3:3 4:9 5:3 6:2 7:2 8:9 9:1 10:5 
-0 -0 1 0 0 0 0 0 0 1:3 2:11 3:4 4:9 5:2 6:10 7:1 8:13 9:1 10:9 
-0 -0 1 0 0 0 0 0 0 1:2 2:9 3:3 4:9 5:1 6:6 7:2 8:13 9:1 10:7 
-0 -0 1 0 0 0 0 0 0 1:2 2:4 3:1 4:5 5:2 6:12 7:4 8:10 9:4 10:5 
-0 -0 1 0 0 0 0 0 0 1:3 2:9 3:4 4:11 5:1 6:13 7:2 8:11 9:1 10:3 
-0 -0 1 0 0 0 0 0 0 1:3 2:1 3:2 4:12 5:2 6:7 7:4 8:10 9:3 10:7 
-0 -0 1 0 0 0 0 0 0 1:3 2:6 3:4 4:13 5:3 6:4 7:3 8:3 9:4 10:3 
-0 -0 1 0 0 0 0 0 0 1:4 2:5 3:1 4:11 5:3 6:8 7:2 8:13 9:1 10:8 
-0 -0 1 0 0 0.04311997814778772 0 0 0 1:3 2:11 3:3 4:3 5:1 6:13 7:4 8:5 9:2 10:3 
-0 -0 1 0 0 0 0 0 0 1:4 2:2 3:1 4:3 5:1 6:4 7:1 8:2 9:2 10:10 
-0 -0 1 0 0 0 0 0 0 1:1 2:6 3:4 4:9 5:1 6:3 7:2 8:6 9:3 10:11 
-0 -0 1 0 0 0 0 0 0 1:2 2:1 3:4 4:12 5:1 6:8 7:3 8:8 9:3 10:4 
-0 -0 1 0 0 0 0 0 0 1:4 2:5 3:4 4:7 5:4 6:12 7:3 8:3 9:1 10:5 
-0 -0 1 0 0 0 0 0 0 1:1 2:1 3:2 4:8 5:2 6:3 7:4 8:9 9:2 10:1 
-0 -0 1 0 0.1755174236139308 0.3808621307989949 0 0 0 1:4 2:7 3:2 4:1 5:3 6:6 7:2 8:13 9:1 10:13 
-0 -0 1 0 0 0 0 0 0 1:4 2:3 3:4 4:10 5:1 6:1 7:4 8:8 9:3 10:10 
-0 -0 1 0 0 0 0 0 0 1:2 2:3 3:2 4:2 5:3 6:1 7:1 8:8 9:3 10:8 
-0 -0 1 0 0 0 0 0 0 1:3 2:3 3:1 4:7 5:4 6:3 7:4 8:9 9:3 10:10 
-0 -0 1 0 0 0 0 0 0 1:4 2:4 3:4 4:8 5:4 6:11 7:3 8:12 9:3 10:4 
-0 -0 1 0 0 0 0 0 0 1:1 2:9 3:4 4:12 5:3 6:12 7:4 8:4 9:2 10:11 
-0 -0 1 0.04095594573959294 0.03332268619295228 1 0 0 0 1:3 2:1 3:3 4:9 5:2 6:2 7:3 8:13 9:2 10:13 
-0 -0 1 0 0 0 0 0 0 1:1 2:13 3:3 4:8 5:1 6:2 7:2 8:7 9:2 10:8 
-0 -0 1 0 0 0 0 0 0 1:3 2:3 3:3 4:4 5:4 6:9 7:4 8:3 9:2 10:1 
-0 -0 1 0 0 0 0 0 0 1:3 2:1 3:2 4:10 5:2 6:7 7:2 8:2 9:4 10:10 
-0 -0 1 0 0 0 0 0 0 1:3 2:5 3:2 4:10 5:2 6:12 7:3 8:11 9:1 10:12 
-0 -0 1 0 0 0.02926937364782208 0 0 0 1:3 2:1 3:4 4:13 5:3 6:10 7:2 8:8 9:2 10:13 
-0 -0 1 0 0 0 0 0 0 1:2 2:12 3:2 4:6 5:3 6:8 7:3 8:6 9:1 10:9 
-0 -0 1 0 0 0.2312457068142207 0 0 0 1:1 2:4 3:4 4:2 5:2 6:1 7:3 8:2 9:3 10:11 
-0 -0 1 0 0 0 0 0 0 1:1 2:3 3:2 4:3 5:1 6:4 7:1 8:12 9:2 10:6 
-0 -0 1 0 0 0 0 0 0 1:2 2:5 3:3 4:8 5:4 6:10 7:4 8:5 9:4 10:2 
-0 -0 1 0 0 0.1495264186526471 0 0 0 1:4 2:5 3:1 4:13 5:1 6:3 7:3 8:13 9:3 10:7 
-0 -0 1 0 0 0 0 0 0 1:3 2:3 3:3 4:10 5:1 6:3 7:1 8:12 9:4 10:9 
-0 -0 1 0 0 0 0 0 0 1:1 2:6 3:3 4:5 5:2 6:4 7:4 8:8 9:4 10:6 
-0 -0 1 0.05342147125989516 0 0.5814757389822157 0 0 0 1:2 2:1 3:1 4:10 5:4 6:1 7:1 8:11 9:2 10:8 
-0 -0 1 0 0 0 0 0 0 1:4 2:2 3:1 4:4 5:2 6:8 7:4 8:12 9:3 10:2 
-0 -0 1 0 0 0 0 0 0 1:2 2:10 3:3 4:6 5:2 6:7 7:1 8:9 9:4 10:10 
-0 -0 1 0.06808115532804306 0.02640444837125658 0.8644390024517129 0 0 0 1:4 2:6 3:1 4:12 5:1 6:7 7:2 8:13 9:1 10:13 
-0 -0 1 0 0 0 0 0 0 1:1 2:5 3:2 4:6 5:3 6:11 7:1 8:11 9:4 10:13 
-0 -0 1 0 0 0 0 0 0 1:1 2:1 3:1 4:3 5:3 6:8 7:3 8:5 9:2 10:8 
-0 -0 1 0.05642894239557377 0.5222080958573572 1 0 0 0 1:4 2:4 3:2 4:3 5:1 6:1 7:1 8:12 9:4 10:1 
-0 -0 1 0.1424971572840378 1 1 0.01500865698860812 0 0 1:4 2:1 3:1 4:1 5:3 6:2 7:3 8:7 9:3 10:13 
-0 -0 1 0 0 0 0 0 0 1:1 2:9 3:3 4:10 5:1 6:10 7:4 8:1 9:4 10:7 
-0 -0 1 0 0 0 0 0 0 1:2 2:11 3:4 4:8 5:2 6:3 7:3 8:9 9:4 10:11 
-0 -0 1 0 0 0.1000345440648239 0 0 0 1:1 2:11 3:3 4:13 5:4 6:13 7:3 8:6 9:4 10:4 
-0 -0 1 0.3971340208292791 0.6854207737054562 1 0.03723099611302549 0 0 1:3 2:13 3:2 4:9 5:2 6:12 7:2 8:11 9:2 10:13 
-0 -0 1 0 0 0 0 0 0 1:1 2:4 3:1 4:9 5:2 6:13 7:3 8:9 9:4 10:5 
-0 -0 1 0 0 0 0 0 0 1:2 2:2 3:4 4:7 5:4 6:9 7:4 8:8 9:3 10:2 
-0 -0 1 0 0 0 0 0 0 1:1 2:11 3:3 4:4 5:2 6:4 7:3 8:10 9:4 10:2 
-0 -0 1 0 0 0 0 0 0 1:4 2:9 3:1 4:2 5:2 6:3 7:3 8:10 9:4 10:3 
-0 -0 1 0 0 0 0 0 0 1:2 2:12 3:1 4:2 5:2 6:3 7:2 8:2 9:3 10:7 
-0 -0 1 0 0 0 0 0 0 1:3 2:12 3:4 4:13 5:2 6:4 7:1 8:4 9:3 10:5 
-0 -0 1 0 0 0 0 0 0 1:1 2:2 3:3 4:1 5:3 6:2 7:3 8:6 9:3 10:5 
-0 -0 1 0.3949937925548926 1 1 0.1193588038364127 0.4171322061201869 0.02361752049859187 1:4 2:13 3:4 4:2 5:1 6:12 7:1 8:2 9:1 10:1 
-0 -0 1 0 0 0.08538269548741018 0 0 0 1:3 2:1 3:3 4:2 5:1 6:10 7:2 8:1 9:4 10:6 
-0 -0 1 0 0 0 0 0 0 1:2 2:8 3:2 4:10 5:4 6:10 7:1 8:6 9:2 10:13 
-0 -0 1 0 0.3173884262740148 1 0.06981863705666408 0 0 1:4 2:12 3:1 4:13 5:1 6:4 7:2 8:13 9:2 10:9 
-0 -0 1 0 0 0 0 0 0 1:1 2:8 3:2 4:8 5:3 6:11 7:4 8:13 9:1 10:9 
-0 -0 1 0 0 0 0 0 0 1:2 2:10 3:4 4:4 5:1 6:4 7:3 8:9 9:3 10:11 
-0 -0 1 0 0 0 0 0 0 1:3 2:12 3:4 4:7 5:2 6:7 7:3 8:11 9:1 10:8 
-0 -0 1 0.05102220973701119 0.08456391043308641 0.2031407928790413 0 0 0 1:4 2:1 3:2 4:5 5:4 6:11 7:1 8:1 9:3 10:12 
-0 -0 1 0 0 0 0 0 0 1:3 2:6 3:1 4:5 5:1 6:3 7:2 8:3 9:4 10:9 
-0 -0 1 0 0 0 0 0 0 1:3 2:3 3:4 4:8 5:4 6:11 7:4 8:1 9:4 10:3 
-0 -0 1 0.03383159773332772 0 0 0 0 0 1:3 2:1 3:1 4:9 5:2 6:1 7:3 8:10 9:2 10:2 
-0 -0 1 0 0 0 0 0 0 1:2 2:3 3:3 4:8 5:3 6:3 7:1 8:10 9:3 10:1 
-0 -0 1 0 0 0 0 0 0 1:2 2:13 3:3 4:5 5:1 6:10 7:1 8:8 9:1 10:13 
-0 -0 1 0 0 0 0 0 0 1:4 2:5 3:2 4:4 5:3 6:10 7:4 8:3 9:1 10:5 
-0 -0 1 0 0 0 0 0 0 1:1 2:3 3:4 4:13 5:3 6:2 7:1 8:6 9:2 10:3 
-0 -0 1 0 0 0 0 0 0 1:1 2:6 3:3 4:9 5:2 6:6 7:4 8:5 9:3 10:11 
-0 -0 1 0 0 0.1844176225071548 0 0 0 1:3 2:8 3:1 4:13 5:2 6:1 7:2 8:11 9:4 10:11 
-0 -0 1 0 0 0 0 0 0 1:4 2:6 3:2 4:8 5:1 6:1 7:3 8:7 9:2 10:6 
-0 -0 1 0 0.3874926591717868 1 0 0 0 1:4 2:13 3:1 4:9 5:1 6:12 7:2 8:13 9:3 10:3 
-0 -0 1 0 0 0 0 0 0 1:2 2:7 3:4 4:7 5:3 6:6 7:1 8:3 9:2 10:9 
-0 -0 1 0 0 0.295032982711224 0 0 0 1:1 2:1 3:4 4:6 5:3 6:11 7:3 8:13 9:4 10:11 
-0 -0 1 0 0.03348624559445211 0.1403432572865277 0 0 0 1:1 2:13 3:2 4:13 5:4 6:3 7:2 8:6 9:4 10:4 
-0 -0 1 0 0 0 0 0 0 1:1 2:4 3:2 4:13 5:4 6:4 7:1 8:12 9:4 10:8 
-0 -0 1 0 0 0 0 0 0 1:4 2:2 3:1 4:10 5:3 6:2 7:1 8:3 9:3 10:5 
-0 -0 1 0 0 0 0 0 0 1:3 2:3 3:2 4:3 5:1 6:13 7:1 8:8 9:3 10:6 
-0 -0 1 0 0 0 0 0 0 1:2 2:5 3:1 4:10 5:4 6:13 7:1 8:5 9:1 10:8 
-0 -0 1 0 0 0.08161635039991066 0 0 0 1:4 2:2 3:1 4:11 5:1 6:2 7:2 8:12 9:2 10:5 
-0 -0 1 0.3028843638928591 1 0.9761027867764056 0.04851135688955761 0.3613809544980168 0 1:1 2:3 3:2 4:6 5:4 6:2 7:2 8:1 9:4 10:1 
-0 -0 1 0 0 0 0 0 0 1:3 2:11 3:4 4:9 5:1 6:9 7:4 8:2 9:2 10:1 
-0 -0 1 0 0 0.5770403598889866 0 0 0 1:3 2:3 3:4 4:13 5:4 6:11 7:4 8:3 9:2 10:1 
-0 -0 1 0 0 0 0 0 0 1:3 2:8 3:3 4:5 5:4 6:13 7:1 8:13 9:4 10:7 
-0 -0 1 0 0.03626796195995987 0 0 0 0 1:2 2:9 3:3 4:8 5:1 6:1 7:4 8:1 9:1 10:11 
-0 -0 1 0 0 0 0 0 0 1:4 2:2 3:1 4:6 5:4 6:7 7:2 8:4 9:3 10:2 
-0 -0 1 0 0 0 0 0 0 1:2 2:5 3:4 4:8 5:4 6:6 7:3 8:11 9:1 10:5 
-0 -0 1 0 0 0.5730221820122033 0 0 0 1:2 2:11 3:2 4:1 5:1 6:12 7:2 8:12 9:1 10:4 
-0 -0 1 0 0 0 0 0 0 1:2 2:10 3:3 4:5 5:2 6:6 7:3 8:10 9:3 10:4 
-0 -0 1 0.06016829843239298 0.5015253662597126 1 0.1200905388707428 0.03805295893354719 0 1:2 2:13 3:1 4:13 5:4 6:1 7:3 8:7 9:4 10:10 
-0 -0 1 0 0 0 0 0 0 1:4 2:11 3:2 4:7 5:3 6:8 7:2 8:6 9:3 10:6 
-0 -0 1 0 0 0 0 0 0 1:2 2:9 3:1 4:3 5:2 6:3 7:1 8:4 9:1 10:6 
-0 -0 1 0 0 0 0 0 0 1:3 2:2 3:4 4:6 5:2 6:6 7:1 8:7 9:1 10:9 
-0 -0 1 0 0 0 0 0 0 1:1 2:2 3:3 4:9 5:1 6:9 7:2 8:11 9:1 10:4 
-0 -0 1 0 0.06401193668748689 0.08952058476986502 0 0 0 1:1 2:4 3:4 4:3 5:1 6:12 7:4 8:4 9:1 10:11 
-0 -0 1 0 0 0 0 0 0 1:2 2:3 3:1 4:5 5:4 6:10 7:3 8:8 9:4 10:8 
-0 -0 1 0 0 0 0 0 0 1:1 2:3 3:4 4:7 5:4 6:2 7:4 8:4 9:1 10:4 
-0 -0 1 0 0 0 0 0 0 1:3 2:9 3:3 4:3 5:4 6:1 7:3 8:11 9:1 10:11 
-0 -0 1 0 0 0 0 0 0 1:1 2:9 3:2 4:12 5:3 6:10 7:3 8:12 9:2 10:4 
-0 -0 1 0 0 0 0 0 0 1:4 2:4 3:1 4:9 5:3 6:6 7:2 8:9 9:1 10:8 
-0 -0 1 0 0 0 0 0 0 1:4 2:11 3:3 4:5 5:4 6:2 7:2 8:8 9:4 10:8 
-0 -0 1 0.08981333420081034 0.3763531181565347 1 0 0 0 1:1 2:13 3:3 4:11 5:3 6:10 7:4 8:1 9:3 10:1 
-0 -0 1 0 0 0 0 0 0 1:3 2:11 3:4 4:12 5:1 6:7 7:2 8:5 9:2 10:11 
-0 -0 1 0 0 0 0 0 0 1:2 2:5 3:4 4:4 5:2 6:1 7:2 8:4 9:1 10:9 
-0 -0 1 0 0 0 0 0 0 1:2 2:11 3:1 4:6 5:2 6:8 7:3 8:6 9:4 10:7 
-0 -0 1 0 0 0 0 0 0 1:4 2:12 3:3 4:8 5:2 6:8 7:3 8:10 9:4 10:2 
-0 -0 1 0 0 0 0 0 0 1:4 2:10 3:3 4:10 5:3 6:4 7:4 8:3 9:4 10:9 
-0 -0 1 0 0 0 0 0 0 1:3 2:1 3:2 4:3 5:2 6:10 7:1 8:3 9:2 10:6 
-0 -0 1 0 0 0 0 0 0 1:2 2:3 3:3 4:10 5:3 6:13 7:2 8:7 9:2 10:10 
-0 -0 1 0 0 0 0 0 0 1:1 2:2 3:2 4:4 5:3 6:7 7:1 8:13 9:2 10:7 
-0 -0 1 0 0 0 0 0 0 1:2 2:11 3:2 4:6 5:2 6:4 7:4 8:9 9:2 10:9 
-0 -0 1 0.03288986271293577 0 0.02760870917126588 0 0 0 1:4 2:1 3:1 4:7 5:2 6:13 7:1 8:5 9:2 10:5 
-0 -0 1 0 0 0 0 0 0 1:3 2:1 3:3 4:12 5:2 6:4 7:4 8:8 9:1 10:1 
-0 -0 1 0 0 0 0 0 0 1:4 2:5 3:4 4:7 5:1 6:7 7:3 8:6 9:4 10:11 
-0 -0 1 0 0 0 0 0 0 1:3 2:10 3:4 4:7 5:4 6:5 7:1 8:2 9:3 10:7 
-0 -0 1 0 0 0 0 0 0 1:2 2:9 3:1 4:6 5:4 6:6 7:2 8:4 9:1 10:10 
-0 -0 1 0 0 0 0 0 0 1:2 2:13 3:1 4:8 5:4 6:12 7:4 8:4 9:3 10:8 
-0 -0 1 0 0 0 0 0 0 1:2 2:1 3:3 4:4 5:1 6:11 7:3 8:11 9:2 10:10 
-0 -0 1 0 0 0 0 0 0 1:4 2:6 3:3 4:3 5:2 6:11 7:1 8:3 9:3 10:1 
-0 -0 1 0 0 0 0 0 0 1:3 2:8 3:1 4:3 5:3 6:6 7:1 8:6 9:2 10:7 
-0 -0 1 0 0 0 0 0 0 1:3 2:6 3:4 4:7 5:1 6:8 7:1 8:6 9:1 10:12 
-0 -0 1 0 0 0 0 0 0 1:3 2:11 3:4 4:13 5:4 6:4 7:1 8:4 9:3 10:3 
-0 -0 1 0 0 0 0 0 0 1:3 2:5 3:1 4:6 5:1 6:4 7:2 8:11 9:3 10:6 
-0 -0 1 0 0 0.01378803561758353 0 0 0 1:4 2:8 3:1 4:5 5:2 6:13 7:1 8:8 9:4 10:1 
-0 -0.2833530106257375 1 0 0 0 0 0 0 1:3 2:5 3:3 4:8 5:2 6:8 7:2 8:7 9:3 10:6 
-0 -0 1 0 0 0 0 0 0 1:3 2:10 3:2 4:4 5:2 6:1 7:3 8:4 9:2 10:6 
-0 -0 1 0 0 0 0 0 0 1:2 2:12 3:1 4:5 5:3 6:8 7:1 8:8 9:4 10:7 
-0 -0 1 0.09607994393915388 0.2575656237471642 0.540214214904123 0 0 0 1:3 2:2 3:4 4:1 5:2 6:2 7:4 8:7 9:4 10:4 
-0 -0 1 0 0 0 0 0 0 1:1 2:2 3:1 4:4 5:4 6:11 7:2 8:8 9:1 10:8 
-0 -0 1 0 0 0 0 0 0 1:1 2:10 3:4 4:2 5:4 6:6 7:3 8:6 9:2 10:1 
-0 -0 1 0 0 0 0 0 0 1:2 2:9 3:4 4:5 5:3 6:6 7:3 8:3 9:2 10:6 
-0 -0 1 0 0 0 0 0 0 1:1 2:10 3:2 4:10 5:2 6:5 7:3 8:11 9:4 10:9 
-0 -0 1 0 0 0 0 0 0 1:4 2:10 3:3 4:8 5:1 6:3 7:3 8:9 9:3 10:3 
-0 -0 1 0 0 0 0 0 0 1:2 2:3 3:3 4:3 5:2 6:13 7:3 8:10 9:3 10:9 
-0 -0 1 0 0 0 0 0 0 1:4 2:5 3:1 4:2 5:2 6:1 7:4 8:9 9:1 10:9 
-0 -0 1 0 0 0 0 0 0 1:3 2:8 3:4 4:8 5:3 6:12 7:3 8:10 9:2 10:1 
-0 -0 1 0 0 0 0 0 0 1:4 2:8 3:3 4:11 5:3 6:3 7:4 8:11 9:3 10:13 
-0 -0 1 0 0 0 0 0 0 1:2 2:4 3:3 4:9 5:1 6:5 7:3 8:1 9:3 10:5 
-0 -0 1 0 0 0 0 0 0 1:1 2:6 3:3 4:11 5:2 6:7 7:4 8:11 9:4 10:12 
-0 -0 1 0 0 0 0 0 0 1:3 2:12 3:1 4:11 5:2 6:4 7:2 8:11 9:3 10:5 
-0 -0 1 0 0 0 0 0 0 1:4 2:7 3:3 4:8 5:1 6:9 7:4 8:8 9:1 10:2 
-0 -0 1 0.1319879332080162 0.5743723814292049 1 0.09005188799298233 0 0 1:1 2:1 3:2 4:4 5:1 6:3 7:4 8:1 9:1 10:11 
-0 -0 1 0 1 1 0.2417450179788228 0.2287927742861257 0 1:4 2:12 3:1 4:3 5:4 6:1 7:1 8:1 9:4 10:2 
-0 -0 1 0 0 0 0 0 0 1:1 2:3 3:3 4:5 5:2 6:6 7:3 8:13 9:4 10:5 
-0 -0 1 0 0 0 0 0 0 1:1 2:12 3:1 4:7 5:1 6:9 7:2 8:7 9:2 10:2 
-0 -0 1 0 0 0 0 0 0 1:4 2:1 3:2 4:5 5:2 6:7 7:1 8:3 9:4 10:5 
-0 -0 1 0 0 0 0 0 0 1:1 2:6 3:4 4:13 5:1 6:12 7:4 8:7 9:2 10:7 
-0 -0 1 0 0 0 0 0 0 1:2 2:9 3:3 4:2 5:3 6:9 7:2 8:11 9:2 10:12 
-0 -0 1 0 0 0 0 0 0 1:4 2:9 3:1 4:6 5:3 6:6 7:4 8:8 9:3 10:11 
-0 -0 1 0 0 0 0 0 0 1:1 2:5 3:2 4:3 5:1 6:7 7:4 8:10 9:4 10:5 
-0 -0 1 0 0 0 0 0 0 1:1 2:3 3:1 4:9 5:1 6:4 7:3 8:3 9:4 10:8 
-0 -0 1 0.1074442904982454 0.4990915419589118 1 0 0 0 1:1 2:4 3:4 4:13 5:2 6:13 7:1 8:11 9:4 10:1 
-0 -0 1 0.09239865105621109 0.4405529675483404 0.5784110868246986 0 0.08443239868685362 0 1:3 2:9 3:4 4:13 5:3 6:12 7:1 8:13 9:1 10:6 
-0 -0 1 0 0 0.1127343857121038 0 0 0 1:1 2:6 3:2 4:6 5:2 6:1 7:4 8:12 9:1 10:2 
-0 -0 1 0 0 0.04775119879884207 0 0 0 1:1 2:11 3:1 4:12 5:2 6:12 7:3 8:3 9:4 10:10 
-0 -0 1 0 0 0 0 0 0 1:3 2:4 3:1 4:10 5:3 6:5 7:2 8:3 9:4 10:10 
-0 -0 1 0 0 0.08479093187041897 0 0 0 1:3 2:11 3:2 4:4 5:2 6:12 7:3 8:13 9:1 10:11 
-0 -0 1 0 0.1522492073328216 0.8339942876802503 0 0 0 1:2 2:10 3:4 4:2 5:1 6:5 7:3 8:1 9:1 10:1 
-0 -0 1 0 0 0 0 0 0 1:2 2:9 3:3 4:1 5:2 6:5 7:4 8:1 9:1 10:6 
-0 -0 1 0 0 0 0 0 0 1:3 2:7 3:2 4:10 5:2 6:6 7:2 8:7 9:3 10:13 
-0 -0 1 0 0 0 0 0 0 1:4 2:2 3:3 4:2 5:2 6:8 7:3 8:10 9:3 10:13 
-0 -0 1 0 0 0 0 0 0 1:3 2:7 3:3 4:10 5:4 6:1 7:1 8:5 9:1 10:1 
-0 -0 1 0 0 0 0 0 0 1:3 2:10 3:1 4:10 5:3 6:1 7:2 8:8 9:2 10:12 
-0 -0 1 0 0.442029441580901 0.9588680627272549 0 0 0 1:3 2:1 3:3 4:3 5:1 6:1 7:3 8:13 9:2 10:6 
-0 -0 1 0 0 0 0 0 0 1:1 2:3 3:2 4:3 5:3 6:6 7:2 8:4 9:1 10:10 
-0 -0 1 0 0 0 0 0 0 1:3 2:4 3:1 4:5 5:2 6:5 7:4 8:13 9:3 10:3 
-0 -0 1 0 0 0 0 0 0 1:2 2:9 3:3 4:2 5:4 6:4 7:2 8:5 9:1 10:2 
-0 -0 1 0 0 0 0 0 0 1:1 2:3 3:1 4:9 5:4 6:9 7:3 8:4 9:3 10:12 
-0 -0 1 0.1950606747889796 0.4229332098839249 0.9767794120479332 0.08515029284593292 0 0 1:1 2:4 3:3 4:1 5:4 6:1 7:2 8:2 9:4 10:10 
-0 -0 1 0 0 0 0 0 0 1:1 2:2 3:4 4:2 5:1 6:7 7:2 8:8 9:4 10:10 
-0 -0 1 0 0 0 0 0 0 1:2 2:3 3:4 4:4 5:3 6:1 7:3 8:3 9:4 10:8 
-0 -0 1 0 0 0 0 0 0 1:3 2:3 3:4 4:3 5:3 6:13 7:3 8:5 9:1 10:9 
-0 -0 1 0 0.5514328940287958 0.1004432155997375 0 0 0 1:4 2:9 3:1 4:11 5:4 6:11 7:1 8:13 9:2 10:10 
-0 -0 1 0 0 0 0 0 0 1:2 2:3 3:4 4:7 5:3 6:1 7:1 8:5 9:3 10:3 
-0 -0 1 0 0 0 0 0 0 1:3 2:9 3:3 4:13 5:2 6:10 7:2 8:9 9:4 10:12 
-0 -0 1 0 0 0 0 0 0 1:2 2:8 3:1 4:11 5:4 6:8 7:4 8:9 9:4 10:5 
-0 -0 1 0 0 0 0 0 0 1:4 2:5 3:1 4:6 5:1 6:1 7:4 8:6 9:4 10:9 
-0 -0 1 0 0 0 0 0 0 1:1 2:5 3:4 4:6 5:4 6:9 7:2 8:9 9:1 10:4 
-0 -0 1 0 0 0 0 0 0 1:2 2:11 3:4 4:2 5:2 6:1 7:3 8:11 9:3 10:4 
-0 -0 1 0 0 0 0 0 0 1:1 2:11 3:3 4:8 5:2 6:12 7:4 8:4 9:1 10:12 
-0 -0 1 0.1669874021756241 0 0 0 0 0 1:1 2:1 3:2 4:1 5:2 6:6 7:1 8:8 9:3 10:2 
-0 -0 1 0 0 0 0 0 0 1:2 2:13 3:3 4:8 5:1 6:8 7:2 8:2 9:1 10:6 
-0 -0 1 0 0 0 0 0 0 1:4 2:9 3:2 4:4 5:3 6:5 7:4 8:5 9:3 10:8 
-0 -0 1 0 0 0 0 0 0 1:3 2:11 3:1 4:12 5:4 6:12 7:2 8:7 9:1 10:2 
-0 -0 1 0 0 0 0 0 0 1:2 2:13 3:2 4:6 5:1 6:7 7:3 8:4 9:4 10:13 
-0 -0 1 0 0.08537488022707795 0.3617949309211775 0 0 0 1:3 2:1 3:1 4:7 5:1 6:3 7:3 8:2 9:2 10:2 
-0 -0 1 0 0 0 0 0 0 1:4 2:2 3:1 4:3 5:4 6:11 7:1 8:6 9:2 10:11 
-0 -0 1 0 0 0.1698065622237993 0 0 0 1:1 2:1 3:4 4:2 5:1 6:2 7:3 8:7 9:4 10:10 
-0 -0 1 0 0 0 0 0 0 1:2 2:11 3:1 4:2 5:4 6:12 7:2 8:6 9:2 10:2 
-0 -0 1 0 0 0 0 0 0 1:3 2:8 3:2 4:5 5:3 6:5 7:1 8:10 9:3 10:4 
-0 -0 1 0 0 0 0 0 0 1:3 2:7 3:1 4:1 5:2 6:3 7:2 8:7 9:3 10:5 
-0 -0 1 0 0 0.3673316962025521 0 0 0 1:3 2:1 3:4 4:4 5:1 6:4 7:1 8:2 9:3 10:12 
-0 -0 1 0 0 0 0 0 0 1:1 2:3 3:4 4:5 5:3 6:5 7:2 8:1 9:1 10:8 
-0 -0 1 0 0 0 0 0 0 1:2 2:7 3:1 4:11 5:4 6:4 7:4 8:11 9:3 10:13 
-0 -0 1 0 0 0 0 0 0 1:1 2:1 3:4 4:10 5:2 6:5 7:2 8:10 9:3 10:12 
-0 -0 1 0 0 0.1569023680293668 0 0 0 1:1 2:12 3:4 4:6 5:1 6:1 7:2 8:5 9:4 10:12 
-0 -0 1 0 0 0 0 0 0 1:2 2:5 3:4 4:3 5:3 6:4 7:2 8:4 9:2 10:13 
-0 -0 1 0 0 0 0 0 0 1:4 2:11 3:1 4:9 5:2 6:6 7:3 8:6 9:1 10:8 
-0 -0 1 0 0 0 0 0 0 1:1 2:2 3:1 4:10 5:3 6:13 7:4 8:10 9:3 10:5 
-0 -0 1 0 0 0 0 0 0 1:2 2:12 3:3 4:5 5:2 6:6 7:2 8:3 9:4 10:5 
-0 -0 1 0.01175863094501528 0.06755399669000065 0.1230948661637869 0 0 0 1:4 2:13 3:4 4:3 5:4 6:11 7:1 8:11 9:1 10:4 
-0 -0 1 0 0 0 0 0 0 1:1 2:11 3:4 4:9 5:2 6:9 7:1 8:13 9:3 10:12 
-0 -0 1 0 0 0 0 0 0 1:1 2:2 3:4 4:4 5:1 6:9 7:4 8:6 9:3 10:4 
-0 -0 1 0 0 0 0 0 0 1:3 2:10 3:1 4:1 5:1 6:7 7:4 8:6 9:2 10:6 
-0 -0 1 0 0 0 0 0 0 1:3 2:10 3:4 4:7 5:4 6:10 7:1 8:12 9:1 10:8 
-0 -0 1 0 0 0 0 0 0 1:2 2:5 3:1 4:13 5:4 6:5 7:4 8:9 9:1 10:7 
-0 -0 1 0 0 0 0 0 0 1:2 2:4 3:2 4:6 5:3 6:13 7:2 8:10 9:4 10:4 
-0 -0 1 0 0 0 0 0 0 1:3 2:5 3:4 4:5 5:3 6:3 7:1 8:4 9:3 10:11 
-0 -0 1 0 0 0 0 0 0 1:1 2:5 3:3 4:2 5:2 6:5 7:2 8:1 9:1 10:10 
-0 -0 1 0 0 0 0 0 0 1:2 2:13 3:1 4:5 5:4 6:13 7:4 8:6 9:4 10:9 
-0 -0 1 0 0 0 0 0 0 1:1 2:9 3:4 4:9 5:4 6:1 7:2 8:2 9:1 10:4 
-0 -0 1 0 0 0 0 0 0 1:3 2:4 3:2 4:3 5:4 6:11 7:1 8:11 9:1 10:8 
-0 -0 1 0 0 0 0 0 0 1:1 2:4 3:1 4:8 5:1 6:7 7:1 8:6 9:3 10:6 
-0 -0 1 0 0 0 0 0 0 1:4 2:12 3:2 4:2 5:1 6:2 7:1 8:7 9:1 10:10 
-0 -0 1 0 0 0.01202705078298028 0 0 0 1:2 2:1 3:1 4:12 5:3 6:10 7:3 8:2 9:2 10:2 
-0 -0 1 0 0 0 0 0 0 1:2 2:4 3:2 4:3 5:3 6:2 7:3 8:10 9:3 10:4 
-0 -0 1 0 0 0 0 0 0 1:2 2:6 3:3 4:2 5:2 6:3 7:2 8:10 9:4 10:3 
-0 -0 1 0 0 0 0 0 0 1:3 2:11 3:1 4:8 5:1 6:5 7:3 8:3 9:4 10:3 
-0 -0 1 0 0 0.4660363710783808 0 0 0 1:1 2:2 3:2 4:2 5:2 6:1 7:2 8:10 9:4 10:4 
-0 -0 1 0 0 0 0 0 0 1:1 2:1 3:3 4:6 5:1 6:2 7:2 8:2 9:2 10:9 
-0 -0 1 0 0 0 0 0 0 1:4 2:4 3:3 4:2 5:3 6:4 7:2 8:11 9:2 10:6 
-0 -0 1 0 0 1 0.05013143773355255 0 0 1:3 2:6 3:1 4:1 5:2 6:13 7:4 8:13 9:4 10:8 
-0 -0 1 0 0 0 0 0 0 1:4 2:2 3:1 4:3 5:3 6:5 7:2 8:7 9:1 10:2 
-0 -0 1 0 0 0 0 0 0 1:3 2:12 3:1 4:8 5:4 6:8 7:3 8:2 9:2 10:9 
-0 -0 1 0 0 0 0 0 0 1:1 2:13 3:4 4:6 5:1 6:4 7:2 8:6 9:4 10:10 
-0 -0 1 0 0 0 0 0 0 1:1 2:13 3:3 4:5 5:2 6:11 7:3 8:8 9:4 10:5 
-0 -0 1 0 0 0 0 0 0 1:2 2:13 3:4 4:7 5:4 6:2 7:2 8:9 9:1 10:2 
-0 -0 1 0 0 0.03020777848086654 0 0 0 1:4 2:12 3:2 4:10 5:1 6:8 7:1 8:1 9:4 10:10 
-0 -0 1 0 0 0 0 0 0 1:3 2:4 3:4 4:5 5:1 6:6 7:3 8:8 9:4 10:8 
-0 -0 1 0 0 0 0 0 0 1:1 2:13 3:3 4:6 5:3 6:10 7:2 8:6 9:1 10:12 
-0 -0 1 0 0 0 0 0 0 1:2 2:9 3:2 4:1 5:3 6:7 7:2 8:7 9:1 10:3 
-0 -0 1 0 0 0 0 0 0 1:2 2:11 3:1 4:3 5:4 6:11 7:4 8:6 9:4 10:7 
-0 -0 1 0 0 0 0 0 0 1:3 2:10 3:2 4:11 5:2 6:2 7:1 8:10 9:2 10:4 
-0 -0 1 0 0 0 0 0 0 1:3 2:6 3:4 4:8 5:4 6:10 7:3 8:13 9:3 10:10 
-0 -0 1 0 0 0.2740461630037021 0 0 0 1:3 2:2 3:4 4:11 5:2 6:2 7:4 8:13 9:2 10:6 
-0 -0 1 0 0 0 0 0 0 1:2 2:4 3:2 4:6 5:4 6:6 7:2 8:11 9:2 10:13 
-0 -0 1 0 0 0 0 0 0 1:2 2:11 3:4 4:4 5:3 6:2 7:4 8:6 9:3 10:4 
-0 -0 1 0 0 0 0 0 0 1:1 2:9 3:3 4:13 5:1 6:2 7:2 8:7 9:3 10:9 
-0 -0 1 0 0.1695423302196401 1 0.07790636594579165 0.01997798429917606 0 1:1 2:13 3:1 4:2 5:3 6:2 7:3 8:12 9:1 10:11 
-0 -0 1 0 0 0 0 0 0 1:1 2:11 3:1 4:8 5:3 6:4 7:1 8:7 9:4 10:8 
-0 -0 1 0 0 0 0 0 0 1:4 2:11 3:4 4:7 5:3 6:6 7:1 8:11 9:1 10:1 
-0 -0 1 0 0 0 0 0 0 1:2 2:10 3:2 4:13 5:2 6:3 7:1 8:9 9:2 10:9 
-0 -0 1 0 0 0.19789670231482 0 0 0 1:2 2:11 3:1 4:4 5:1 6:12 7:1 8:11 9:3 10:13 
-0 -0 1 0 0 0 0 0 0 1:2 2:8 3:1 4:1 5:3 6:3 7:2 8:7 9:3 10:7 
-0 -0 1 0 0 0 0 0 0 1:2 2:8 3:4 4:4 5:4 6:10 7:2 8:5 9:1 10:10 
-0 -0 1 0 0 0 0 0 0 1:2 2:4 3:3 4:6 5:4 6:5 7:3 8:5 9:2 10:8 
-0 -0 1 0 0 0 0 0 0 1:1 2:10 3:1 4:8 5:3 6:1 7:4 8:10 9:1 10:9 
-0 -0 1 0 0 0 0 0 0 1:2 2:10 3:3 4:13 5:4 6:13 7:2 8:9 9:3 10:6 
-0 -0 1 0 0 0 0 0 0 1:4 2:4 3:4 4:2 5:1 6:4 7:1 8:13 9:3 10:6 
-0 -0 1 0 0 0 0 0 0 1:3 2:8 3:4 4:12 5:2 6:9 7:1 8:8 9:4 10:5 
-0.1944551105491855 -0 1 0 0.3370734653153945 1 0.06234695930879673 0 0 1:3 2:12 3:3 4:9 5:4 6:12 7:4 8:13 9:3 10:1 
-0 -0 1 0 0 0 0 0 0 1:4 2:5 3:4 4:2 5:3 6:10 7:1 8:7 9:2 10:10 
-0 -0 1 0 0 0 0 0 0 1:1 2:5 3:1 4:9 5:2 6:10 7:3 8:5 9:4 10:8 
-0 -0 1 0 0 0 0 0 0 1:2 2:1 3:4 4:3 5:3 6:2 7:3 8:11 9:2 10:11 
-0 -0 1 0 0 0 0 0 0 1:3 2:9 3:4 4:8 5:2 6:5 7:2 8:13 9:2 10:9 
-0 -0 1 0 0 0 0 0 0 1:2 2:8 3:1 4:5 5:4 6:4 7:3 8:13 9:3 10:8 
-0 -0 1 0 0.1633003180623792 0.05017559543467182 0 0 0 1:4 2:12 3:3 4:12 5:2 6:1 7:4 8:11 9:2 10:8 
-0 -0 1 0 0 0 0 0 0 1:2 2:11 3:3 4:10 5:2 6:6 7:4 8:11 9:4 10:3 
-0 -0 1 0 0 0.06183995444308262 0 0 0 1:4 2:1 3:3 4:10 5:4 6:3 7:1 8:11 9:1 10:3 
-0 -0 1 0 0 0 0 0 0 1:1 2:3 3:3 4:5 5:4 6:2 7:2 8:12 9:1 10:2 
-0 -0 1 0 0 0 0 0 0 1:1 2:3 3:4 4:2 5:3 6:11 7:3 8:2 9:3 10:6 
-0 -0 1 0 0 0 0 0 0 1:2 2:5 3:1 4:5 5:2 6:4 7:3 8:3 9:1 10:7 
-0 -0 1 0 0 0 0 0 0 1:3 2:7 3:4 4:6 5:2 6:7 7:4 8:13 9:2 10:3 
-0 -0 1 0 0 0 0 0 0 1:2 2:4 3:3 4:4 5:1 6:7 7:2 8:6 9:4 10:10 
-0 -0 1 0 0 0 0 0 0 1:3 2:3 3:4 4:5 5:1 6:11 7:4 8:11 9:1 10:6 
-0 -0 1 0 0 0 0 0 0 1:4 2:7 3:1 4:12 5:4 6:5 7:2 8:10 9:4 10:12 
-0 -0 1 0 0 0 0 0 0 1:4 2:12 3:1 4:2 5:3 6:7 7:1 8:11 9:1 10:12 
-0 -0 1 0 0 0 0 0 0 1:1 2:11 3:4 4:4 5:4 6:3 7:1 8:13 9:2 10:11 
-0 -0 1 0 0 0 0 0 0 1:2 2:13 3:3 4:12 5:3 6:5 7:2 8:9 9:3 10:13 
-0 -0 1 0 0 0 0 0 0 1:4 2:13 3:3 4:6 5:3 6:12 7:4 8:9 9:3 10:9 
-0 -0 1 0 0 0 0 0 0 1:3 2:10 3:4 4:10 5:4 6:6 7:3 8:9 9:3 10:2 
-0 -0 1 0 0 0 0 0 0 1:1 2:4 3:4 4:11 5:3 6:12 7:2 8:4 9:4 10:1 
-0 -0 1 0 0 0 0 0 0 1:1 2:6 3:2 4:4 5:1 6:3 7:3 8:11 9:4 10:11 
-0 -0 1 0 0 0.0242333820382501 0 0 0 1:3 2:12 3:4 4:4 5:2 6:13 7:2 8:6 9:3 10:13 
-0 -0 1 0 0 0 0 0 0 1:1 2:6 3:1 4:13 5:4 6:6 7:3 8:1 9:1 10:5 
-0 -0 1 0 0 0 0 0 0 1:4 2:5 3:3 4:4 5:3 6:7 7:2 8:10 9:1 10:7 
-0 -0 1 0 0 0 0 0 0 1:1 2:12 3:1 4:11 5:4 6:4 7:3 8:5 9:2 10:11 
-0 -0 1 0 0 0 0 0 0 1:3 2:13 3:1 4:11 5:1 6:5 7:2 8:13 9:2 10:8 
-0 -0 1 0 0 0 0 0 0 1:1 2:9 3:3 4:12 5:3 6:10 7:1 8:2 9:2 10:9 
-0 -0 1 0 0 0 0 0 0 1:4 2:1 3:2 4:9 5:2 6:8 7:4 8:5 9:1 10:9 
-0 -0 1 0 0 0 0 0 0 1:3 2:1 3:2 4:9 5:4 6:1 7:1 8:3 9:3 10:10 
-0 -0 1 0 0 0 0 0 0 1:3 2:11 3:3 4:8 5:4 6:11 7:2 8:4 9:3 10:3 
-0 -0 1 0 0 0 0 0 0 1:3 2:11 3:2 4:13 5:3 6:2 7:4 8:7 9:4 10:11 
-0 -0 1 0 0 0 0 0 0 1:3 2:10 3:2 4:10 5:2 6:2 7:3 8:9 9:2 10:4 
-0 -0 1 0 0 0 0 0 0 1:4 2:9 3:1 4:7 5:1 6:5 7:3 8:7 9:4 10:4 
-0 -0 1 0 0 0 0 0 0 1:2 2:13 3:4 4:8 5:2 6:4 7:2 8:12 9:3 10:8 
-0 -0 1 0.0390622231447916 0.04983987454358057 0.3399356659047044 0 0 0 1:1 2:8 3:2 4:1 5:4 6:1 7:4 8:10 9:2 10:12 
-0 -0 1 0 0 0 0 0 0 1:4 2:6 3:3 4:8 5:1 6:11 7:2 8:3 9:1 10:8 
-0 -0 1 0 0 0.1761848351960038 0 0 0 1:2 2:12 3:4 4:6 5:3 6:13 7:3 8:12 9:3 10:2 
-0 -0 1 0 0 0 0 0 0 1:4 2:3 3:2 4:7 5:1 6:11 7:1 8:7 9:3 10:5 
-0 -0 1 0 0 0.2073158860554219 0 0 0 1:4 2:12 3:2 4:2 5:4 6:11 7:1 8:12 9:1 10:8 
-0 -0 1 0 0 0 0 0 0 1:2 2:10 3:3 4:3 5:4 6:8 7:1 8:12 9:2 10:12 
-0 -0 1 0 0 0 0 0 0 1:1 2:11 3:2 4:4 5:4 6:11 7:1 8:1 9:3 10:6 
-0 -0 1 0 0 0 0 0 0 1:4 2:7 3:3 4:12 5:2 6:7 7:1 8:13 9:4 10:10 
-0 -0 1 0 0 0 0 0 0 1:2 2:10 3:3 4:4 5:1 6:6 7:4 8:6 9:2 10:7 
-0 -0 1 0 0 0 0 0 0 1:2 2:10 3:2 4:6 5:3 6:4 7:4 8:4 9:4 10:9 
-0 -0 1 0 0.8936722630950819 0.889838365653516 0 0 0 1:1 2:1 3:3 4:1 5:2 6:8 7:4 8:2 9:2 10:3 
-0 -0 1 0 0 0 0 0 0 1:4 2:2 3:3 4:1 5:4 6:6 7:1 8:11 9:2 10:11 
-0 -0 1 0 0 0 0 0 0 1:3 2:8 3:1 4:1 5:1 6:9 7:1 8:12 9:2 10:12 
-0 -0 1 0 0.06033993002260145 0.4994518605858522 0 0 0 1:3 2:12 3:1 4:2 5:3 6:1 7:2 8:3 9:3 10:2 
-0 -0 1 0 0 0 0 0 0 1:3 2:3 3:4 4:1 5:4 6:7 7:4 8:8 9:3 10:1 
-0 -0 1 0 0 0 0 0 0 1:2 2:8 3:1 4:10 5:4 6:10 7:2 8:11 9:3 10:5 
-0 -0 1 0 0 0 0 0 0 1:1 2:1 3:2 4:1 5:2 6:7 7:4 8:5 9:4 10:3 
-0 -0 1 0 0 0 0 0 0 1:1 2:2 3:2 4:8 5:1 6:11 7:3 8:12 9:2 10:2 
-0 -0 1 0 0 0 0 0 0 1:3 2:12 3:1 4:5 5:4 6:6 7:1 8:6 9:1 10:10 
-0 -0 1 0 0 0 0 0 0 1:1 2:6 3:3 4:1 5:1 6:8 7:4 8:4 9:3 10:6 
-0 -0 1 0 0 0 0 0 0 1:4 2:5 3:3 4:10 5:4 6:8 7:3 8:8 9:2 10:11 
-0 -0 1 0 0 0 0 0 0 1:4 2:7 3:2 4:4 5:3 6:2 7:4 8:4 9:2 10:5 
-0 -0 1 0 0 0 0 0 0 1:4 2:7 3:4 4:5 5:1 6:13 7:3 8:13 9:2 10:11 
-0 -0 1 0 0 0 0 0 0 1:1 2:11 3:1 4:6 5:2 6:12 7:3 8:8 9:4 10:8 
-0 -0 1 0 0 0 0 0 0 1:4 2:8 3:2 4:10 5:2 6:12 7:3 8:8 9:1 10:13 
-0 -0 1 0 0 0 0 0 0 1:3 2:2 3:3 4:5 5:3 6:8 7:4 8:4 9:1 10:4 
-0 -0 1 0 0 0 0 0 0 1:4 2:6 3:2 4:12 5:4 6:1 7:3 8:6 9:4 10:3 
-0 -0 1 0 0 0 0 0 0 1:4 2:5 3:4 4:4 5:2 6:4 7:3 8:6 9:1 10:1 
-0 -0 1 0 0 0 0 0 0 1:4 2:3 3:4 4:4 5:3 6:12 7:1 8:6 9:3 10:3 
-0 -0 1 0 0 0 0 0 0 1:1 2:4 3:2 4:1 5:2 6:3 7:1 8:3 9:3 10:11 
-0 -0 1 0 0 0 0 0 0 1:4 2:4 3:2 4:5 5:2 6:12 7:2 8:13 9:1 10:4 
-0 -0 1 0 0 0 0 0 0 1:3 2:9 3:4 4:10 5:2 6:8 7:1 8:8 9:3 10:7 
-0 -0 1 0 0.1048862765686717 0.2241060976064251 0 0 0 1:2 2:5 3:2 4:1 5:2 6:4 7:2 8:13 9:1 10:13 
-0 -0 1 0 0 0.1025730349172168 0 0 0 1:2 2:13 3:2 4:3 5:2 6:6 7:1 8:4 9:1 10:13 
-0 -0 1 0 0 0 0 0 0 1:3 2:13 3:2 4:6 5:4 6:10 7:4 8:13 9:3 10:7 
-0 -0 1 0 0 0 0 0 0 1:3 2:6 3:1 4:11 5:4 6:7 7:2 8:11 9:3 10:5 
-0 -0 1 0 0 0 0 0 0 1:3 2:12 3:2 4:10 5:4 6:9 7:2 8:5 9:3 10:9 
-0 -0 1 0 0 0 0 0 0 1:3 2:5 3:1 4:12 5:3 6:12 7:1 8:13 9:3 10:10 
-0 -0 1 0 0 0 0 0 0 1:4 2:4 3:4 4:10 5:1 6:7 7:3 8:11 9:1 10:10 
-0 -0 1 0 0 0 0 0 0 1:2 2:10 3:3 4:12 5:3 6:8 7:4 8:10 9:4 10:4 
-0 -0 1 0 0 0 0 0 0 1:2 2:10 3:4 4:1 5:4 6:11 7:2 8:12 9:1 10:10 
-0 -0 1 0 0 0 0 0 0 1:4 2:12 3:1 4:1 5:3 6:8 7:3 8:7 9:1 10:12 
-0 -0 1 0 0 0 0 0 0 1:3 2:12 3:2 4:11 5:1 6:2 7:1 8:5 9:1 10:11 
-0 -0 1 0 0 0 0 0 0 1:3 2:12 3:2 4:13 5:3 6:7 7:4 8:12 9:4 10:4 
-0 -0 1 0 0 0 0 0 0 1:1 2:1 3:3 4:2 5:4 6:8 7:1 8:8 9:3 10:3 
-0 -0 1 0 0 0.9222674259227436 0 0 0 1:4 2:13 3:3 4:1 5:1 6:4 7:2 8:10 9:2 10:13 
-0 -0 1 0 0 0.3966587623993418 0 0 0 1:4 2:12 3:1 4:6 5:2 6:1 7:3 8:12 9:2 10:11 
-0 -0 1 0 0 0 0 0 0 1:4 2:4 3:2 4:7 5:1 6:12 7:1 8:6 9:4 10:12 
-0 -0 1 0 0 0 0 0 0 1:1 2:11 3:2 4:7 5:3 6:13 7:2 8:3 9:2 10:11 
-0 -0 1 0 0 0 0 0 0 1:1 2:9 3:2 4:7 5:3 6:9 7:2 8:2 9:1 10:1 
-0 -0 1 0 0 0 0 0 0 1:1 2:7 3:2 4:2 5:4 6:4 7:4 8:2 9:3 10:13 
-0 -0 1 0 0 0.09064778009252338 0.1303052564086293 0 0 1:2 2:1 3:4 4:1 5:3 6:8 7:4 8:9 9:3 10:2 
-0 -0 1 0 0 0 0 0 0 1:1 2:9 3:1 4:3 5:4 6:3 7:4 8:13 9:3 10:5 
-0 -0 1 0 0 0 0 0 0 1:1 2:5 3:3 4:7 5:3 6:2 7:4 8:6 9:4 10:7 
-0 -0 1 0 0 0 0 0 0 1:4 2:12 3:1 4:12 5:4 6:8 7:3 8:7 9:2 10:4 
-0 -0 1 0 0 0 0 0 0 1:1 2:1 3:4 4:6 5:4 6:10 7:3 8:6 9:1 10:11 
-0 -0 1 0 0.07268785112105401 1 0.02661284159278846 0 0 1:4 2:1 3:4 4:13 5:2 6:13 7:4 8:7 9:3 10:10 
-0 -0 1 0 0 0.07480098868574396 0 0 0 1:3 2:12 3:4 4:12 5:4 6:10 7:3 8:11 9:1 10:8 
-0 -0 1 0 0 0 0 0 0 1:4 2:12 3:2 4:2 5:2 6:4 7:2 8:11 9:3 10:4 
-0 -0 1 0 0.06854980580528675 0.3160965983870159 0 0 0 1:4 2:2 3:2 4:8 5:1 6:12 7:2 8:13 9:3 10:2 
-0 -0 1 0 0 0 0 0 0 1:2 2:8 3:1 4:12 5:3 6:12 7:3 8:7 9:2 10:13 
-0 -0 1 0 0 0 0 0 0 1:1 2:4 3:3 4:9 5:2 6:13 7:4 8:9 9:3 10:1 
-0 -0 1 0 0 0 0 0 0 1:1 2:6 3:2 4:13 5:1 6:2 7:3 8:13 9:1 10:8 
-0 -0 1 0 0 0 0 0 0 1:2 2:1 3:2 4:3 5:2 6:5 7:1 8:3 9:3 10:8 
-0.02310932520857892 -0 1 0 0 1 0 0 0 1:4 2:13 3:3 4:12 5:1 6:11 7:4 8:12 9:3 10:4 
-0 -0 1 0 0 0 0 0 0 1:4 2:3 3:2 4:3 5:1 6:13 7:4 8:7 9:3 10:5 
-0 -0 1 0.1880632591951047 1 1 0.2409670308768048 0.01753807077167866 0.1339214078933421 1:4 2:4 3:3 4:2 5:4 6:1 7:2 8:1 9:2 10:13 
-0 -0 1 0 0 0 0 0 0 1:4 2:10 3:3 4:7 5:4 6:6 7:1 8:7 9:4 10:12 
-0 -0 1 0 0 0 0 0 0 1:1 2:7 3:3 4:9 5:1 6:3 7:4 8:4 9:3 10:4 
-0 -0 1 0 0 0 0 0 0 1:1 2:5 3:4 4:12 5:4 6:6 7:2 8:5 9:2 10:1 
-0 -0 1 0 0 0 0 0 0 1:4 2:6 3:2 4:1 5:2 6:5 7:3 8:9 9:3 10:5 
-0 -0 1 0 0 0 0 0 0 1:3 2:1 3:1 4:10 5:2 6:11 7:2 8:3 9:1 10:3 
-0 -0 1 0 0 0 0 0 0 1:4 2:7 3:4 4:4 5:1 6:3 7:2 8:7 9:1 10:2 
-0 -0 1 0 0 0 0 0 0 1:1 2:1 3:4 4:4 5:2 6:9 7:3 8:3 9:4 10:9 
-0 -0 1 0 0 0 0 0 0 1:2 2:12 3:2 4:8 5:1 6:7 7:4 8:9 9:3 10:8 
-0 -0 1 0 0.3360767923677389 0.1832854095833261 0 0 0 1:1 2:9 3:3 4:1 5:3 6:2 7:4 8:4 9:2 10:1 
-0 -0 1 0 0 0 0 0 0 1:1 2:4 3:1 4:2 5:4 6:9 7:3 8:9 9:3 10:6 
-0 -0 1 0 0 0 0 0 0 1:3 2:4 3:1 4:10 5:3 6:13 7:4 8:10 9:1 10:11 
-0 -0 1 0 0 0 0 0 0 1:2 2:5 3:4 4:7 5:3 6:3 7:3 8:5 9:1 10:1 
-0 -0 1 0 0 0 0 0 0 1:4 2:6 3:4 4:2 5:3 6:10 7:1 8:6 9:3 10:7 
-0 -0 1 0 0 0 0 0 0 1:3 2:11 3:2 4:6 5:1 6:13 7:1 8:8 9:4 10:8 
-0 -0 1 0 0 0 0 0 0 1:1 2:10 3:2 4:9 5:1 6:4 7:4 8:6 9:3 10:10 
-0 -0 1 0 0 0 0 0 0 1:4 2:5 3:2 4:9 5:3 6:13 7:1 8:9 9:3 10:8 
-0 -0 1 0 0 0 0 0 0 1:2 2:3 3:3 4:8 5:3 6:10 7:1 8:1 9:2 10:1 
-0 -0 1 0 0 0 0 0 0 1:4 2:3 3:4 4:6 5:3 6:5 7:4 8:11 9:2 10:11 
-0 -0 1 0 0 0 0 0 0 1:1 2:4 3:1 4:11 5:3 6:3 7:2 8:4 9:2 10:7 
-0 -0 1 0 0 0 0 0 0 1:3 2:2 3:2 4:11 5:3 6:7 7:4 8:11 9:4 10:9 
-0 -0 1 0 0 0 0 0 0 1:4 2:3 3:4 4:13 5:1 6:10 7:3 8:10 9:2 10:5 
-0 -0 1 0 0.3233941319409663 0.5849684441031205 0 0 0 1:4 2:3 3:1 4:3 5:4 6:1 7:2 8:12 9:2 10:2 
-0 -0 1 0 0 0 0 0 0 1:2 2:4 3:3 4:10 5:1 6:10 7:1 8:11 9:1 10:8 
-0 -0 1 0 0 0 0 0 0 1:2 2:5 3:3 4:2 5:3 6:9 7:3 8:11 9:4 10:2 
-0 -0 1 0 0 0 0 0 0 1:2 2:11 3:3 4:6 5:4 6:10 7:4 8:9 9:3 10:10 
-0 -0 1 0 0 0.1415146294980065 0 0 0 1:2 2:1 3:4 4:1 5:3 6:9 7:3 8:5 9:3 10:13 
-0 -0.09170840901716136 1 0 0 0.2479517079832387 0 0 0 1:1 2:8 3:1 4:7 5:4 6:10 7:4 8:13 9:1 10:10 
-0 -0 1 0.05240847093276182 0.8326827397107226 1 0 0 0 1:3 2:13 3:1 4:6 5:4 6:4 7:2 8:1 9:1 10:1 
-0 -0 1 0 0 0 0 0 0 1:3 2:7 3:1 4:7 5:4 6:2 7:2 8:4 9:3 10:10 
-0 -0 1 0 0 0 0 0 0 1:3 2:10 3:4 4:8 5:4 6:2 7:1 8:8 9:2 10:4 
-0 -0 1 0 0 0 0 0 0 1:1 2:6 3:2 4:1 5:3 6:9 7:4 8:8 9:4 10:1 
-0 -0 1 0 0 0 0 0 0 1:1 2:2 3:2 4:13 5:2 6:7 7:1 8:9 9:2 10:9 
-0 -0 1 0.1330537764690697 0.1525321187788079 1 0 0.0268239476554969 0 1:4 2:13 3:3 4:1 5:1 6:1 7:2 8:12 9:3 10:6 
-0 -0 1 0 0.01545426975497749 0.4776236467640424 0.189249445732707 0 0 1:4 2:12 3:4 4:5 5:4 6:13 7:4 8:4 9:3 10:12 
-0 -0 1 0 0 0 0 0 0 1:2 2:9 3:3 4:3 5:2 6:3 7:3 8:5 9:3 10:11 
-0 -0 1 0 0 0 0 0 0 1:3 2:5 3:1 4:5 5:1 6:13 7:1 8:10 9:3 10:9 
-0 -0 1 0 0 0 0 0 0 1:3 2:9 3:1 4:4 5:1 6:1 7:3 8:7 9:2 10:9 
-0 -0 1 0 0 0 0 0 0 1:4 2:11 3:3 4:8 5:3 6:6 7:2 8:8 9:4 10:4 
-0 -0 1 0 0.0442071344454931 0.2067808311656925 0 0 0 1:2 2:6 3:4 4:13 5:3 6:4 7:1 8:1 9:3 10:1 
-0 -0 1 0 0 0 0 0 0 1:3 2:3 3:3 4:10 5:3 6:6 7:1 8:13 9:1 10:3 
-0 -0 1 0 0 0 0 0 0 1:4 2:7 3:2 4:2 5:2 6:5 7:4 8:2 9:4 10:3 
-0 -0 1 0 0.1003586089375114 0.9481936642589424 0 0 0.03027646473362228 1:4 2:1 3:4 4:7 5:1 6:13 7:1 8:5 9:2 10:13 
-0.2003752345215755 -0 1 0 0.5874826198511806 1 0.09551490234302962 0 0 1:4 2:11 3:2 4:11 5:3 6:12 7:4 8:13 9:1 10:1 
-0 -0 1 0 0 0 0 0 0 1:1 2:7 3:3 4:5 5:1 6:1 7:3 8:10 9:2 10:1 
-0 -0 1 0 0 0 0 0 0 1:4 2:11 3:2 4:7 5:1 6:2 7:1 8:11 9:2 10:4 
-0 -0 1 0 0 0 0 0 0 1:1 2:10 3:3 4:7 5:2 6:7 7:2 8:12 9:4 10:13 
-0 -0 1 0 0 0 0 0 0 1:3 2:2 3:1 4:3 5:2 6:4 7:1 8:9 9:1 10:2 
-0 -0 1 0 0 0 0 0 0 1:4 2:11 3:4 4:10 5:1 6:4 7:2 8:7 9:2 10:11 
-0 -0 1 0 0 0.03214349208857303 0 0 0 1:4 2:2 3:2 4:9 5:3 6:2 7:4 8:4 9:2 10:12 
-0 -0 1 0 0 0 0 0 0 1:1 2:9 3:3 4:7 5:3 6:3 7:1 8:7 9:1 10:6 
-0 -0 1 0 0 0 0 0 0 1:1 2:7 3:2 4:7 5:4 6:2 7:4 8:4 9:2 10:9 
-0 -0 1 0 0 0 0 0 0 1:2 2:11 3:2 4:8 5:1 6:9 7:4 8:1 9:3 10:9 
-0 -0 1 0 0 0 0 0 0 1:4 2:8 3:1 4:12 5:3 6:9 7:3 8:5 9:4 10:12 
-0 -0 1 0 0 0 0 0 0 1:2 2:5 3:3 4:2 5:3 6:5 7:4 8:3 9:1 10:6 
-0 -0 1 0 0 0 0 0 0 1:2 2:4 3:2 4:6 5:1 6:9 7:3 8:11 9:3 10:4 
-0 -0 1 0 0 0 0 0 0 1:1 2:10 3:3 4:11 5:1 6:6 7:4 8:11 9:4 10:7 
-0 -0 1 0 0 0 0 0 0 1:2 2:7 3:3 4:3 5:1 6:6 7:4 8:2 9:2 10:3 
-0 -0 1 0 0 0 0 0 0 1:1 2:11 3:2 4:11 5:4 6:9 7:3 8:13 9:2 10:4 
-0 -0 1 0 0 0 0 0 0 1:4 2:9 3:3 4:10 5:2 6:1 7:2 8:10 9:3 10:8 
-0 -0 1 0 0 0 0 0 0 1:1 2:11 3:2 4:6 5:3 6:4 7:4 8:9 9:1 10:9 
-0 -0 1 0 0 0 0 0 0 1:1 2:6 3:1 4:9 5:1 6:2 7:2 8:2 9:3 10:4 
-0 -0 1 0 0 0.3049070673183151 0 0 0 1:2 2:1 3:3 4:8 5:2 6:12 7:1 8:1 9:4 10:3 
-0 -0 1 0 0 0 0 0 0 1:1 2:11 3:2 4:13 5:1 6:4 7:3 8:4 9:3 10:5 
-0 -0 1 0 0 0 0 0 0 1:2 2:4 3:3 4:5 5:4 6:8 7:4 8:7 9:1 10:4 
-0 -0 1 0 0 0 0 0 0 1:3 2:10 3:3 4:9 5:1 6:4 7:2 8:10 9:1 10:2 
-0 -0 1 0 0 0 0 0 0 1:2 2:6 3:4 4:3 5:1 6:5 7:3 8:4 9:1 10:3 
-0 -0 1 0 0 0 0 0 0 1:2 2:5 3:1 4:6 5:4 6:1 7:4 8:4 9:3 10:4 
-0 -0 1 0 0 0 0 0 0 1:1 2:8 3:2 4:6 5:1 6:6 7:4 8:7 9:2 10:5 
-0 -0 1 0 0.05247585568485322 0.1058008063347977 0 0 5.102991834672443e-005 1:4 2:1 3:2 4:12 5:4 6:12 7:1 8:6 9:4 10:11 
-0 -0 1 0 0 0.1218110343488736 0 0 0 1:4 2:13 3:3 4:11 5:3 6:13 7:3 8:4 9:3 10:8 
-0 -0 1 0 0 0 0 0 0 1:2 2:5 3:1 4:8 5:1 6:12 7:3 8:5 9:1 10:6 
-0 -0 1 0 0 0 0 0 0 1:2 2:2 3:4 4:2 5:2 6:5 7:1 8:9 9:4 10:8 
-0 -0 1 0 0 0 0 0 0 1:4 2:12 3:1 4:5 5:1 6:7 7:4 8:7 9:4 10:11 
-0 -0 1 0 0 0 0 0 0 1:1 2:5 3:4 4:11 5:3 6:1 7:4 8:2 9:3 10:5 
-0 -0 1 0 0.1091894490307831 0.433423746215385 0 0 0 1:3 2:1 3:4 4:1 5:3 6:9 7:2 8:10 9:4 10:2 
-0 -0 1 0 0 0 0 0 0 1:4 2:7 3:4 4:11 5:1 6:4 7:4 8:4 9:1 10:13 
-0 -0 1 0 0 0 0 0 0 1:1 2:8 3:2 4:8 5:1 6:4 7:1 8:5 9:3 10:6 
-0 -0 1 0.06512569445078205 0.1389837699514357 1 0 0 0 1:1 2:8 3:3 4:1 5:1 6:2 7:1 8:9 9:1 10:1 
-0 -0 1 0 0 0 0 0 0 1:1 2:2 3:3 4:6 5:3 6:9 7:2 8:6 9:1 10:8 
-0 -0 1 0 0 0 0 0 0 1:4 2:8 3:1 4:5 5:2 6:5 7:2 8:1 9:4 10:4 
-0 -0 1 0 0 0 0 0 0 1:2 2:7 3:2 4:5 5:4 6:8 7:3 8:5 9:1 10:3 
-0 -0 1 0 0 0 0 0 0 1:2 2:12 3:1 4:2 5:3 6:11 7:1 8:11 9:3 10:4 
-0 -0 1 0 0.5273046688424963 0.5447205581006371 0 0 0 1:3 2:3 3:3 4:12 5:1 6:13 7:2 8:11 9:4 10:12 
-0 -0 1 0 0 0 0 0 0 1:1 2:2 3:3 4:7 5:3 6:8 7:2 8:6 9:4 10:6 
-0 -0 1 0 0 0 0 0 0 1:4 2:1 3:3 4:1 5:2 6:9 7:3 8:6 9:2 10:3 
-0 -0 1 0 0 0 0 0 0 1:3 2:4 3:1 4:10 5:2 6:2 7:3 8:7 9:4 10:4 
-0 -0 1 0 0 0 0 0 0 1:1 2:11 3:3 4:10 5:3 6:12 7:3 8:2 9:4 10:10 
-0 -0 1 0 0 0 0 0 0 1:3 2:7 3:1 4:10 5:2 6:10 7:2 8:13 9:3 10:3 
-0 -0 1 0 0 0 0 0 0 1:1 2:6 3:4 4:7 5:3 6:1 7:2 8:13 9:1 10:7 
-0 -0 1 0 0 0 0 0 0 1:1 2:13 3:1 4:9 5:2 6:13 7:3 8:8 9:2 10:2 
-0 -0 1 0 0 0 0 0 0 1:4 2:3 3:3 4:11 5:4 6:12 7:1 8:12 9:2 10:8 
-0 -0 1 0 0 0 0 0 0 1:1 2:7 3:4 4:10 5:1 6:9 7:2 8:11 9:3 10:9 
-0 -0 1 0 0 0 0 0 0 1:3 2:8 3:4 4:10 5:1 6:8 7:4 8:13 9:4 10:12 
-0 -0 1 0 0 0 0 0 0 1:1 2:2 3:3 4:5 5:1 6:7 7:1 8:1 9:2 10:2 
-0 -0 1 0 0 0 0 0 0 1:2 2:2 3:3 4:10 5:4 6:11 7:1 8:10 9:2 10:12 
-0 -0 1 0 0 0 0 0 0 1:3 2:1 3:4 4:4 5:4 6:7 7:4 8:9 9:2 10:9 
-0 -0 1 0 0 0.1784001417803443 0 0 0 1:4 2:11 3:2 4:10 5:1 6:13 7:3 8:3 9:1 10:11 
-0 -0 1 0 0 0 0 0 0 1:2 2:13 3:4 4:9 5:2 6:3 7:3 8:5 9:2 10:9 
-0 -0 1 0 0 0 0 0 0 1:4 2:9 3:2 4:8 5:3 6:12 7:2 8:9 9:2 10:10 
-0 -0 1 0 0 0 0 0 0 1:2 2:8 3:1 4:8 5:2 6:7 7:3 8:4 9:4 10:11 
-0 -0 1 0 0 0 0 0 0 1:1 2:10 3:1 4:8 5:3 6:8 7:1 8:12 9:2 10:13 
-0 -0 1 0 0 0 0 0 0 1:2 2:10 3:3 4:3 5:3 6:6 7:4 8:5 9:4 10:6 
-0 -0 1 0 0 0 0 0 0 1:4 2:6 3:2 4:5 5:2 6:9 7:4 8:5 9:2 10:11 
-0 -0 1 0 0 0 0 0 0 1:4 2:13 3:2 4:9 5:2 6:4 7:3 8:8 9:2 10:13 
-0 -0 1 0 0 0 0 0 0 1:1 2:13 3:2 4:6 5:3 6:4 7:2 8:10 9:1 10:4 
-0 -0 1 0 0.08979622181964019 0.6495349094070642 0 0 0.0001242086224667066 1:4 2:5 3:2 4:1 5:3 6:2 7:1 8:1 9:2 10:11 
-0 -0 1 0 0 0 0 0 0 1:1 2:10 3:1 4:3 5:4 6:10 7:1 8:4 9:1 10:12 
-0 -0 1 0 0.05324444498843746 0 0 0 0 1:2 2:12 3:3 4:12 5:4 6:1 7:3 8:6 9:4 10:11 
-0 -0 1 0 0 0.1537302485278191 0 0 0 1:4 2:8 3:3 4:5 5:1 6:13 7:1 8:11 9:3 10:13 
-0 -0 1 0 0 0 0 0 0 1:3 2:12 3:3 4:9 5:4 6:8 7:3 8:6 9:1 10:6 
-0 -0 1 0 0 0 0 0 0 1:3 2:2 3:2 4:3 5:4 6:13 7:1 8:7 9:3 10:3 
-0 -0 1 0 0 0 0 0 0 1:1 2:7 3:3 4:7 5:1 6:6 7:4 8:13 9:4 10:8 
-0.2121509825651636 -0 1 0 0.2815568179245054 0.533753587226057 0.07295478380412264 0 0 1:1 2:12 3:2 4:13 5:2 6:9 7:4 8:13 9:1 10:4 
-0 -0 1 0 0 1 0 0 0 1:1 2:8 3:1 4:13 5:1 6:1 7:3 8:1 9:1 10:6 
-0 -0 1 0 0 0.2307060298014709 0 0 0 1:1 2:9 3:3 4:10 5:4 6:13 7:1 8:13 9:3 10:3 
-0 -0 1 0 0 0 0 0 0 1:4 2:3 3:3 4:4 5:3 6:12 7:2 8:10 9:2 10:12 
-0 -0 1 0 0 0 0 0 0 1:3 2:7 3:1 4:5 5:1 6:3 7:1 8:7 9:2 10:1 
-0 -0 1 0 0 0.4093211674387396 0 0 0 1:2 2:1 3:4 4:8 5:1 6:12 7:2 8:10 9:4 10:1 
-0 -0 1 0 0 0 0 0 0 1:4 2:1 3:3 4:8 5:2 6:8 7:2 8:5 9:4 10:7 
-0 -0 1 0 0 0 0 0 0 1:2 2:12 3:2 4:3 5:1 6:9 7:4 8:9 9:4 10:2 
-0 -0 1 0 0 0 0 0 0 1:1 2:10 3:3 4:11 5:4 6:9 7:3 8:9 9:3 10:2 
-0 -0 1 0 0 0 0 0 0 1:4 2:6 3:2 4:10 5:4 6:2 7:4 8:10 9:2 10:4 
-0 -0 1 0 0 0 0 0 0 1:4 2:7 3:4 4:8 5:4 6:4 7:3 8:2 9:3 10:8 
-0 -0 1 0 0 0 0 0 0 1:1 2:10 3:3 4:1 5:2 6:5 7:4 8:10 9:1 10:8 
-0 -0 1 0 0 0 0 0 0 1:3 2:2 3:1 4:9 5:4 6:9 7:1 8:11 9:4 10:7 
-0 -0 1 0 0 0 0 0 0 1:1 2:9 3:1 4:7 5:1 6:12 7:4 8:7 9:2 10:11 
-0 -0 1 0 0 0 0 0 0 1:3 2:9 3:3 4:8 5:4 6:9 7:4 8:1 9:4 10:10 
-0 -0 1 0 0 0 0 0 0 1:1 2:12 3:4 4:11 5:3 6:7 7:1 8:11 9:2 10:8 
-0 -0 1 0 0 0 0 0 0 1:2 2:8 3:2 4:6 5:3 6:1 7:4 8:4 9:1 10:1 
-0 -0 1 0 0 0 0 0 0 1:3 2:2 3:1 4:10 5:2 6:6 7:3 8:8 9:2 10:10 
-0 -0 1 0 0 0 0 0 0 1:3 2:9 3:4 4:4 5:3 6:7 7:2 8:2 9:2 10:9 
-0 -0 1 0 0 0 0 0 0 1:3 2:9 3:4 4:1 5:4 6:9 7:3 8:8 9:1 10:13 
-0 -0 1 0 0.02056197295128471 0.6360431666659091 0.04843866175873694 0 0 1:1 2:13 3:2 4:12 5:1 6:10 7:3 8:13 9:3 10:3 
-0 -0 1 0 0 0 0 0 0 1:3 2:4 3:3 4:6 5:2 6:4 7:4 8:3 9:2 10:10 
-0 -0 1 0 0 0 0 0 0 1:4 2:9 3:3 4:11 5:2 6:9 7:2 8:10 9:3 10:12 
-0 -0 1 0 0 0 0 0 0 1:1 2:1 3:1 4:11 5:4 6:5 7:4 8:4 9:2 10:5 
-0 -0 1 0 0 0 0 0 0 1:2 2:12 3:3 4:8 5:2 6:5 7:1 8:8 9:3 10:4 
-0 -0 1 0 0 0 0 0 0 1:2 2:3 3:1 4:12 5:3 6:2 7:3 8:3 9:1 10:9 
-0 -0 1 0 0 0 0 0 0 1:1 2:2 3:1 4:12 5:2 6:2 7:1 8:4 9:2 10:9 
-0 -0 1 0 0.108538207588527 0.8556722717495601 0 0 0 1:1 2:2 3:2 4:2 5:4 6:13 7:3 8:12 9:3 10:9 
-0 -0 1 0 0 0 0 0 0 1:1 2:8 3:4 4:13 5:2 6:10 7:1 8:12 9:3 10:8 
-0 -0 1 0 0 0 0 0 0 1:2 2:2 3:4 4:5 5:3 6:3 7:1 8:7 9:1 10:2 
-0 -0 1 0 0 0 0 0 0 1:3 2:3 3:1 4:2 5:1 6:3 7:3 8:8 9:2 10:11 
-0 -0 1 0 0 0 0 0 0 1:1 2:9 3:4 4:8 5:3 6:9 7:4 8:4 9:1 10:3 
-0 -0 1 0 0 0 0 0 0 1:2 2:2 3:4 4:7 5:1 6:2 7:4 8:10 9:4 10:9 
-0 -0 1 0 0 0 0 0 0 1:3 2:8 3:2 4:6 5:1 6:13 7:1 8:11 9:2 10:13 
-0 -0 1 0 0 0 0 0 0 1:3 2:8 3:4 4:10 5:2 6:10 7:2 8:13 9:3 10:4 
-0 -0 1 0 0 0 0 0 0 1:1 2:10 3:2 4:2 5:1 6:9 7:4 8:8 9:2 10:10 
-0 -0 1 0 0 0 0 0 0 1:3 2:5 3:2 4:3 5:1 6:10 7:3 8:10 9:4 10:2 
-0 -0 1 0 0 0 0 0 0 1:3 2:4 3:3 4:12 5:3 6:10 7:2 8:10 9:4 10:3 
-0 -0 1 0.2400137151350426 0.1724909453102699 1 0.08903476183288596 0 0 1:4 2:10 3:2 4:13 5:1 6:13 7:4 8:7 9:1 10:1 
-0 -0 1 0 0 0 0 0 0 1:3 2:8 3:3 4:9 5:4 6:10 7:2 8:1 9:1 10:1 
-0 -0 1 0 0 0 0 0 0 1:4 2:6 3:1 4:6 5:3 6:4 7:3 8:3 9:4 10:5 
-0 -0 1 0 0 0 0 0 0 1:2 2:6 3:3 4:12 5:3 6:8 7:1 8:12 9:3 10:7 
-0 -0 1 0 0 0 0 0 0 1:1 2:9 3:1 4:7 5:4 6:7 7:2 8:4 9:1 10:5 
-0 -0 1 0 0 0 0 0 0 1:4 2:8 3:2 4:8 5:4 6:3 7:4 8:7 9:4 10:11 
-0 -0 1 0 0 0 0 0 0 1:1 2:5 3:3 4:8 5:4 6:5 7:1 8:1 9:3 10:10 
-0 -0 1 0 0 0 0 0 0 1:1 2:4 3:4 4:6 5:3 6:6 7:3 8:9 9:2 10:2 
-0 -0 1 0 0 0 0 0 0 1:2 2:7 3:1 4:7 5:3 6:11 7:2 8:4 9:3 10:5 
-0 -0 1 0 0.3131863342121334 0.4328784345357372 0 0.07343286845743292 0 1:3 2:13 3:1 4:1 5:3 6:10 7:2 8:6 9:1 10:13 
-0 -0 1 0 0 0 0 0 0 1:3 2:7 3:4 4:8 5:2 6:9 7:2 8:3 9:1 10:8 
-0 -0 1 0 0 0 0 0 0 1:2 2:11 3:3 4:9 5:3 6:11 7:2 8:10 9:3 10:2 
-0 -0 1 0 0 0 0 0 0 1:3 2:3 3:1 4:13 5:2 6:10 7:3 8:5 9:2 10:5 
-0 -0 1 0 0 0 0 0 0 1:4 2:13 3:1 4:2 5:3 6:6 7:1 8:4 9:1 10:6 
-0 -0 1 0 0 0 0 0 0 1:4 2:6 3:2 4:13 5:3 6:4 7:4 8:7 9:2 10:4 
-0 -0 1 0.4311061240411205 1 1 0 0.3668595291257874 0 1:3 2:12 3:3 4:11 5:4 6:13 7:1 8:13 9:1 10:8 
-0 -0 1 0 0 0 0 0 0 1:2 2:1 3:1 4:8 5:3 6:7 7:4 8:8 9:2 10:5 
-0 -0 1 0 0 0 0 0 0 1:2 2:9 3:2 4:5 5:4 6:5 7:4 8:7 9:4 10:3 
-0 -0 1 0 0 0 0 0 0 1:2 2:2 3:4 4:11 5:1 6:4 7:1 8:2 9:3 10:10 
-0 -0 1 0 0 0 0 0 0 1:1 2:12 3:3 4:8 5:4 6:10 7:2 8:8 9:3 10:3 
-0 -0 1 0 0 0 0 0 0 1:2 2:1 3:2 4:8 5:1 6:8 7:2 8:13 9:2 10:9 
-0 -0 1 0 0 0 0 0 0 1:2 2:9 3:1 4:4 5:1 6:8 7:3 8:11 9:4 10:4 
-0 -0 1 0.0342547753088974 0.1919030035796228 1 0 0 0 1:4 2:7 3:3 4:12 5:2 6:1 7:2 8:13 9:1 10:1 
-0 -0 1 0 0 0 0 0 0 1:2 2:2 3:3 4:2 5:1 6:4 7:3 8:11 9:2 10:3 
-0 -0 1 0 0 0 0 0 0 1:1 2:2 3:4 4:12 5:3 6:7 7:2 8:5 9:3 10:5 
-0 -0 1 0 0 0 0 0 0 1:4 2:2 3:1 4:10 5:3 6:11 7:4 8:10 9:3 10:8 
-0 -0 1 0 0 0 0 0 0 1:2 2:9 3:4 4:9 5:3 6:3 7:4 8:4 9:1 10:13 
-0 -0 1 0 0 0.1331883787510457 0 0 0 1:3 2:9 3:2 4:2 5:1 6:1 7:1 8:11 9:3 10:1 
-0 -0 1 0 0 0 0 0 0 1:4 2:5 3:1 4:11 5:1 6:12 7:3 8:6 9:2 10:11 
-0 -0 1 0 0 0.1266374516563089 0 0 0 1:2 2:11 3:2 4:12 5:4 6:3 7:4 8:12 9:4 10:2 
-0 -0 1 0 0 0 0 0 0 1:2 2:6 3:3 4:10 5:2 6:4 7:4 8:1 9:1 10:10 
-0 -0 1 0 0 0.4640387086038433 0 0 0 1:1 2:1 3:1 4:11 5:3 6:5 7:4 8:1 9:2 10:4 
-0 -0 1 0 0.1324456386744479 0.7815903824102657 0 0 0 1:3 2:10 3:4 4:1 5:3 6:1 7:3 8:2 9:1 10:9 
-0 -0 1 0 0 0 0 0 0 1:1 2:4 3:4 4:9 5:2 6:12 7:1 8:7 9:1 10:12 
-0 -0 1 0.08589096213313596 0.3727442314245836 0.9610487967120017 0 0 0 1:1 2:12 3:4 4:10 5:3 6:13 7:2 8:5 9:4 10:13 
-0 -0 1 0 0 0.1043298288560209 0 0 0 1:4 2:13 3:2 4:9 5:2 6:5 7:3 8:2 9:2 10:13 
-0 -0 1 0 0 0 0 0 0 1:3 2:10 3:4 4:8 5:1 6:10 7:1 8:1 9:2 10:9 
-0 -0 1 0 0.3517344967687813 1 0 0 0 1:1 2:13 3:2 4:11 5:3 6:1 7:3 8:11 9:2 10:12 
-0 -0 1 0 0 0 0 0 0 1:1 2:4 3:4 4:6 5:4 6:2 7:2 8:2 9:3 10:10 
-0 -0 1 0 0 0.1328057001244794 0 0 0 1:4 2:13 3:2 4:7 5:4 6:12 7:3 8:10 9:1 10:10 
-0 -0 1 0 0 0 0 0 0 1:1 2:7 3:3 4:10 5:4 6:4 7:4 8:5 9:2 10:10 
-0 -0 1 0 0 0 0 0 0 1:3 2:9 3:1 4:11 5:4 6:9 7:2 8:8 9:3 10:7 
-0 -0 1 0 0 0 0 0 0 1:4 2:12 3:2 4:3 5:3 6:7 7:1 8:3 9:1 10:2 
-0 -0 1 0 0 0 0 0 0 1:2 2:13 3:4 4:5 5:1 6:7 7:1 8:2 9:2 10:5 
-0 -0 1 0 0.2175976544447226 1 0 0 0 1:4 2:11 3:4 4:1 5:1 6:4 7:3 8:10 9:1 10:1 
-0 -0 1 0 0 0 0 0 0 1:2 2:5 3:4 4:10 5:4 6:5 7:1 8:11 9:1 10:13 
-0 -0 1 0 0 0 0 0 0 1:3 2:4 3:2 4:9 5:4 6:6 7:4 8:4 9:1 10:3 
-0 -0 1 0 0 0 0 0 0 1:3 2:6 3:1 4:10 5:3 6:12 7:2 8:10 9:3 10:1 
-0 -0 1 0.05704948588639147 0.1150281255426282 0.1398599474257735 0 0 0 1:1 2:13 3:2 4:13 5:1 6:6 7:2 8:12 9:3 10:8 
-0 -0 1 0 0 0 0 0 0 1:4 2:9 3:2 4:9 5:1 6:7 7:3 8:6 9:1 10:11 
-0 -0 1 0 0 0 0 0 0 1:2 2:5 3:2 4:8 5:3 6:10 7:3 8:13 9:4 10:5 
-0 -0 1 0 0 0.1774199777855255 0 0 0 1:3 2:11 3:2 4:9 5:4 6:11 7:1 8:13 9:3 10:1 
-0 -0 1 0 0 0 0 0 0 1:3 2:12 3:3 4:9 5:2 6:3 7:4 8:6 9:3 10:3 
-0 -0 1 0 0 0 0 0 0 1:3 2:3 3:3 4:13 5:2 6:13 7:1 8:5 9:2 10:6 
-0 -0 1 0 0 0 0 0 0 1:1 2:9 3:1 4:10 5:4 6:2 7:4 8:3 9:3 10:3 
-0 -0 1 0.1476117572665655 1 1 0 0 0 1:3 2:1 3:2 4:5 5:1 6:2 7:2 8:1 9:4 10:3 
-0 -0 1 0 0 0.1017593396731878 0 0 0 1:4 2:3 3:3 4:1 5:2 6:1 7:2 8:10 9:3 10:6 
-0 -0 1 0 0 0 0 0 0 1:4 2:5 3:1 4:10 5:3 6:13 7:3 8:12 9:2 10:10 
-0 -0 1 0 0 0 0 0 0 1:3 2:7 3:3 4:2 5:3 6:5 7:1 8:11 9:1 10:5 
-0 -0 1 0 0 0 0 0 0 1:4 2:9 3:4 4:12 5:2 6:5 7:2 8:9 9:2 10:2 
-0 -0 1 0 0 0 0 0 0 1:1 2:5 3:1 4:12 5:4 6:9 7:3 8:5 9:4 10:2 
-0 -0 1 0 0 0 0 0 0 1:2 2:11 3:3 4:5 5:4 6:9 7:3 8:11 9:4 10:7 
-0 -0 1 0 0 0 0 0 0 1:1 2:2 3:1 4:8 5:1 6:11 7:4 8:2 9:1 10:3 
-0 -0 1 0 0 0 0 0 0 1:2 2:12 3:4 4:12 5:3 6:7 7:2 8:8 9:3 10:1 
-0 -0 1 0 0 0 0 0 0 1:1 2:6 3:2 4:7 5:1 6:3 7:3 8:6 9:4 10:8 
-0 -0 1 0 0 0 0 0 0 1:2 2:6 3:3 4:3 5:4 6:4 7:1 8:1 9:3 10:6 
-0 -0 1 0 0.09527827217904039 0.115798582578669 0 0 0 1:2 2:3 3:3 4:1 5:1 6:13 7:3 8:3 9:4 10:8 
-0 -0 1 0 0 0 0 0 0 1:2 2:9 3:3 4:12 5:1 6:1 7:3 8:13 9:3 10:9 
-0 -0 1 0 0 0.1081249874686183 0 0 0 1:2 2:13 3:2 4:7 5:2 6:9 7:3 8:13 9:1 10:12 
-0 -0 1 0 0.1277616369889772 0.1391918949248633 0 0 0 1:4 2:10 3:1 4:2 5:4 6:13 7:2 8:10 9:1 10:11 
-0 -0 1 0 0 0 0 0 0 1:2 2:13 3:2 4:10 5:1 6:10 7:1 8:7 9:2 10:5 
-0 -0 1 0 0 0 0 0 0 1:3 2:2 3:4 4:4 5:4 6:12 7:3 8:12 9:2 10:8 
-0 -0 1 0 0 0 0 0 0 1:4 2:8 3:1 4:13 5:3 6:5 7:1 8:5 9:2 10:3 
-0 -0 1 0.083751232388872 0.0547240197835295 0.4244182856428309 0 0 0 1:1 2:11 3:4 4:10 5:2 6:10 7:4 8:1 9:1 10:13 
-0 -0 1 0 0 0 0 0 0 1:4 2:12 3:4 4:11 5:2 6:2 7:4 8:9 9:3 10:2 
-0 -0 1 0.05741916596867359 0.538341811678715 1 0 0.03324910559982615 0 1:1 2:13 3:2 4:13 5:3 6:12 7:2 8:3 9:1 10:2 
-0 -0 1 0 0 0 0 0 0 1:3 2:6 3:4 4:6 5:4 6:5 7:3 8:13 9:3 10:7 
-0 -0 1 0 0 0 0 0 0 1:4 2:11 3:3 4:9 5:4 6:6 7:4 8:2 9:3 10:11 
-0 -0 1 0 0.1417573753592304 0.1770099831597232 0 0 0 1:4 2:12 3:1 4:1 5:3 6:7 7:1 8:11 9:4 10:11 
-0 -0 1 0 0 0 0 0 0 1:3 2:8 3:1 4:1 5:4 6:2 7:3 8:11 9:2 10:2 
-0 -0 1 0 0 0 0 0 0 1:3 2:4 3:4 4:3 5:1 6:6 7:1 8:13 9:4 10:4 
-0 -0 1 0 0 0 0 0 0 1:1 2:7 3:2 4:11 5:1 6:5 7:3 8:12 9:4 10:5 
-0 -0 1 0 0.05120755347565965 0.8302582057414969 0 0 0 1:4 2:11 3:1 4:13 5:4 6:13 7:4 8:5 9:2 10:4 
-0 -0 1 0 0 0 0 0 0 1:4 2:10 3:4 4:4 5:1 6:13 7:1 8:5 9:2 10:4 
-0 -0 1 0.1585999489919618 1 1 0 0 0 1:1 2:2 3:4 4:6 5:4 6:2 7:4 8:1 9:3 10:3 
-0 -0 1 0.04245026593589985 0.1910576929894202 0.5228182214788157 0 0 0 1:3 2:8 3:2 4:5 5:2 6:1 7:4 8:1 9:1 10:13 
-0 -0 1 0.09390395688519351 0 0.3320567207925549 0.03841158908364913 0 0 1:1 2:2 3:4 4:2 5:4 6:11 7:3 8:10 9:4 10:13 
-0 -0 1 0 0 0 0 0 0 1:1 2:7 3:1 4:9 5:1 6:2 7:2 8:10 9:4 10:9 
-0 -0 1 0 0 0 0 0 0 1:1 2:10 3:3 4:13 5:4 6:8 7:2 8:12 9:3 10:10 
-0 -0 1 0 0 0 0 0 0 1:2 2:7 3:3 4:3 5:3 6:13 7:1 8:8 9:2 10:3 
-0 -0 1 0 0 0 0 0 0 1:3 2:6 3:4 4:8 5:1 6:12 7:1 8:8 9:3 10:2 
-0 -0 1 0 0 0 0 0 0 1:1 2:10 3:3 4:6 5:1 6:1 7:3 8:11 9:4 10:6 
-0 -0 1 0 0 0 0 0 0 1:4 2:7 3:2 4:12 5:3 6:1 7:4 8:9 9:3 10:9 
-0 -0 1 0 0 0.4832936805313733 0.06581943977747987 0 0 1:2 2:2 3:1 4:1 5:2 6:7 7:4 8:11 9:3 10:1 
-0 -0 1 0 0 0 0 0 0 1:4 2:5 3:3 4:2 5:1 6:5 7:2 8:9 9:1 10:12 
-0 -0 1 0 0 0.1607730124566882 0 0 0 1:2 2:2 3:4 4:7 5:4 6:2 7:4 8:1 9:3 10:4 
-0 -0 1 0 0 0 0 0 0 1:1 2:3 3:2 4:11 5:2 6:2 7:3 8:6 9:2 10:6 
-0 -0 1 0 0 0 0 0 0 1:4 2:3 3:2 4:4 5:3 6:3 7:4 8:8 9:4 10:6 
-0 -0 1 0 0 0 0 0 0 1:2 2:5 3:1 4:8 5:3 6:4 7:2 8:8 9:4 10:10 
-0 -0 1 0 0 0 0 0 0 1:1 2:6 3:1 4:3 5:4 6:4 7:2 8:3 9:3 10:2 
-0 -0 1 0 0 0 0 0 0 1:2 2:3 3:4 4:1 5:4 6:11 7:1 8:7 9:2 10:11 
-0 -0 1 0 0 0 0 0 0 1:3 2:13 3:2 4:8 5:4 6:12 7:3 8:8 9:3 10:3 
-0 -0 1 0 0 0 0 0 0 1:4 2:4 3:1 4:10 5:2 6:10 7:2 8:1 9:3 10:2 
-0 -0 1 0 0 0 0 0 0 1:1 2:7 3:1 4:3 5:4 6:5 7:4 8:3 9:1 10:11 
-0 -0 1 0 0 0 0 0 0 1:3 2:12 3:4 4:12 5:4 6:4 7:2 8:5 9:1 10:8 
-0 -0 1 0 0 0 0 0 0 1:1 2:9 3:3 4:6 5:2 6:6 7:4 8:11 9:1 10:1 
-0 -0 1 0 0 0 0 0 0 1:4 2:12 3:1 4:4 5:3 6:1 7:2 8:4 9:1 10:5 
-0 -0 1 0 0 0 0 0 0 1:4 2:5 3:3 4:9 5:2 6:2 7:2 8:1 9:1 10:2 
-0 -0 1 0 0 0 0 0 0 1:3 2:4 3:1 4:4 5:1 6:10 7:3 8:9 9:3 10:6 
-0 -0 1 0 0 0.2122124703689518 0 0 0 1:4 2:1 3:2 4:6 5:1 6:9 7:4 8:11 9:3 10:1 
-0 -0 1 0 0 0 0 0 0 1:4 2:8 3:2 4:13 5:1 6:1 7:2 8:8 9:2 10:4 
