svm_type c_svc
kernel_type linear
nr_class 4
total_sv 24
rho 1.12891 -3.27899 -2.26194 -2.41105 -2.96628 1.53605
label 1 2 3 4
probA -2.39933 -2.36144 -2.26607 -2.33497 -2.33757 -2.2663
probB -0.283947 -0.125495 0.0392543 0.197044 0.359492 0.38177
nr_sv 7 4 9 4
SV
0 1 0.2993526520335613 0:0.15823466 1:0 2:0.004305705 3:0.0053821313 4:0.0053821313 5:0.0010764262 6:0.004305705 7:0.004305705 8:0.14531754 9:0.004305705 10:0.0021528525 11:0.004305705 12:0.0010764262 13:0.007534984 14:0.0021528525 15:0.007534984 16:0.053821314 17:0.004305705 18:0.004305705 19:0.0053821313 20:0.0096878363 21:0.004305705 22:0.0064585577 23:0.0064585577 24:0.061356299 25:0.0010764262 26:0.0064585577 27:0.007534984 28:0.0053821313 29:0.0086114099 30:0.011840689 31:0.0096878363 32:0.038751345 33:0.011840689 34:0.0086114099 35:0.0064585577 36:0.011840689 37:0.015069968 38:0.020452099 39:0.021528525 40:0 41:0.0053821313 42:0.018299246 43:0.019375673 44:0.051668461 45:0.16469322 46:0.14101183 47:0.11410119 48:0.90742737 49:0.0010764262 50:0.0010764262 51:0 52:0 53:0 54:0.0010764262 55:0 56:0.87405813 57:0.0010764262 58:0 59:0.0010764262 60:0.0010764262 61:0 62:0 63:0.0032292788 64:0.8062433 65:0.0032292788 66:0.0021528525 67:0.0021528525 68:0.004305705 69:0.0032292788 70:0.0010764262 71:0.0053821313 72:0.77825618 73:0.0053821313 74:0.007534984 75:0.0021528525 76:0.0021528525 77:0.0053821313 78:0.0032292788 79:0.0032292788 80:0.7588805 81:0.013993542 82:0.0086114099 83:0.0086114099 84:0.010764263 85:0.010764263 86:0.012917115 87:0.0032292788 88:0.77610332 89:0.039827771 90:0.038751345 91:0.018299246 92:0.03444564 93:0.022604952 94:0.01722282 95:0.013993542 96:0.94510227 97:0 98:0.0010764262 99:0.0021528525 100:0 101:0.004305705 102:0.0010764262 103:0.0010764262 104:0.89128095 105:0.0010764262 106:0 107:0 108:0.0021528525 109:0.004305705 110:0.0010764262 111:0.0010764262 112:0.96447796 113:0.0010764262 114:0.0032292788 115:0 116:0.0021528525 117:0.004305705 118:0 119:0.0010764262 120:0.88374597 121:0.0086114099 122:0.007534984 123:0.010764263 124:0.004305705 125:0.0064585577 126:0.0064585577 127:0.0021528525 128:0.92465013 129:0.01722282 130:0.004305705 131:0.0086114099 132:0.0086114099 133:0.010764263 134:0.0032292788 135:0.0053821313 136:1 137:0 138:0 139:0 140:0 141:0 142:0 143:0 144:0.7588805 145:0.0021528525 146:0.0021528525 147:0.0032292788 148:0.0021528525 149:0.0010764262 150:0.0010764262 151:0.0053821313 152:0.67814857 153:0.0032292788 154:0.0010764262 155:0.0086114099 156:0.0053821313 157:0.0053821313 158:0.0010764262 159:0.0053821313 160:0.8310011 161:0.0064585577 162:0.0086114099 163:0.0096878363 164:0.0032292788 165:0.004305705 166:0.0053821313 167:0.0064585577 168:0.87621099 169:0.0010764262 170:0.0010764262 171:0 172:0.0021528525 173:0.0053821313 174:0.004305705 175:0.004305705 176:0.63724434 177:0.067814857 178:0.064585574 179:0.025834231 180:0.011840689 181:0.012917115 182:0.007534984 183:0.012917115 184:1 185:0 186:0 187:0 188:0 189:0 190:0 191:0 192:0.10548978 193:0.004305705 194:0.0032292788 195:0 196:0.0021528525 197:0.0021528525 198:0 199:0 200:0.060279872 201:0 202:0.0010764262 203:0.0010764262 204:0 205:0.0010764262 206:0.0064585577 207:0.0032292788 208:0.11733046 209:0.0021528525 210:0.0021528525 211:0.0053821313 212:0.0053821313 213:0.0053821313 214:0.0021528525 215:0.0086114099 216:0.18945102 217:0.0032292788 218:0.0021528525 219:0.004305705 220:0.0032292788 221:0.0053821313 222:0.0053821313 223:0.004305705 224:0.061356299 225:0.0032292788 226:0 227:0.0086114099 228:0.0086114099 229:0.0053821313 230:0.004305705 231:0.0064585577 232:0.033369213 233:0.0064585577 234:0.010764263 235:0.011840689 236:0.018299246 237:0.024757804 238:0.024757804 239:0.03444564 240:0.57911736 241:0 242:0.0010764262 243:0.0021528525 244:0.0010764262 245:0.0032292788 246:0.0010764262 247:0.0010764262 248:0.51668459 249:0.0032292788 250:0.0021528525 251:0.0010764262 252:0.0010764262 253:0.0021528525 254:0.0032292788 255:0.0010764262 256:0.49730894 257:0.0064585577 258:0.004305705 259:0.0064585577 260:0.004305705 261:0.0032292788 262:0.007534984 263:0.004305705 264:0.57588804 265:0.004305705 266:0.0032292788 267:0.007534984 268:0.0010764262 269:0.0021528525 270:0.0021528525 271:0.0064585577 272:0.095801935 273:0.011840689 274:0.012917115 275:0.013993542 276:0.004305705 277:0.020452099 278:0.021528525 279:0.018299246 280:0.037674919 281:0.012917115 282:0.020452099 283:0.036598492 284:0.03444564 285:0.037674919 286:0.059203446 287:0.064585574 288:0.97739506 289:0 290:0 291:0 292:0 293:0 294:0 295:0.0010764262 296:0.94402581 297:0.0010764262 298:0.0021528525 299:0.0032292788 300:0.0010764262 301:0.0010764262 302:0.0010764262 303:0.0021528525 304:0.97093648 305:0 306:0.0010764262 307:0 308:0 309:0 310:0 311:0.0032292788 312:0.96878362 313:0 314:0.0021528525 315:0 316:0 317:0 318:0 319:0 320:0.87190527 321:0.0086114099 322:0.0010764262 323:0.010764263 324:0.0096878363 325:0.0064585577 326:0.004305705 327:0.004305705 328:1 329:0 330:0 331:0 332:0 333:0 334:0 335:0 336:0.60710442 337:0.0010764262 338:0.0010764262 339:0 340:0.0010764262 341:0.0010764262 342:0.0053821313 343:0.0021528525 344:0.53390741 345:0.0021528525 346:0.0064585577 347:0.0032292788 348:0.0010764262 349:0.0053821313 350:0.0010764262 351:0 352:0.50914961 353:0.007534984 354:0.0032292788 355:0 356:0.0086114099 357:0.0064585577 358:0.004305705 359:0.0021528525 360:0.52206671 361:0.013993542 362:0.004305705 363:0.010764263 364:0.018299246 365:0.0064585577 366:0.012917115 367:0.0086114099 368:0.1270183 369:0.0032292788 370:0.0096878363 371:0.011840689 372:0.0086114099 373:0.0086114099 374:0.010764263 375:0.0086114099 376:0.071044132 377:0.015069968 378:0.025834231 379:0.030139936 380:0.03444564 381:0.052744888 382:0.037674919 383:0.096878365 384:0.13240042 385:0.0010764262 386:0 387:0 388:0 389:0.0021528525 390:0.0010764262 391:0.0010764262 392:0.1270183 393:0.004305705 394:0.0021528525 395:0.0032292788 396:0.0010764262 397:0.0010764262 398:0.0021528525 399:0.0021528525 400:0.17868675 401:0.0064585577 402:0.0032292788 403:0.0032292788 404:0.0010764262 405:0.0032292788 406:0.0010764262 407:0.0032292788 408:0.22174381 409:0.0096878363 410:0.0053821313 411:0.0021528525 412:0.0053821313 413:0.0053821313 414:0.0021528525 415:0.0032292788 416:0.057050593 417:0.0064585577 418:0.0032292788 419:0.0010764262 420:0.0086114099 421:0.0032292788 422:0.0053821313 423:0.004305705 424:0.045209903 425:0.0053821313 426:0.0064585577 427:0.0086114099 428:0.015069968 429:0.01722282 430:0.025834231 431:0.064585574 432:0.85142326 433:0.40920728 434:0.60000002 435:0.012096354 
0 0.6002476660129728 0.4339540759759863 0:0.15936255 1:0.00099601597 2:0.0019920319 3:0.0059760958 4:0.0079681277 5:0.0019920319 6:0 7:0.0019920319 8:0.187251 9:0.0049800798 10:0.00099601597 11:0.0019920319 12:0.00099601597 13:0.0029880479 14:0.0019920319 15:0.0029880479 16:0.12749004 17:0.0089641437 18:0.0059760958 19:0.0049800798 20:0.0089641437 21:0.0049800798 22:0.0099601597 23:0.0029880479 24:0.082669325 25:0.017928287 26:0.0059760958 27:0.020916335 28:0.023904383 29:0.025896415 30:0.014940239 31:0.021912351 32:0.030876495 33:0.0089641437 34:0.0069721118 35:0.021912351 36:0.030876495 37:0.021912351 38:0.021912351 39:0.029880479 40:0.0029880479 41:0.0039840639 42:0.010956176 43:0.021912351 44:0.13047808 45:0.21912351 46:0.16932271 47:0.095617533 48:0.93227094 49:0.00099601597 50:0.00099601597 51:0 52:0 53:0 54:0.00099601597 55:0.0019920319 56:0.90637451 57:0 58:0.00099601597 59:0 60:0.00099601597 61:0.00099601597 62:0.00099601597 63:0 64:0.88346612 65:0.0019920319 66:0.0029880479 67:0.00099601597 68:0.00099601597 69:0.0039840639 70:0.00099601597 71:0.00099601597 72:0.85956174 73:0.00099601597 74:0.0059760958 75:0.0019920319 76:0.0029880479 77:0.0039840639 78:0.00099601597 79:0.0019920319 80:0.83366531 81:0.015936255 82:0.018924303 83:0.0049800798 84:0.0039840639 85:0.0069721118 86:0.0039840639 87:0.0029880479 88:0.85956174 89:0.04681275 90:0.013944224 91:0.012948208 92:0.010956176 93:0.0049800798 94:0.0089641437 95:0.0089641437 96:0.95717132 97:0.0019920319 98:0 99:0.0019920319 100:0.0029880479 101:0.0019920319 102:0.00099601597 103:0.0019920319 104:0.93924302 105:0.0019920319 106:0.00099601597 107:0.00099601597 108:0.0029880479 109:0.0019920319 110:0.00099601597 111:0.00099601597 112:0.9810757 113:0.0019920319 114:0 115:0 116:0.00099601597 117:0 118:0 119:0.00099601597 120:0.91733068 121:0.012948208 122:0.0099601597 123:0.0059760958 124:0.0079681277 125:0.0019920319 126:0.0039840639 127:0.0039840639 128:0.96414346 129:0.011952192 130:0.0059760958 131:0.0039840639 132:0.0059760958 133:0.0039840639 134:0 135:0 136:1 137:0 138:0 139:0 140:0 141:0 142:0 143:0 144:0.77788842 145:0.0049800798 146:0.0029880479 147:0.0029880479 148:0.0069721118 149:0.0039840639 150:0.0039840639 151:0 152:0.62948209 153:0.0079681277 154:0.0059760958 155:0.0039840639 156:0.0049800798 157:0.0079681277 158:0.0049800798 159:0.0059760958 160:0.88645416 161:0.0039840639 162:0.0079681277 163:0.0059760958 164:0.0049800798 165:0.0029880479 166:0.0029880479 167:0.00099601597 168:0.95119524 169:0.00099601597 170:0.0039840639 171:0.0049800798 172:0 173:0 174:0.0039840639 175:0.00099601597 176:0.64243031 177:0.065737054 178:0.050796814 179:0.053784862 180:0.035856575 181:0.032868527 182:0.017928287 183:0.0069721118 184:1 185:0 186:0 187:0 188:0 189:0 190:0 191:0 192:0.22111554 193:0.0019920319 194:0.0039840639 195:0.0029880479 196:0.0059760958 197:0.0019920319 198:0.0039840639 199:0.0039840639 200:0.21015936 201:0.00099601597 202:0.0069721118 203:0.0039840639 204:0.0069721118 205:0.0049800798 206:0.0039840639 207:0.0019920319 208:0.21015936 209:0.0039840639 210:0.0089641437 211:0.0049800798 212:0.0019920319 213:0.0059760958 214:0.0059760958 215:0.0059760958 216:0.19820717 217:0.0079681277 218:0.0069721118 219:0.0069721118 220:0.011952192 221:0.012948208 222:0.0099601597 223:0.0099601597 224:0.037848607 225:0.00099601597 226:0.0019920319 227:0.0019920319 228:0.0039840639 229:0.0029880479 230:0.0049800798 231:0.0029880479 232:0.020916335 233:0.0069721118 234:0.0089641437 235:0.0049800798 236:0.0049800798 237:0.011952192 238:0.032868527 239:0.089641437 240:0.68824703 241:0.00099601597 242:0.0029880479 243:0.0039840639 244:0.00099601597 245:0.0019920319 246:0.00099601597 247:0 248:0.64641434 249:0.0029880479 250:0 251:0.0019920319 252:0.0019920319 253:0.0049800798 254:0.0039840639 255:0.0019920319 256:0.64641434 257:0 258:0.0039840639 259:0.0039840639 260:0.0029880479 261:0.0019920319 262:0.0029880479 263:0.0029880479 264:0.69322711 265:0.0019920319 266:0.0059760958 267:0.0069721118 268:0.0039840639 269:0.0049800798 270:0.0059760958 271:0.0049800798 272:0.20816733 273:0.020916335 274:0.024900399 275:0.019920319 276:0.018924303 277:0.020916335 278:0.011952192 279:0.012948208 280:0.075697213 281:0.014940239 282:0.027888447 283:0.054780878 284:0.04681275 285:0.05179283 286:0.062749006 287:0.124502 288:0.98406374 289:0 290:0 291:0.00099601597 292:0 293:0 294:0 295:0 296:0.97111553 297:0.00099601597 298:0 299:0 300:0.0019920319 301:0 302:0 303:0.0019920319 304:0.97111553 305:0 306:0.0029880479 307:0.00099601597 308:0.00099601597 309:0 310:0.00099601597 311:0 312:0.97908366 313:0 314:0 315:0 316:0.00099601597 317:0.00099601597 318:0.00099601597 319:0 320:0.90936255 321:0.0049800798 322:0.013944224 323:0.010956176 324:0.0089641437 325:0.0099601597 326:0.0029880479 327:0.0029880479 328:1 329:0 330:0 331:0 332:0 333:0 334:0 335:0 336:0.58266932 337:0.0019920319 338:0.00099601597 339:0.0039840639 340:0 341:0.0029880479 342:0.0019920319 343:0.0029880479 344:0.50796813 345:0.0029880479 346:0.00099601597 347:0.0049800798 348:0.0019920319 349:0.0039840639 350:0.0019920319 351:0.0039840639 352:0.49800798 353:0.0019920319 354:0.0029880479 355:0.0039840639 356:0.0029880479 357:0.00099601597 358:0.0019920319 359:0.0029880479 360:0.52988046 361:0.0089641437 362:0.0049800798 363:0.0059760958 364:0.013944224 365:0.0069721118 366:0.0089641437 367:0.0059760958 368:0.15537849 369:0.016932271 370:0.010956176 371:0.014940239 372:0.015936255 373:0.0099601597 374:0.015936255 375:0.013944224 376:0.078685261 377:0.037848607 378:0.027888447 379:0.044820718 380:0.031872511 381:0.062749006 382:0.10956176 383:0.124502 384:0.0099601597 385:0 386:0 387:0.00099601597 388:0.0019920319 389:0.00099601597 390:0 391:0.00099601597 392:0.030876495 393:0.00099601597 394:0.00099601597 395:0 396:0.00099601597 397:0 398:0.00099601597 399:0.00099601597 400:0.089641437 401:0.0019920319 402:0.0019920319 403:0.00099601597 404:0.0019920319 405:0.0019920319 406:0.0039840639 407:0.0039840639 408:0.12749004 409:0.0019920319 410:0.0029880479 411:0 412:0.0029880479 413:0.0029880479 414:0.0019920319 415:0.0029880479 416:0.06175299 417:0.0019920319 418:0.0029880479 419:0.0039840639 420:0.0019920319 421:0.0019920319 422:0.0029880479 423:0.00099601597 424:0.05179283 425:0.00099601597 426:0.0069721118 427:0.0029880479 428:0.015936255 429:0.029880479 430:0.090637453 431:0.1125498 432:0.8725487 433:0.47098377 434:0.60000002 435:0.013072916 
0.06335772797211292 0 0 0:0.23076923 1:0.0029397355 2:0.0048995591 3:0.0034296913 4:0.0029397355 5:0.0019598235 6:0.0029397355 7:0.00097991177 8:0.15825576 9:0.0034296913 10:0.0034296913 11:0.0029397355 12:0.0073493384 13:0.0053895148 14:0.0019598235 15:0.0058794711 16:0.08525233 17:0.0053895148 18:0.0073493384 19:0.0053895148 20:0.0093091624 21:0.0088192066 22:0.0039196471 23:0.01077903 24:0.1455169 25:0.011758942 26:0.0073493384 27:0.0093091624 28:0.0166585 29:0.014698677 30:0.014698677 31:0.012738854 32:0.086232238 33:0.017638413 34:0.024987752 35:0.028417442 36:0.028907398 37:0.042626165 38:0.03723665 39:0.050465457 40:0.0093091624 41:0.029887309 42:0.075453207 43:0.16952474 44:0.1121999 45:0.12346889 46:0.06908378 47:0.060754534 48:0.80940717 49:0.0039196471 50:0.0019598235 51:0.0024497795 52:0.0029397355 53:0.0039196471 54:0.0019598235 55:0.0019598235 56:0.80058795 57:0.0024497795 58:0.0019598235 59:0 60:0.0029397355 61:0.0019598235 62:0.0034296913 63:0.0029397355 64:0.76874083 65:0.0063694268 66:0.0034296913 67:0.0024497795 68:0.0029397355 69:0.0063694268 70:0.0039196471 71:0.0019598235 72:0.72023517 73:0.0088192066 74:0.0083292499 75:0.010289074 76:0.0083292499 77:0.0078392942 78:0.010289074 79:0.0083292499 80:0.68397844 81:0.026947575 82:0.021068104 83:0.024497796 84:0.0166585 85:0.014208721 86:0.012738854 87:0.0093091624 88:0.73493385 89:0.06859383 90:0.043606076 91:0.023517884 92:0.016168544 93:0.021558059 94:0.015678588 95:0.015188633 96:0.94463497 97:0.00097991177 98:0.0019598235 99:0.0019598235 100:0.0014698678 101:0.0019598235 102:0.00097991177 103:0.00048995588 104:0.87163156 105:0.0073493384 106:0.0029397355 107:0.0034296913 108:0.0019598235 109:0.0048995591 110:0.0048995591 111:0.0034296913 112:0.92699659 113:0.0053895148 114:0.0088192066 115:0.0024497795 116:0.0058794711 117:0.0058794711 118:0.0024497795 119:0.0029397355 120:0.82557571 121:0.0166585 122:0.019598236 123:0.013228809 124:0.0088192066 125:0.010289074 126:0.012738854 127:0.0068593826 128:0.89465946 129:0.026947575 130:0.022537971 131:0.015188633 132:0.0073493384 133:0.0044096033 134:0.0053895148 135:0.0029397355 136:1 137:0 138:0 139:0 140:0 141:0 142:0 143:0 144:0.76580107 145:0.0039196471 146:0.0063694268 147:0.0053895148 148:0.0053895148 149:0.0048995591 150:0.0063694268 151:0.0053895148 152:0.6031357 153:0.017148457 154:0.012738854 155:0.011268985 156:0.012248898 157:0.010289074 158:0.0073493384 159:0.0093091624 160:0.85448307 161:0.0078392942 162:0.0039196471 163:0.0083292499 164:0.0088192066 165:0.0014698678 166:0.0048995591 167:0.0014698678 168:0.89906907 169:0.0088192066 170:0.00097991177 171:0.0029397355 172:0.0014698678 173:0.0014698678 174:0.0019598235 175:0 176:0.61391473 177:0.078882903 178:0.049975503 179:0.037726603 180:0.031847134 181:0.028907398 182:0.0166585 183:0.015188633 184:0.99510044 185:0.0014698678 186:0 187:0.00048995588 188:0 189:0.00097991177 190:0.0014698678 191:0 192:0.22586967 193:0.0039196471 194:0.0034296913 195:0.0048995591 196:0.0044096033 197:0.0039196471 198:0.0029397355 199:0.0053895148 200:0.18471338 201:0.0039196471 202:0.0083292499 203:0.0039196471 204:0.0048995591 205:0.0044096033 206:0.0039196471 207:0.0039196471 208:0.20627144 209:0.0044096033 210:0.0029397355 211:0.0063694268 212:0.0068593826 213:0.0058794711 214:0.0053895148 215:0.0073493384 216:0.21509065 217:0.0063694268 218:0.0088192066 219:0.012738854 220:0.011268985 221:0.010289074 222:0.010289074 223:0.0078392942 224:0.08525233 225:0.0029397355 226:0.0044096033 227:0.0034296913 228:0.0048995591 229:0.0048995591 230:0.0058794711 231:0.0068593826 232:0.047525723 233:0.01077903 234:0.016168544 235:0.021558059 236:0.08525233 237:0.082802549 238:0.07741303 239:0.083292507 240:0.57030869 241:0.0024497795 242:0.0014698678 243:0.0019598235 244:0.0014698678 245:0.00097991177 246:0.0019598235 247:0.0019598235 248:0.5575698 249:0.0029397355 250:0.0029397355 251:0.0029397355 252:0.0024497795 253:0.0044096033 254:0.0034296913 255:0.0014698678 256:0.53405195 257:0.0083292499 258:0.0029397355 259:0.0053895148 260:0.0068593826 261:0.0053895148 262:0.0024497795 263:0.0083292499 264:0.49044585 265:0.0083292499 266:0.0078392942 267:0.0088192066 268:0.014698677 269:0.0068593826 270:0.0068593826 271:0.013228809 272:0.22097011 273:0.014698677 274:0.012248898 275:0.011268985 276:0.0093091624 277:0.011268985 278:0.011268985 279:0.012738854 280:0.12542871 281:0.021558059 282:0.034296915 283:0.04801568 284:0.083782457 285:0.058304753 286:0.062714353 287:0.071043603 288:0.90298873 289:0.00048995588 290:0.0024497795 291:0.0024497795 292:0.0014698678 293:0.0014698678 294:0.00048995588 295:0.00048995588 296:0.86722195 297:0.0014698678 298:0.00048995588 299:0 300:0 301:0.00048995588 302:0.00048995588 303:0.00048995588 304:0.93679571 305:0.00097991177 306:0.0014698678 307:0.00097991177 308:0.00048995588 309:0.0014698678 310:0 311:0.00048995588 312:0.94218522 313:0.0034296913 314:0.00097991177 315:0.0029397355 316:0.0029397355 317:0.0029397355 318:0.0014698678 319:0.0024497795 320:0.77315044 321:0.022048015 322:0.014698677 323:0.014698677 324:0.0097991182 325:0.0088192066 326:0.011268985 327:0.0078392942 328:1 329:0 330:0 331:0 332:0 333:0 334:0 335:0 336:0.5090642 337:0.00048995588 338:0.0014698678 339:0.0014698678 340:0.0014698678 341:0.0024497795 342:0.00097991177 343:0.00048995588 344:0.49975502 345:0.0034296913 346:0.0044096033 347:0.0039196471 348:0.0039196471 349:0.00048995588 350:0.0044096033 351:0.0024497795 352:0.477707 353:0.0068593826 354:0.0039196471 355:0.0053895148 356:0.0058794711 357:0.0039196471 358:0.0078392942 359:0.0053895148 360:0.44585988 361:0.011758942 362:0.0088192066 363:0.011268985 364:0.013228809 365:0.0097991182 366:0.01077903 367:0.011268985 368:0.1989221 369:0.014698677 370:0.012738854 371:0.01077903 372:0.013718765 373:0.012248898 374:0.016168544 375:0.020578148 376:0.14159726 377:0.039686427 378:0.042626165 379:0.04801568 380:0.077902988 381:0.072513476 382:0.057814796 383:0.053895149 384:0.14502695 385:0 386:0.0019598235 387:0.0014698678 388:0.00048995588 389:0.0014698678 390:0.0029397355 391:0.00048995588 392:0.13914748 393:0.0024497795 394:0.00048995588 395:0.0014698678 396:0.0014698678 397:0.0019598235 398:0.00048995588 399:0.0024497795 400:0.17834395 401:0.0058794711 402:0.0063694268 403:0.0063694268 404:0.0073493384 405:0.0053895148 406:0.0058794711 407:0.0044096033 408:0.20725134 409:0.0073493384 410:0.01077903 411:0.0053895148 412:0.0073493384 413:0.010289074 414:0.0097991182 415:0.0093091624 416:0.083782457 417:0.0048995591 418:0.0044096033 419:0.0058794711 420:0.01077903 421:0.0048995591 422:0.0073493384 423:0.0093091624 424:0.066144049 425:0.019598236 426:0.022537971 427:0.03576678 428:0.071043603 429:0.078882903 430:0.072023518 431:0.083782457 432:0.81099951 433:0.32224685 434:0.30000001 435:0.026575521 
0 0.07536359923647872 0 0:0.23847842 1:0.0029261156 2:0.0014630578 3:0.0021945867 4:0.0029261156 5:0.0021945867 6:0.0021945867 7:0.0021945867 8:0.24140453 9:0.0043891734 10:0.0029261156 11:0.0029261156 12:0.0014630578 13:0.0021945867 14:0.0021945867 15:0.0043891734 16:0.15801024 17:0.0036576444 18:0.0095098754 19:0.0095098754 20:0.008046818 21:0.012435991 22:0.0095098754 23:0.016825164 24:0.17776152 25:0.0087783467 26:0.013899049 27:0.012435991 28:0.010241404 29:0.010972934 30:0.01316752 31:0.016825164 32:0.096561812 33:0.02706657 34:0.023408925 35:0.029261155 36:0.037307974 37:0.02706657 38:0.027798098 39:0.029992685 40:0.0087783467 41:0.021945868 42:0.090709582 43:0.13094367 44:0.14703731 45:0.098756403 46:0.056327727 47:0.045354791 48:0.88295537 49:0.00073152891 50:0.0021945867 51:0.00073152891 52:0.00073152891 53:0.0051207021 54:0.0014630578 55:0.0014630578 56:0.87125093 57:0.00073152891 58:0 59:0.0021945867 60:0.00073152891 61:0.0014630578 62:0.0036576444 63:0.00073152891 64:0.84784198 65:0.0036576444 66:0.0021945867 67:0.0014630578 68:0.0029261156 69:0.0021945867 70:0.0021945867 71:0.0036576444 72:0.81711775 73:0.0051207021 74:0.0029261156 75:0.0036576444 76:0.0043891734 77:0.0029261156 78:0.0014630578 79:0.0021945867 80:0.77176297 81:0.012435991 82:0.014630578 83:0.014630578 84:0.0036576444 85:0.0095098754 86:0.0051207021 87:0.010241404 88:0.77980977 89:0.042428676 90:0.018288223 91:0.020482808 92:0.018288223 93:0.020482808 94:0.016825164 95:0.010241404 96:0.91002196 97:0.0014630578 98:0.0021945867 99:0.0014630578 100:0.0029261156 101:0.0029261156 102:0.00073152891 103:0 104:0.86247259 105:0.0043891734 106:0.0029261156 107:0.0021945867 108:0.0051207021 109:0 110:0.0036576444 111:0.0029261156 112:0.94220924 113:0.0029261156 114:0.0036576444 115:0.0021945867 116:0.0014630578 117:0.0036576444 118:0.00073152891 119:0.0021945867 120:0.8705194 121:0.019751281 122:0.0043891734 123:0.010972934 124:0.0043891734 125:0.0051207021 126:0.008046818 127:0.00658376 128:0.9268471 129:0.018288223 130:0.011704463 131:0.010972934 132:0.011704463 133:0.0014630578 134:0.0021945867 135:0.0021945867 136:1 137:0 138:0 139:0 140:0 141:0 142:0 143:0 144:0.79370886 145:0.0029261156 146:0.0087783467 147:0.008046818 148:0.0058522313 149:0.0058522313 150:0.011704463 151:0.008046818 152:0.65032917 153:0.0087783467 154:0.0073152888 155:0.00658376 156:0.0058522313 157:0.008046818 158:0.0058522313 159:0.008046818 160:0.80833942 161:0.0043891734 162:0.0058522313 163:0.0058522313 164:0.0073152888 165:0.008046818 166:0.0095098754 167:0.0036576444 168:0.86832482 169:0.0043891734 170:0.0021945867 171:0.0058522313 172:0.0058522313 173:0.0051207021 174:0.0051207021 175:0.0036576444 176:0.64520848 177:0.042428676 178:0.031455744 179:0.021945868 180:0.042428676 181:0.021214338 182:0.018288223 183:0.022677395 184:1 185:0 186:0 187:0 188:0 189:0 190:0 191:0 192:0.16605707 193:0.0014630578 194:0.0014630578 195:0.00073152891 196:0.0021945867 197:0.0014630578 198:0.0021945867 199:0.0029261156 200:0.18800293 201:0.0014630578 202:0.0036576444 203:0.0014630578 204:0.0029261156 205:0.0014630578 206:0.0029261156 207:0.0051207021 208:0.24652524 209:0.00658376 210:0.0058522313 211:0.0029261156 212:0.0051207021 213:0.0043891734 214:0.0051207021 215:0.0036576444 216:0.29407462 217:0.010972934 218:0.0087783467 219:0.0087783467 220:0.010241404 221:0.010972934 222:0.00658376 223:0.0058522313 224:0.072421357 225:0.0021945867 226:0.0021945867 227:0.0043891734 228:0.0051207021 229:0.010972934 230:0.012435991 231:0.021945868 232:0.044623263 233:0.0058522313 234:0.0095098754 235:0.032187272 236:0.073152892 237:0.088514999 238:0.078273594 239:0.051207021 240:0.57717627 241:0.0021945867 242:0.0021945867 243:0.0021945867 244:0.0014630578 245:0.0029261156 246:0.0021945867 247:0.00073152891 248:0.47622532 249:0.0014630578 250:0.0029261156 251:0.0021945867 252:0.0043891734 253:0.0021945867 254:0.0014630578 255:0.0029261156 256:0.47695684 257:0.0029261156 258:0.0021945867 259:0.0036576444 260:0.0043891734 261:0.0043891734 262:0 263:0.0021945867 264:0.51133871 265:0.0021945867 266:0.0043891734 267:0.0058522313 268:0.0043891734 269:0.010241404 270:0.0036576444 271:0.00658376 272:0.19458668 273:0.0087783467 274:0.013899049 275:0.010972934 276:0.016093636 277:0.013899049 278:0.015362107 279:0.02706657 280:0.11046086 281:0.015362107 282:0.027798098 283:0.02706657 284:0.066569127 285:0.084125824 286:0.10168251 287:0.065837599 288:0.97951716 289:0.00073152891 290:0.0021945867 291:0.00073152891 292:0 293:0.00073152891 294:0 295:0 296:0.9268471 297:0.0014630578 298:0.00073152891 299:0 300:0.00073152891 301:0.00073152891 302:0.0036576444 303:0.0029261156 304:0.93708849 305:0.00073152891 306:0.00073152891 307:0.00073152891 308:0 309:0.0014630578 310:0 311:0.00073152891 312:0.91587418 313:0.0021945867 314:0.00073152891 315:0 316:0.0014630578 317:0.0014630578 318:0 319:0.00073152891 320:0.83979517 321:0.0051207021 322:0.0095098754 323:0.0051207021 324:0.0043891734 325:0.0051207021 326:0.00073152891 327:0.0051207021 328:1 329:0 330:0 331:0 332:0 333:0 334:0 335:0 336:0.57059252 337:0.0029261156 338:0.0029261156 339:0.0021945867 340:0.00073152891 341:0.0021945867 342:0.0029261156 343:0.0036576444 344:0.53108996 345:0.0043891734 346:0.00658376 347:0.0021945867 348:0.0014630578 349:0.0021945867 350:0.0021945867 351:0.0036576444 352:0.45501098 353:0.00658376 354:0.00073152891 355:0.0087783467 356:0.0051207021 357:0.0029261156 358:0.0087783467 359:0.0043891734 360:0.47037309 361:0.008046818 362:0.00658376 363:0.0036576444 364:0.00658376 365:0.008046818 366:0.0036576444 367:0.0051207021 368:0.18434528 369:0.015362107 370:0.019019751 371:0.012435991 372:0.0087783467 373:0.016093636 374:0.010241404 375:0.011704463 376:0.11265545 377:0.023408925 378:0.049012437 379:0.055596195 380:0.065837599 381:0.074615948 382:0.078273594 383:0.075347476 384:0.14337966 385:0.0043891734 386:0.0036576444 387:0.0021945867 388:0.0021945867 389:0.0029261156 390:0 391:0.0021945867 392:0.17264082 393:0.00073152891 394:0.00073152891 395:0.0043891734 396:0.0043891734 397:0.0021945867 398:0.0029261156 399:0.0029261156 400:0.19897586 401:0.0043891734 402:0.0021945867 403:0.0058522313 404:0.0021945867 405:0.0051207021 406:0.0021945867 407:0.0029261156 408:0.24140453 409:0.0036576444 410:0.0029261156 411:0.0058522313 412:0.0051207021 413:0.0036576444 414:0.00658376 415:0.0029261156 416:0.10753475 417:0.0036576444 418:0.0058522313 419:0.0043891734 420:0.0087783467 421:0.010972934 422:0.00658376 423:0.010972934 424:0.078273594 425:0.015362107 426:0.016825164 427:0.02633504 428:0.049743965 429:0.079005122 430:0.084857352 431:0.083394296 432:0.77755833 433:0.42212269 434:0.60000002 435:0.01779948 
1 0.9057066508688918 0.9264036927633006 0:0 1:0 2:0 3:0 4:0 5:0 6:0 7:0 8:0 9:0 10:0 11:0 12:0 13:0 14:0 15:0 16:0 17:0 18:0 19:0 20:0 21:0 22:0 23:0 24:0 25:0 26:0 27:0 28:0 29:0 30:0 31:0 32:0 33:0 34:0 35:0 36:0 37:0 38:0 39:0 40:0 41:0 42:0 43:0 44:0 45:0 46:0 47:0.010723861 48:0.52278823 49:0.0053619305 50:0.010723861 51:0.0053619305 52:0.0053619305 53:0.0026809652 54:0.0026809652 55:0.018766755 56:0.57372653 57:0.0053619305 58:0.0026809652 59:0.0080428952 60:0.0026809652 61:0.0053619305 62:0.0026809652 63:0.0026809652 64:0.52546918 65:0.0053619305 66:0.0026809652 67:0.0026809652 68:0.0053619305 69:0.0080428952 70:0.013404826 71:0.0053619305 72:0.50134051 73:0.0053619305 74:0.01608579 75:0.013404826 76:0 77:0.0026809652 78:0.0080428952 79:0.0026809652 80:0.49597856 81:0.010723861 82:0.013404826 83:0.018766755 84:0.010723861 85:0.010723861 86:0.010723861 87:0.013404826 88:0.55764073 89:0.067024127 90:0.053619303 91:0.03753351 92:0.021447722 93:0.032171581 94:0.042895444 95:0.048257373 96:0.74262732 97:0.0053619305 98:0 99:0.0053619305 100:0.0026809652 101:0.0026809652 102:0.0026809652 103:0 104:0.60589814 105:0.010723861 106:0.0026809652 107:0.0026809652 108:0.0026809652 109:0.010723861 110:0.0053619305 111:0.0080428952 112:0.8605898 113:0.0053619305 114:0.0053619305 115:0 116:0 117:0.0026809652 118:0.0026809652 119:0.0026809652 120:0.57104558 121:0.0026809652 122:0.010723861 123:0.0026809652 124:0.0080428952 125:0.0053619305 126:0.0053619305 127:0.01608579 128:0.62734586 129:0.050938338 130:0.045576409 131:0.061662197 132:0.048257373 133:0.045576409 134:0.021447722 135:0.013404826 136:1 137:0 138:0 139:0 140:0 141:0 142:0 143:0 144:0.35924932 145:0 146:0 147:0.0053619305 148:0.0026809652 149:0 150:0.0026809652 151:0.010723861 152:0.32439679 153:0.0026809652 154:0.0080428952 155:0.0026809652 156:0.0026809652 157:0 158:0.0026809652 159:0.0053619305 160:0.50938338 161:0 162:0 163:0.0053619305 164:0 165:0 166:0.0026809652 167:0 168:0.61126006 169:0 170:0 171:0.0080428952 172:0 173:0.0053619305 174:0.0026809652 175:0.0080428952 176:0.43163538 177:0.018766755 178:0.026809651 179:0.0053619305 180:0.01608579 181:0.021447722 182:0.018766755 183:0.0053619305 184:1 185:0 186:0 187:0 188:0 189:0 190:0 191:0 192:0.064343162 193:0.0026809652 194:0 195:0.0026809652 196:0 197:0.0026809652 198:0 199:0.0053619305 200:0.010723861 201:0 202:0.0026809652 203:0 204:0.0080428952 205:0 206:0.0026809652 207:0.0026809652 208:0.058981232 209:0.0053619305 210:0 211:0.0026809652 212:0 213:0 214:0 215:0.0026809652 216:0.085790887 217:0 218:0 219:0.0026809652 220:0.0026809652 221:0.0053619305 222:0 223:0.0026809652 224:0.0080428952 225:0 226:0 227:0 228:0 229:0.0026809652 230:0 231:0.0053619305 232:0.0026809652 233:0.0026809652 234:0 235:0 236:0 237:0 238:0 239:0.0053619305 240:0.042895444 241:0.0026809652 242:0 243:0 244:0 245:0 246:0.0026809652 247:0 248:0.053619303 249:0 250:0.0026809652 251:0 252:0 253:0 254:0 255:0 256:0.13941018 257:0 258:0 259:0 260:0 261:0.0026809652 262:0 263:0.0026809652 264:0.15013404 265:0 266:0.0026809652 267:0 268:0.0053619305 269:0 270:0.0026809652 271:0.0026809652 272:0.013404826 273:0.0080428952 274:0.0053619305 275:0 276:0.0053619305 277:0.0053619305 278:0.0026809652 279:0 280:0 281:0 282:0.0026809652 283:0.0053619305 284:0.0053619305 285:0.0080428952 286:0.0026809652 287:0.0026809652 288:0.50670242 289:0 290:0.0026809652 291:0 292:0.0026809652 293:0.0053619305 294:0.0026809652 295:0 296:0.4075067 297:0.0026809652 298:0.0080428952 299:0.0026809652 300:0.0026809652 301:0.0026809652 302:0 303:0.0026809652 304:0.55227882 305:0.0053619305 306:0.0053619305 307:0 308:0.0026809652 309:0.0026809652 310:0.0026809652 311:0.0026809652 312:0.64343166 313:0.0026809652 314:0.0026809652 315:0.013404826 316:0.0026809652 317:0.0026809652 318:0.010723861 319:0.0026809652 320:0.41286862 321:0.0080428952 322:0.0053619305 323:0.013404826 324:0.010723861 325:0.0026809652 326:0.0053619305 327:0.013404826 328:1 329:0 330:0 331:0 332:0 333:0 334:0 335:0 336:0.034852546 337:0 338:0.0026809652 339:0.0026809652 340:0.0026809652 341:0.0026809652 342:0.0026809652 343:0 344:0.013404826 345:0 346:0 347:0 348:0.0026809652 349:0 350:0 351:0 352:0.029490616 353:0 354:0 355:0 356:0 357:0.0053619305 358:0.0026809652 359:0.0026809652 360:0.064343162 361:0 362:0.0026809652 363:0 364:0.0053619305 365:0.0026809652 366:0.0026809652 367:0 368:0.0080428952 369:0 370:0.0026809652 371:0 372:0 373:0.0026809652 374:0 375:0 376:0.010723861 377:0 378:0 379:0.0053619305 380:0.0026809652 381:0.0026809652 382:0.0026809652 383:0.0026809652 384:0.032171581 385:0.0080428952 386:0 387:0.0026809652 388:0.0080428952 389:0.0080428952 390:0 391:0 392:0.045576409 393:0 394:0 395:0 396:0.0026809652 397:0 398:0 399:0.0026809652 400:0.099195711 401:0 402:0.0053619305 403:0.0080428952 404:0.0053619305 405:0 406:0.0080428952 407:0.0026809652 408:0.10723861 409:0.0080428952 410:0.0080428952 411:0.0026809652 412:0 413:0.0026809652 414:0.010723861 415:0.0053619305 416:0.0080428952 417:0.0026809652 418:0.0026809652 419:0.0026809652 420:0 421:0.0026809652 422:0 423:0.0026809652 424:0.0053619305 425:0 426:0.0026809652 427:0.0026809652 428:0.0026809652 429:0.0053619305 430:0.0053619305 431:0.0026809652 432:0.33063748 433:0.35173413 434:0.30000001 435:0.0048567709 
0 1 0 0:0.23269436 1:0.0031948881 2:0.0015974441 3:0.0021299254 4:0.0031948881 5:0.0037273695 6:0.0058572949 7:0.0010649627 8:0.17625134 9:0.0037273695 10:0.0058572949 11:0.0079872208 12:0.0031948881 13:0.0058572949 14:0.0021299254 15:0.0015974441 16:0.067625135 17:0.0026624068 18:0.0026624068 19:0.0021299254 20:0.0021299254 21:0.0010649627 22:0.0031948881 23:0.0026624068 24:0.095846646 25:0.0063897762 26:0.0069222576 27:0.0090521835 28:0.0053248135 29:0.0095846644 30:0.0069222576 31:0.0069222576 32:0.046325877 33:0.0095846644 34:0.01544196 35:0.012779552 36:0.01544196 37:0.02342918 38:0.025026623 39:0.02715655 40:0.0037273695 41:0.014376997 42:0.022896698 43:0.045260917 44:0.14217253 45:0.21246007 46:0.16080937 47:0.092119277 48:0.84504795 49:0 50:0.0015974441 51:0 52:0.0015974441 53:0 54:0.0015974441 55:0.0010649627 56:0.84185302 57:0.00053248135 58:0.00053248135 59:0 60:0.0015974441 61:0.0010649627 62:0.0010649627 63:0.0015974441 64:0.83333331 65:0.0015974441 66:0.0037273695 67:0.0047923322 68:0.0021299254 69:0.0010649627 70:0.0021299254 71:0.0010649627 72:0.772098 73:0.014376997 74:0.0063897762 75:0.012779552 76:0.0085197017 77:0.0085197017 78:0.0069222576 79:0.0079872208 80:0.70500535 81:0.021299254 82:0.022896698 83:0.026624069 84:0.018104367 85:0.016506921 86:0.014909478 87:0.015974442 88:0.75559103 89:0.083067089 90:0.054845579 91:0.02715655 92:0.013312034 93:0.01171459 94:0.0090521835 95:0.0069222576 96:0.95633656 97:0.0021299254 98:0.0015974441 99:0.0010649627 100:0.0010649627 101:0.00053248135 102:0.0015974441 103:0.0026624068 104:0.89989352 105:0.0058572949 106:0.0047923322 107:0.0047923322 108:0.0042598508 109:0.0037273695 110:0.0031948881 111:0.0015974441 112:0.96645367 113:0.0047923322 114:0.0031948881 115:0.0021299254 116:0.0015974441 117:0.0010649627 118:0.00053248135 119:0.0037273695 120:0.85729498 121:0.017571885 122:0.017571885 123:0.013312034 124:0.013844515 125:0.014909478 126:0.0069222576 127:0.010117146 128:0.9403621 129:0.015974442 130:0.01544196 131:0.012247072 132:0.0042598508 133:0.0042598508 134:0.0037273695 135:0.0026624068 136:1 137:0 138:0 139:0 140:0 141:0 142:0 143:0 144:0.67199147 145:0.0085197017 146:0.0085197017 147:0.0069222576 148:0.0090521835 149:0.0037273695 150:0.0058572949 151:0.007454739 152:0.56709266 153:0.010117146 154:0.013312034 155:0.012247072 156:0.0079872208 157:0.011182109 158:0.0069222576 159:0.0079872208 160:0.85676253 161:0.0063897762 162:0.0079872208 163:0.0063897762 164:0.0037273695 165:0.007454739 166:0.0053248135 167:0.0042598508 168:0.93982959 169:0.0058572949 170:0.0042598508 171:0.0026624068 172:0.0042598508 173:0.0047923322 174:0.0021299254 175:0.0015974441 176:0.6251331 177:0.052183174 178:0.034078807 179:0.038338657 180:0.039936103 181:0.02715655 182:0.026624069 183:0.019701811 184:1 185:0 186:0 187:0 188:0 189:0 190:0 191:0 192:0.3828541 193:0.0015974441 194:0.0026624068 195:0.0031948881 196:0.0037273695 197:0.0021299254 198:0.0037273695 199:0.0015974441 200:0.39030883 201:0.0042598508 202:0.0042598508 203:0.0037273695 204:0.0015974441 205:0.0021299254 206:0.0021299254 207:0.0026624068 208:0.37699682 209:0.0069222576 210:0.007454739 211:0.0069222576 212:0.0090521835 213:0.014376997 214:0.01171459 215:0.0079872208 216:0.35463259 217:0.01171459 218:0.0063897762 219:0.011182109 220:0.013844515 221:0.014376997 222:0.010649627 223:0.016506921 224:0.06496273 225:0.0095846644 226:0.0058572949 227:0.011182109 228:0.010649627 229:0.013844515 230:0.017571885 231:0.01544196 232:0.044195954 233:0.010117146 234:0.021299254 235:0.03514377 236:0.048988286 237:0.067625135 238:0.094249204 239:0.10702875 240:0.6464324 241:0.0010649627 242:0 243:0.0026624068 244:0.0021299254 245:0.0015974441 246:0.0015974441 247:0.0010649627 248:0.65069222 249:0.0021299254 250:0.0010649627 251:0.0021299254 252:0.0010649627 253:0.00053248135 254:0.0021299254 255:0.0010649627 256:0.66560173 257:0.0037273695 258:0.0047923322 259:0.0069222576 260:0.0090521835 261:0.0085197017 262:0.0053248135 263:0.0026624068 264:0.59424919 265:0.0090521835 266:0.0090521835 267:0.0095846644 268:0.0058572949 269:0.010117146 270:0.010117146 271:0.0063897762 272:0.24494143 273:0.012247072 274:0.017039403 275:0.012247072 276:0.010649627 277:0.012247072 278:0.0090521835 279:0.015974442 280:0.14430244 281:0.021299254 282:0.026624069 283:0.037273694 284:0.050585728 285:0.052183174 286:0.076677315 287:0.081469648 288:0.9195953 289:0 290:0 291:0.0015974441 292:0.0010649627 293:0.0010649627 294:0.0010649627 295:0.0010649627 296:0.89030886 297:0.00053248135 298:0 299:0.00053248135 300:0.0010649627 301:0.0010649627 302:0.0021299254 303:0.00053248135 304:0.92332268 305:0.0015974441 306:0.00053248135 307:0.0026624068 308:0.00053248135 309:0.0015974441 310:0.00053248135 311:0.0010649627 312:0.95899892 313:0.0026624068 314:0.0015974441 315:0 316:0.0010649627 317:0 318:0.00053248135 319:0.0021299254 320:0.76304579 321:0.015974442 322:0.012779552 323:0.017571885 324:0.019169329 325:0.014909478 326:0.019169329 327:0.017571885 328:1 329:0 330:0 331:0 332:0 333:0 334:0 335:0 336:0.29392973 337:0.0026624068 338:0.0021299254 339:0.0021299254 340:0.0042598508 341:0.0042598508 342:0.0021299254 343:0.0026624068 344:0.23109691 345:0.0037273695 346:0.0042598508 347:0.0042598508 348:0.0026624068 349:0.0037273695 350:0.0037273695 351:0.0042598508 352:0.16506922 353:0.0069222576 354:0.0069222576 355:0.0063897762 356:0.0053248135 357:0.0047923322 358:0.0069222576 359:0.0053248135 360:0.18051118 361:0.007454739 362:0.0079872208 363:0.010117146 364:0.0090521835 365:0.0085197017 366:0.010117146 367:0.013312034 368:0.05804047 369:0.0047923322 370:0.0026624068 371:0.0037273695 372:0.0063897762 373:0.0069222576 374:0.0047923322 375:0.00053248135 376:0.030351438 377:0.0079872208 378:0.013844515 379:0.025026623 380:0.045793395 381:0.076144837 382:0.11235357 383:0.099574015 384:0.15761448 385:0.00053248135 386:0.0015974441 387:0.00053248135 388:0.00053248135 389:0.0015974441 390:0 391:0.0015974441 392:0.1400426 393:0.0010649627 394:0 395:0.00053248135 396:0.0010649627 397:0.0037273695 398:0.0026624068 399:0.0015974441 400:0.12193823 401:0.0031948881 402:0.0021299254 403:0.0037273695 404:0.0026624068 405:0.0015974441 406:0.00053248135 407:0.0021299254 408:0.10543131 409:0.0026624068 410:0.0042598508 411:0.0069222576 412:0.0021299254 413:0.0026624068 414:0.0042598508 415:0.0042598508 416:0.031948883 417:0.0026624068 418:0.0026624068 419:0.0021299254 420:0.0015974441 421:0.0026624068 422:0.0021299254 423:0.0053248135 424:0.026091587 425:0.0042598508 426:0.0063897762 427:0.014909478 428:0.036741216 429:0.054845579 430:0.087859422 431:0.088391908 432:0.68382144 433:0.17970173 434:0.30000001 435:0.024453126 
0 0.4099114653483049 0 0:0.13240857 1:0 2:0.001261034 3:0.001261034 4:0 5:0 6:0.0050441362 7:0.0037831021 8:0.15384616 9:0.001261034 10:0.0025220681 11:0.0050441362 12:0 13:0.0063051702 14:0.0037831021 15:0.001261034 16:0.16645649 17:0.001261034 18:0.0037831021 19:0.0037831021 20:0.0037831021 21:0.0037831021 22:0.0050441362 23:0.0050441362 24:0.22068095 25:0.011349306 26:0.01261034 27:0.0075662043 28:0.010088272 29:0.0075662043 30:0.0063051702 31:0.0063051702 32:0.098360658 33:0.013871375 34:0.022698613 35:0.022698613 36:0.022698613 37:0.045397226 38:0.046658259 39:0.027742749 40:0.022698613 41:0.03152585 42:0.026481714 43:0.049180329 44:0.13240857 45:0.10970996 46:0.063051701 47:0.03404792 48:0.92812103 49:0.001261034 50:0.001261034 51:0 52:0 53:0 54:0.001261034 55:0.001261034 56:0.92055488 57:0.001261034 58:0.0025220681 59:0 60:0.0025220681 61:0.001261034 62:0.001261034 63:0.001261034 64:0.87641865 65:0.0037831021 66:0.0075662043 67:0.0025220681 68:0.001261034 69:0.0025220681 70:0.0037831021 71:0 72:0.84993696 73:0.001261034 74:0.0037831021 75:0.0025220681 76:0.0025220681 77:0.001261034 78:0 79:0.0025220681 80:0.8108449 81:0.0050441362 82:0.0075662043 83:0.0088272383 84:0.011349306 85:0.0037831021 86:0.0088272383 87:0.0050441362 88:0.80832285 89:0.029003782 90:0.029003782 91:0.020176545 92:0.020176545 93:0.01261034 94:0.01261034 95:0.011349306 96:0.98486757 97:0 98:0.001261034 99:0 100:0.0025220681 101:0 102:0.001261034 103:0.001261034 104:0.91551071 105:0.0037831021 106:0 107:0.0025220681 108:0.001261034 109:0.0025220681 110:0.001261034 111:0 112:0.99243379 113:0 114:0 115:0.001261034 116:0.001261034 117:0.001261034 118:0 119:0 120:0.86506933 121:0.01261034 122:0.01261034 123:0.0063051702 124:0.0037831021 125:0.013871375 126:0.0063051702 127:0.0088272383 128:0.92307693 129:0.023959646 130:0.0075662043 131:0.0088272383 132:0.0063051702 133:0.0088272383 134:0.0050441362 135:0.0050441362 136:1 137:0 138:0 139:0 140:0 141:0 142:0 143:0 144:0.89155108 145:0.001261034 146:0 147:0 148:0 149:0.001261034 150:0.001261034 151:0 152:0.76544768 153:0.0037831021 154:0.0063051702 155:0.0037831021 156:0.0037831021 157:0.0037831021 158:0.0025220681 159:0.0063051702 160:0.9079445 161:0.0025220681 162:0 163:0 164:0.0050441362 165:0.001261034 166:0 167:0 168:0.86002523 169:0.0037831021 170:0.0025220681 171:0.0050441362 172:0.0037831021 173:0.0063051702 174:0.001261034 175:0.0063051702 176:0.61412358 177:0.041614123 178:0.026481714 179:0.023959646 180:0.013871375 181:0.01891551 182:0.013871375 183:0.0088272383 184:0.99873894 185:0 186:0.001261034 187:0 188:0 189:0 190:0 191:0 192:0.10466582 193:0.0037831021 194:0.0025220681 195:0.0025220681 196:0.0075662043 197:0 198:0.0025220681 199:0.001261034 200:0.070617907 201:0.0037831021 202:0.001261034 203:0.0063051702 204:0.001261034 205:0.0037831021 206:0.0063051702 207:0.0025220681 208:0.14627995 209:0.0050441362 210:0.0025220681 211:0.0025220681 212:0.0037831021 213:0.0088272383 214:0.001261034 215:0.0075662043 216:0.2257251 217:0.011349306 218:0.0050441362 219:0.0037831021 220:0.015132409 221:0.0037831021 222:0.0037831021 223:0.0050441362 224:0.055485498 225:0.001261034 226:0.0088272383 227:0.016393442 228:0.016393442 229:0.017654477 230:0.0075662043 231:0.010088272 232:0.03152585 233:0.0075662043 234:0.010088272 235:0.025220681 236:0.039092056 237:0.079445146 238:0.073139973 239:0.063051701 240:0.64060527 241:0 242:0 243:0.001261034 244:0 245:0 246:0.0025220681 247:0 248:0.58007568 249:0.0025220681 250:0 251:0 252:0.0025220681 253:0 254:0.001261034 255:0.0025220681 256:0.51576293 257:0 258:0.001261034 259:0.001261034 260:0.0025220681 261:0.0025220681 262:0.0025220681 263:0.0050441362 264:0.52459013 265:0.0050441362 266:0.0075662043 267:0.001261034 268:0.0037831021 269:0.0050441362 270:0.0025220681 271:0.0037831021 272:0.31021437 273:0.015132409 274:0.015132409 275:0.0050441362 276:0.01261034 277:0.011349306 278:0.0088272383 279:0.013871375 280:0.15510719 281:0.020176545 282:0.026481714 283:0.046658259 284:0.035308953 285:0.045397226 286:0.068095841 287:0.03783102 288:0.9709962 289:0 290:0.001261034 291:0 292:0 293:0.001261034 294:0 295:0 296:0.95586383 297:0 298:0.0025220681 299:0.001261034 300:0.0025220681 301:0 302:0.0025220681 303:0.0025220681 304:0.96342999 305:0 306:0.001261034 307:0.0025220681 308:0 309:0.001261034 310:0.0025220681 311:0.0063051702 312:0.95586383 313:0.001261034 314:0 315:0.0025220681 316:0 317:0 318:0.0025220681 319:0 320:0.9066835 321:0.0025220681 322:0.0025220681 323:0.001261034 324:0.0050441362 325:0.0025220681 326:0.0025220681 327:0.001261034 328:1 329:0 330:0 331:0 332:0 333:0 334:0 335:0 336:0.6847415 337:0.0025220681 338:0.0025220681 339:0 340:0.0037831021 341:0.0025220681 342:0.0063051702 343:0 344:0.61286253 345:0.0025220681 346:0.0025220681 347:0.0025220681 348:0.001261034 349:0 350:0 351:0.001261034 352:0.54981083 353:0.001261034 354:0.0025220681 355:0.001261034 356:0.0050441362 357:0.0037831021 358:0.0050441362 359:0.0025220681 360:0.57629257 361:0.0025220681 362:0.0037831021 363:0.0037831021 364:0 365:0.0063051702 366:0.001261034 367:0.0037831021 368:0.21437579 369:0.013871375 370:0.015132409 371:0.0063051702 372:0.0075662043 373:0.010088272 374:0.013871375 375:0.022698613 376:0.12358133 377:0.022698613 378:0.032786883 379:0.03783102 380:0.046658259 381:0.03783102 382:0.054224465 383:0.065573767 384:0.0037831021 385:0 386:0.001261034 387:0 388:0 389:0.0025220681 390:0.0025220681 391:0.001261034 392:0.032786883 393:0 394:0.001261034 395:0.001261034 396:0.001261034 397:0.001261034 398:0 399:0.0025220681 400:0.13493064 401:0.001261034 402:0.001261034 403:0.001261034 404:0.001261034 405:0.001261034 406:0.0025220681 407:0 408:0.18537201 409:0.0037831021 410:0.0050441362 411:0.0050441362 412:0.0037831021 413:0.0050441362 414:0.001261034 415:0 416:0.054224465 417:0.0037831021 418:0.0050441362 419:0.0050441362 420:0.0075662043 421:0.0037831021 422:0.0050441362 423:0.0037831021 424:0.035308953 425:0.0075662043 426:0.017654477 427:0.020176545 428:0.022698613 429:0.03152585 430:0.063051701 431:0.080706179 432:0.7652095 433:0.47136682 434:0.60000002 435:0.010325521 
-0 0.1550010369671841 0 0:0 1:0 2:0 3:0 4:0 5:0 6:0 7:0 8:0 9:0 10:0 11:0 12:0 13:0 14:0 15:0 16:0 17:0 18:0 19:0 20:0 21:0 22:0 23:0 24:0 25:0 26:0 27:0 28:0 29:0 30:0 31:0 32:0 33:0 34:0 35:0 36:0 37:0 38:0 39:0 40:0 41:0 42:0 43:0 44:0 45:0 46:0 47:0 48:0.24637681 49:0 50:0.001610306 51:0 52:0 53:0.001610306 54:0.003220612 55:0.001610306 56:0.28180355 57:0 58:0.001610306 59:0.003220612 60:0 61:0 62:0 63:0 64:0.31400967 65:0 66:0.001610306 67:0 68:0 69:0 70:0.001610306 71:0 72:0.2962963 73:0.001610306 74:0 75:0 76:0.003220612 77:0 78:0.001610306 79:0.001610306 80:0.25120774 81:0.0080515295 82:0.0096618356 83:0.0048309178 84:0.0064412239 85:0.0064412239 86:0.0096618356 87:0.012882448 88:0.41706926 89:0.032206118 90:0.049919486 91:0.045088567 92:0.032206118 93:0.022544283 94:0.041867957 95:0.025764896 96:0.85668278 97:0.0064412239 98:0.003220612 99:0.001610306 100:0.0080515295 101:0.0064412239 102:0.0048309178 103:0.003220612 104:0.64251208 105:0.003220612 106:0 107:0.001610306 108:0.001610306 109:0.0048309178 110:0.001610306 111:0.0048309178 112:0.98228663 113:0.001610306 114:0 115:0 116:0.001610306 117:0 118:0 119:0 120:0.91143316 121:0.0064412239 122:0.0080515295 123:0.0096618356 124:0.014492754 125:0.0048309178 126:0.003220612 127:0.001610306 128:0.8888889 129:0.022544283 130:0.024154589 131:0.017713366 132:0.012882448 133:0.011272142 134:0.0064412239 135:0.0048309178 136:1 137:0 138:0 139:0 140:0 141:0 142:0 143:0 144:0.35909823 145:0 146:0.0064412239 147:0.0064412239 148:0.0080515295 149:0.0064412239 150:0.0064412239 151:0.0096618356 152:0.14331724 153:0.0064412239 154:0.003220612 155:0.0080515295 156:0.0080515295 157:0.003220612 158:0.0048309178 159:0.003220612 160:0.82608694 161:0.0080515295 162:0.0048309178 163:0.001610306 164:0 165:0.0096618356 166:0.001610306 167:0 168:0.95330113 169:0.001610306 170:0.001610306 171:0 172:0.001610306 173:0 174:0.001610306 175:0 176:0.24315619 177:0.040257648 178:0.053140096 179:0.049919486 180:0.069243155 181:0.070853464 182:0.088566825 183:0.049919486 184:1 185:0 186:0 187:0 188:0 189:0 190:0 191:0 192:0.017713366 193:0 194:0 195:0 196:0 197:0 198:0 199:0 200:0.017713366 201:0.001610306 202:0 203:0.001610306 204:0 205:0 206:0 207:0 208:0.038647342 209:0 210:0 211:0 212:0.001610306 213:0 214:0 215:0 216:0.046698872 217:0 218:0 219:0 220:0 221:0.001610306 222:0 223:0.001610306 224:0 225:0 226:0 227:0 228:0 229:0 230:0.001610306 231:0 232:0 233:0 234:0 235:0 236:0 237:0.001610306 238:0 239:0 240:0 241:0 242:0 243:0 244:0 245:0 246:0 247:0 248:0 249:0 250:0 251:0 252:0 253:0 254:0 255:0 256:0.10628019 257:0 258:0 259:0.001610306 260:0.001610306 261:0 262:0.001610306 263:0.001610306 264:0.13204509 265:0 266:0.0048309178 267:0 268:0.003220612 269:0 270:0 271:0 272:0.064412236 273:0 274:0 275:0 276:0 277:0 278:0 279:0 280:0.020933978 281:0.0048309178 282:0.0064412239 283:0.012882448 284:0.0080515295 285:0.001610306 286:0.0064412239 287:0.001610306 288:0.18518518 289:0 290:0.003220612 291:0 292:0.001610306 293:0 294:0.001610306 295:0.0048309178 296:0.23993559 297:0.001610306 298:0.001610306 299:0.001610306 300:0 301:0 302:0 303:0 304:0.33655393 305:0.001610306 306:0 307:0 308:0 309:0 310:0.001610306 311:0.001610306 312:0.37520128 313:0 314:0.001610306 315:0.001610306 316:0.003220612 317:0 318:0 319:0 320:0.21256039 321:0.0064412239 322:0.003220612 323:0.001610306 324:0.0096618356 325:0.001610306 326:0.0080515295 327:0.0080515295 328:1 329:0 330:0 331:0 332:0 333:0 334:0 335:0 336:0 337:0 338:0 339:0 340:0 341:0 342:0 343:0 344:0 345:0 346:0 347:0 348:0 349:0 350:0 351:0 352:0 353:0 354:0 355:0 356:0 357:0 358:0 359:0 360:0 361:0 362:0 363:0 364:0 365:0 366:0 367:0 368:0 369:0 370:0 371:0 372:0 373:0 374:0 375:0 376:0 377:0 378:0 379:0 380:0 381:0 382:0 383:0 384:0 385:0 386:0 387:0 388:0 389:0 390:0 391:0 392:0 393:0 394:0 395:0 396:0 397:0 398:0 399:0 400:0 401:0 402:0 403:0 404:0 405:0 406:0 407:0 408:0.001610306 409:0 410:0 411:0 412:0 413:0 414:0 415:0 416:0 417:0 418:0 419:0 420:0 421:0 422:0 423:0 424:0 425:0 426:0 427:0 428:0 429:0 430:0 431:0 432:0.865951 433:0.47886664 434:0.30000001 435:0.0080859372 
-0 0.3529049874665074 0.9869064610463533 0:0 1:0 2:0 3:0 4:0 5:0 6:0 7:0 8:0 9:0 10:0 11:0 12:0 13:0 14:0 15:0 16:0 17:0 18:0 19:0 20:0 21:0 22:0 23:0 24:0 25:0 26:0 27:0 28:0 29:0 30:0 31:0 32:0 33:0 34:0 35:0 36:0 37:0 38:0 39:0 40:0 41:0 42:0 43:0 44:0 45:0 46:0 47:0 48:0.31204644 49:0 50:0.0029027576 51:0 52:0.0043541365 53:0.0014513788 54:0 55:0 56:0.33962265 57:0 58:0.0014513788 59:0.0014513788 60:0 61:0 62:0.0014513788 63:0.0014513788 64:0.35703918 65:0.0043541365 66:0.0029027576 67:0.0014513788 68:0.0058055152 69:0.0043541365 70:0.0014513788 71:0.0029027576 72:0.32656023 73:0.0014513788 74:0.0058055152 75:0 76:0.0072568939 77:0.0014513788 78:0 79:0.0058055152 80:0.30478954 81:0.013062409 82:0.014513788 83:0.0072568939 84:0.01161103 85:0.0043541365 86:0.020319303 87:0.01161103 88:0.45718431 89:0.047895502 90:0.029027576 91:0.049346879 92:0.056603774 93:0.047895502 94:0.030478954 95:0.034833092 96:0.85341072 97:0.0014513788 98:0.0014513788 99:0.0087082731 100:0.0014513788 101:0.0043541365 102:0.0029027576 103:0.0014513788 104:0.64005804 105:0.0043541365 106:0.0058055152 107:0.0014513788 108:0.0043541365 109:0.0029027576 110:0.0029027576 111:0.0043541365 112:0.99854863 113:0.0014513788 114:0 115:0 116:0 117:0 118:0 119:0 120:0.89695209 121:0.0058055152 122:0.01161103 123:0.0058055152 124:0.0043541365 125:0.0087082731 126:0.0087082731 127:0.01161103 128:0.9245283 129:0.017416546 130:0.018867925 131:0.010159652 132:0.014513788 133:0.0072568939 134:0.0029027576 135:0.0014513788 136:1 137:0 138:0 139:0 140:0 141:0 142:0 143:0 144:0.26269957 145:0.0058055152 146:0.0029027576 147:0.0043541365 148:0.0029027576 149:0.0029027576 150:0.0029027576 151:0.0029027576 152:0.026124818 153:0.0014513788 154:0 155:0.0029027576 156:0.0029027576 157:0.0029027576 158:0 159:0.0029027576 160:0.63715529 161:0.0014513788 162:0.0058055152 163:0.0043541365 164:0 165:0.0072568939 166:0.0072568939 167:0.0072568939 168:0.86066765 169:0.0029027576 170:0 171:0.0029027576 172:0.0029027576 173:0.0043541365 174:0.0043541365 175:0.0087082731 176:0.17271408 177:0.021770682 178:0.034833092 179:0.042089984 180:0.029027576 181:0.047895502 182:0.046444122 183:0.068214804 184:1 185:0 186:0 187:0 188:0 189:0 190:0 191:0 192:0 193:0 194:0 195:0 196:0 197:0 198:0 199:0 200:0 201:0 202:0 203:0 204:0 205:0 206:0 207:0 208:0 209:0 210:0 211:0 212:0 213:0 214:0 215:0 216:0.0087082731 217:0 218:0.0014513788 219:0 220:0 221:0 222:0.0014513788 223:0 224:0 225:0 226:0 227:0 228:0 229:0 230:0 231:0 232:0 233:0 234:0 235:0 236:0 237:0 238:0 239:0 240:0.0087082731 241:0 242:0 243:0 244:0 245:0 246:0 247:0 248:0.0058055152 249:0 250:0 251:0 252:0 253:0 254:0 255:0 256:0.026124818 257:0.0014513788 258:0 259:0 260:0.0014513788 261:0 262:0 263:0 264:0.034833092 265:0.0014513788 266:0.0014513788 267:0.0014513788 268:0 269:0 270:0 271:0 272:0.0014513788 273:0 274:0 275:0 276:0 277:0 278:0 279:0 280:0 281:0 282:0 283:0 284:0 285:0 286:0 287:0 288:0.21190131 289:0 290:0.0014513788 291:0.0014513788 292:0.0014513788 293:0 294:0.0014513788 295:0.0014513788 296:0.22931786 297:0 298:0 299:0.0014513788 300:0 301:0 302:0 303:0.0014513788 304:0.36865023 305:0.0043541365 306:0.0029027576 307:0.0029027576 308:0.0029027576 309:0 310:0.0014513788 311:0.0014513788 312:0.42525399 313:0.0043541365 314:0 315:0.0043541365 316:0.0058055152 317:0.0014513788 318:0.0029027576 319:0 320:0.19738752 321:0.0043541365 322:0.0014513788 323:0.0087082731 324:0.0072568939 325:0.0014513788 326:0.0014513788 327:0.0043541365 328:1 329:0 330:0 331:0 332:0 333:0 334:0 335:0 336:0 337:0 338:0 339:0 340:0 341:0 342:0 343:0 344:0 345:0 346:0 347:0 348:0 349:0 350:0 351:0 352:0.0072568939 353:0 354:0 355:0 356:0 357:0 358:0 359:0 360:0.014513788 361:0 362:0 363:0 364:0 365:0 366:0 367:0 368:0 369:0 370:0 371:0 372:0 373:0 374:0 375:0 376:0 377:0 378:0 379:0 380:0 381:0 382:0 383:0 384:0 385:0 386:0 387:0 388:0 389:0 390:0 391:0 392:0 393:0 394:0 395:0 396:0 397:0 398:0 399:0 400:0 401:0 402:0 403:0 404:0 405:0 406:0 407:0 408:0 409:0.0014513788 410:0 411:0 412:0 413:0 414:0 415:0 416:0 417:0 418:0 419:0 420:0 421:0 422:0 423:0 424:0 425:0 426:0 427:0 428:0 429:0 430:0 431:0 432:0.59303337 433:0.35065389 434:0.30000001 435:0.008971354 
-0.5453256375718878 0 0 0:0 1:0 2:0 3:0 4:0 5:0 6:0 7:0 8:0 9:0 10:0 11:0 12:0 13:0 14:0 15:0 16:0 17:0 18:0 19:0 20:0 21:0 22:0 23:0 24:0 25:0 26:0 27:0 28:0 29:0 30:0 31:0 32:0 33:0 34:0 35:0 36:0 37:0 38:0 39:0 40:0 41:0 42:0 43:0 44:0 45:0 46:0 47:0 48:0.25904763 49:0.0019047619 50:0 51:0 52:0 53:0.0038095238 54:0.0019047619 55:0.0038095238 56:0.29523811 57:0.0019047619 58:0.0019047619 59:0.0019047619 60:0 61:0 62:0.0019047619 63:0.0019047619 64:0.35809523 65:0.0038095238 66:0 67:0 68:0 69:0.0019047619 70:0 71:0.0019047619 72:0.37333333 73:0.0038095238 74:0.0038095238 75:0.0019047619 76:0.0038095238 77:0.0019047619 78:0 79:0.0038095238 80:0.36952382 81:0.013333334 82:0.015238095 83:0.0076190475 84:0.015238095 85:0.01904762 86:0.017142856 87:0.0076190475 88:0.39238095 89:0.043809526 90:0.036190476 91:0.051428571 92:0.051428571 93:0.055238094 94:0.047619049 95:0.032380953 96:0.7638095 97:0 98:0.0038095238 99:0.0019047619 100:0.0038095238 101:0.0038095238 102:0.0019047619 103:0.0019047619 104:0.5447619 105:0.0076190475 106:0.0038095238 107:0.0038095238 108:0.0038095238 109:0.0038095238 110:0.0019047619 111:0.0019047619 112:0.92000002 113:0.0019047619 114:0.0019047619 115:0.0019047619 116:0 117:0.0038095238 118:0 119:0.0019047619 120:0.7904762 121:0.0095238099 122:0.0057142857 123:0.0057142857 124:0.0076190475 125:0.0038095238 126:0.0095238099 127:0.0095238099 128:0.91238093 129:0.01904762 130:0.017142856 131:0.0038095238 132:0.0038095238 133:0.0095238099 134:0.0057142857 135:0.0057142857 136:1 137:0 138:0 139:0 140:0 141:0 142:0 143:0 144:0.23999999 145:0 146:0.0019047619 147:0.0019047619 148:0.0057142857 149:0.0038095238 150:0.0057142857 151:0.0057142857 152:0.1752381 153:0 154:0.0019047619 155:0.0019047619 156:0.0038095238 157:0.0019047619 158:0.0057142857 159:0.0019047619 160:0.40571427 161:0.0019047619 162:0.0057142857 163:0 164:0.0038095238 165:0.0019047619 166:0.0076190475 167:0.0057142857 168:0.71428573 169:0.0038095238 170:0.0019047619 171:0.0019047619 172:0 173:0.0038095238 174:0.0038095238 175:0.0019047619 176:0.20571429 177:0.020952381 178:0.036190476 179:0.017142856 180:0.022857143 181:0.022857143 182:0.036190476 183:0.01904762 184:1 185:0 186:0 187:0 188:0 189:0 190:0 191:0 192:0.011428571 193:0 194:0 195:0.0019047619 196:0 197:0 198:0 199:0 200:0.013333334 201:0 202:0 203:0 204:0 205:0.0019047619 206:0 207:0 208:0.03809524 209:0 210:0 211:0 212:0 213:0 214:0 215:0 216:0.03809524 217:0 218:0 219:0.0019047619 220:0 221:0.0019047619 222:0.0019047619 223:0 224:0.0019047619 225:0.0019047619 226:0 227:0 228:0 229:0 230:0.0019047619 231:0 232:0 233:0 234:0 235:0 236:0 237:0 238:0 239:0 240:0.013333334 241:0 242:0 243:0 244:0 245:0 246:0 247:0 248:0.0095238099 249:0 250:0 251:0 252:0 253:0 254:0 255:0 256:0.047619049 257:0.0019047619 258:0 259:0 260:0 261:0 262:0 263:0.0019047619 264:0.059047621 265:0 266:0 267:0 268:0.0019047619 269:0 270:0 271:0 272:0.0019047619 273:0.0019047619 274:0.0019047619 275:0 276:0.0019047619 277:0.0019047619 278:0 279:0 280:0 281:0 282:0 283:0 284:0 285:0 286:0 287:0 288:0.11428571 289:0.0019047619 290:0.0019047619 291:0 292:0.0019047619 293:0 294:0 295:0 296:0.16190477 297:0.0038095238 298:0 299:0 300:0 301:0 302:0 303:0 304:0.34285715 305:0 306:0.0019047619 307:0 308:0 309:0.0038095238 310:0 311:0 312:0.43809524 313:0.0019047619 314:0 315:0 316:0.0019047619 317:0.0019047619 318:0 319:0 320:0.23047619 321:0.011428571 322:0.0095238099 323:0.0057142857 324:0.0038095238 325:0.0095238099 326:0.0057142857 327:0.0057142857 328:1 329:0 330:0 331:0 332:0 333:0 334:0 335:0 336:0 337:0 338:0 339:0 340:0 341:0 342:0 343:0 344:0 345:0 346:0 347:0 348:0 349:0 350:0 351:0 352:0.017142856 353:0 354:0 355:0 356:0.0019047619 357:0 358:0 359:0 360:0.039999999 361:0.0019047619 362:0.0019047619 363:0 364:0.0019047619 365:0 366:0 367:0 368:0.0038095238 369:0 370:0 371:0 372:0 373:0 374:0.0019047619 375:0 376:0 377:0 378:0 379:0 380:0 381:0.0019047619 382:0.0019047619 383:0 384:0.015238095 385:0.0019047619 386:0 387:0 388:0 389:0 390:0 391:0 392:0.013333334 393:0 394:0 395:0 396:0 397:0.0019047619 398:0 399:0 400:0.015238095 401:0 402:0 403:0.0019047619 404:0 405:0 406:0 407:0.0019047619 408:0.015238095 409:0 410:0 411:0.0019047619 412:0 413:0.0019047619 414:0.0038095238 415:0 416:0 417:0 418:0 419:0 420:0 421:0 422:0 423:0 424:0 425:0 426:0 427:0 428:0 429:0 430:0 431:0 432:0.78741801 433:0.39079139 434:0.30000001 435:0.0068359375 
-0.5180320904002251 0.08491940076756757 0 0:0 1:0 2:0 3:0 4:0 5:0 6:0 7:0 8:0 9:0 10:0 11:0 12:0 13:0 14:0 15:0 16:0 17:0 18:0 19:0 20:0 21:0 22:0 23:0 24:0 25:0 26:0 27:0 28:0 29:0 30:0 31:0.0015479876 32:0.012383901 33:0 34:0.0015479876 35:0.0030959751 36:0.0030959751 37:0.0015479876 38:0.0015479876 39:0 40:0 41:0 42:0 43:0 44:0.0092879254 45:0.0046439627 46:0.0015479876 47:0.0092879254 48:0.28018576 49:0 50:0.0015479876 51:0 52:0.0030959751 53:0.0030959751 54:0 55:0 56:0.29102167 57:0 58:0 59:0.0015479876 60:0 61:0.0015479876 62:0.0046439627 63:0.0015479876 64:0.26934984 65:0.0015479876 66:0 67:0.0015479876 68:0.0030959751 69:0.0015479876 70:0.0046439627 71:0 72:0.22910216 73:0.0030959751 74:0.0030959751 75:0.0015479876 76:0.0015479876 77:0.0061919503 78:0.0061919503 79:0.0061919503 80:0.32198143 81:0.0030959751 82:0.012383901 83:0.0092879254 84:0.021671826 85:0.021671826 86:0.0077399379 87:0.0092879254 88:0.43498453 89:0.057275541 90:0.041795667 91:0.043343652 92:0.063467495 93:0.049535602 94:0.049535602 95:0.043343652 96:0.81733745 97:0.0030959751 98:0.0092879254 99:0.0061919503 100:0.0046439627 101:0.0077399379 102:0.012383901 103:0.0077399379 104:0.6006192 105:0.0030959751 106:0.0061919503 107:0.0061919503 108:0.010835913 109:0.0061919503 110:0 111:0.0061919503 112:1 113:0 114:0 115:0 116:0 117:0 118:0 119:0 120:0.78947371 121:0.015479876 122:0.012383901 123:0.013931888 124:0.020123839 125:0.015479876 126:0.012383901 127:0.023219815 128:0.85603714 129:0.044891641 130:0.046439629 131:0.024767801 132:0.0046439627 133:0.0015479876 134:0.0046439627 135:0.0046439627 136:1 137:0 138:0 139:0 140:0 141:0 142:0 143:0 144:0.31733745 145:0.0030959751 146:0.0030959751 147:0.0061919503 148:0.0077399379 149:0.0077399379 150:0.0092879254 151:0.0092879254 152:0.17956656 153:0.0030959751 154:0.0015479876 155:0.0030959751 156:0.0015479876 157:0.0015479876 158:0 159:0.0015479876 160:0.81424147 161:0.0030959751 162:0 163:0.0030959751 164:0 165:0.0015479876 166:0 167:0.0015479876 168:0.91021669 169:0.0015479876 170:0 171:0 172:0.0015479876 173:0.0015479876 174:0 175:0.0030959751 176:0.20278637 177:0.03869969 178:0.072755419 179:0.11145511 180:0.091331266 181:0.061919503 182:0.044891641 183:0.034055728 184:1 185:0 186:0 187:0 188:0 189:0 190:0 191:0 192:0 193:0 194:0 195:0 196:0 197:0 198:0 199:0 200:0 201:0 202:0 203:0 204:0 205:0 206:0 207:0 208:0.043343652 209:0 210:0 211:0 212:0 213:0 214:0 215:0 216:0.044891641 217:0 218:0 219:0 220:0 221:0.0015479876 222:0 223:0 224:0.030959751 225:0.0015479876 226:0 227:0 228:0.0015479876 229:0 230:0.0015479876 231:0.0015479876 232:0.02631579 233:0.0015479876 234:0 235:0.0015479876 236:0.0015479876 237:0.0015479876 238:0.0030959751 239:0.0015479876 240:0.072755419 241:0 242:0 243:0 244:0 245:0.0015479876 246:0 247:0 248:0.088235296 249:0 250:0 251:0.0015479876 252:0.0015479876 253:0 254:0.0015479876 255:0 256:0.10526316 257:0 258:0.0015479876 259:0.0015479876 260:0.0015479876 261:0.0015479876 262:0 263:0 264:0.086687304 265:0 266:0.0015479876 267:0 268:0.0015479876 269:0.0030959751 270:0 271:0 272:0.043343652 273:0 274:0 275:0 276:0.0015479876 277:0 278:0 279:0 280:0.03250774 281:0.0015479876 282:0.0030959751 283:0.0030959751 284:0.0015479876 285:0 286:0 287:0 288:0.27399382 289:0.0015479876 290:0.0015479876 291:0 292:0.0015479876 293:0 294:0 295:0 296:0.26006192 297:0.0015479876 298:0 299:0 300:0.0015479876 301:0 302:0.0077399379 303:0.0015479876 304:0.30340558 305:0 306:0 307:0 308:0 309:0.0015479876 310:0.0015479876 311:0 312:0.29721361 313:0.0046439627 314:0.0015479876 315:0.0061919503 316:0.0030959751 317:0.0015479876 318:0.0092879254 319:0.0061919503 320:0.25386998 321:0.0030959751 322:0.010835913 323:0.0061919503 324:0.0061919503 325:0.0077399379 326:0.0077399379 327:0.0046439627 328:1 329:0 330:0 331:0 332:0 333:0 334:0 335:0 336:0 337:0 338:0 339:0 340:0 341:0 342:0 343:0 344:0.0046439627 345:0 346:0.0015479876 347:0.0015479876 348:0.0030959751 349:0 350:0 351:0 352:0.021671826 353:0 354:0 355:0 356:0.0015479876 357:0.0015479876 358:0 359:0 360:0.013931888 361:0 362:0 363:0 364:0 365:0 366:0.0030959751 367:0 368:0 369:0 370:0 371:0 372:0 373:0 374:0 375:0 376:0 377:0 378:0 379:0 380:0 381:0 382:0 383:0 384:0 385:0 386:0 387:0 388:0 389:0 390:0 391:0 392:0 393:0 394:0 395:0 396:0 397:0 398:0 399:0 400:0.0046439627 401:0 402:0 403:0 404:0 405:0 406:0 407:0 408:0.0061919503 409:0 410:0 411:0 412:0 413:0 414:0 415:0 416:0 417:0 418:0 419:0 420:0 421:0 422:0 423:0 424:0 425:0 426:0 427:0 428:0 429:0 430:0 431:0 432:0.17760578 433:0.49929833 434:0.30000001 435:0.0084114587 
-1 -0 0 0:0.04338843 1:0.0041322312 2:0.0020661156 3:0 4:0 5:0 6:0.0020661156 7:0.0020661156 8:0.030991735 9:0.0020661156 10:0 11:0 12:0 13:0 14:0 15:0 16:0 17:0 18:0 19:0 20:0 21:0 22:0 23:0 24:0 25:0 26:0 27:0 28:0.0020661156 29:0.0020661156 30:0 31:0 32:0 33:0 34:0 35:0 36:0 37:0 38:0 39:0.0041322312 40:0 41:0 42:0 43:0 44:0 45:0 46:0.0041322312 47:0.0061983471 48:0.88636363 49:0.0041322312 50:0.0020661156 51:0.0020661156 52:0 53:0 54:0 55:0.0020661156 56:0.85123968 57:0 58:0 59:0 60:0.0041322312 61:0.0020661156 62:0.0041322312 63:0.0041322312 64:0.83471072 65:0.0041322312 66:0.0041322312 67:0.0020661156 68:0.0020661156 69:0.0041322312 70:0 71:0 72:0.82024795 73:0.0061983471 74:0 75:0.0061983471 76:0.0082644625 77:0.0020661156 78:0.0061983471 79:0 80:0.79958677 81:0.045454547 82:0.0061983471 83:0.0082644625 84:0.0082644625 85:0 86:0.0020661156 87:0.0061983471 88:0.88223141 89:0.020661157 90:0.024793388 91:0.016528925 92:0.0061983471 93:0.0082644625 94:0.0041322312 95:0 96:1 97:0 98:0 99:0 100:0 101:0 102:0 103:0 104:0.99173552 105:0.0041322312 106:0.0020661156 107:0 108:0.0020661156 109:0 110:0 111:0 112:1 113:0 114:0 115:0 116:0 117:0 118:0 119:0 120:0.98553717 121:0.0041322312 122:0.0041322312 123:0.0020661156 124:0.0020661156 125:0.0020661156 126:0 127:0 128:1 129:0 130:0 131:0 132:0 133:0 134:0 135:0 136:1 137:0 138:0 139:0 140:0 141:0 142:0 143:0 144:0.69421488 145:0.0041322312 146:0.0082644625 147:0.0061983471 148:0.0061983471 149:0.0020661156 150:0.0061983471 151:0.0041322312 152:0.56198347 153:0.0082644625 154:0.0020661156 155:0.010330578 156:0.0041322312 157:0.0061983471 158:0.0082644625 159:0.0041322312 160:0.88223141 161:0.0041322312 162:0.0020661156 163:0.0082644625 164:0.0020661156 165:0.0041322312 166:0.0020661156 167:0.0041322312 168:0.94628102 169:0 170:0 171:0.0020661156 172:0 173:0.0020661156 174:0 175:0.0041322312 176:0.40289256 177:0.084710747 178:0.15909091 179:0.07644628 180:0.0785124 181:0.080578513 182:0.012396694 183:0.016528925 184:1 185:0 186:0 187:0 188:0 189:0 190:0 191:0 192:0.084710747 193:0 194:0 195:0.0020661156 196:0 197:0 198:0.0020661156 199:0.0041322312 200:0.0661157 201:0.0020661156 202:0.0020661156 203:0 204:0.0020661156 205:0 206:0 207:0.0020661156 208:0.07644628 209:0 210:0 211:0.0041322312 212:0.0020661156 213:0.0041322312 214:0 215:0 216:0.09504132 217:0.0041322312 218:0.0020661156 219:0.0041322312 220:0 221:0.0061983471 222:0.0041322312 223:0.0020661156 224:0 225:0 226:0 227:0 228:0 229:0 230:0 231:0 232:0 233:0 234:0 235:0 236:0 237:0 238:0 239:0.0020661156 240:0.63429755 241:0 242:0 243:0 244:0.0061983471 245:0.0061983471 246:0.0020661156 247:0.0041322312 248:0.48347107 249:0 250:0.010330578 251:0.0041322312 252:0.0061983471 253:0.0061983471 254:0.0061983471 255:0.0061983471 256:0.43181819 257:0.01446281 258:0.012396694 259:0.0041322312 260:0.018595042 261:0.0020661156 262:0.010330578 263:0.016528925 264:0.4070248 265:0.0041322312 266:0.0020661156 267:0.0082644625 268:0.0061983471 269:0 270:0.0082644625 271:0.0082644625 272:0.010330578 273:0.010330578 274:0 275:0.0061983471 276:0.0041322312 277:0.0061983471 278:0.01446281 279:0.0020661156 280:0 281:0.0020661156 282:0.0082644625 283:0.0061983471 284:0.0082644625 285:0.0061983471 286:0.016528925 287:0.010330578 288:1 289:0 290:0 291:0 292:0 293:0 294:0 295:0 296:0.99793386 297:0.0020661156 298:0 299:0 300:0 301:0 302:0 303:0 304:0.99793386 305:0 306:0 307:0 308:0 309:0 310:0 311:0.0020661156 312:1 313:0 314:0 315:0 316:0 317:0 318:0 319:0 320:0.72933882 321:0.026859503 322:0.04338843 323:0.080578513 324:0.070247933 325:0.01446281 326:0.0082644625 327:0.0082644625 328:1 329:0 330:0 331:0 332:0 333:0 334:0 335:0 336:0.39462811 337:0.0020661156 338:0.0061983471 339:0.0020661156 340:0.0041322312 341:0.0041322312 342:0 343:0.0041322312 344:0.24793388 345:0.0061983471 346:0.0020661156 347:0 348:0.0020661156 349:0.0041322312 350:0.0041322312 351:0 352:0.090909094 353:0.0082644625 354:0.0020661156 355:0.0082644625 356:0.0041322312 357:0.0041322312 358:0.0020661156 359:0.0041322312 360:0.20454545 361:0.022727273 362:0.0082644625 363:0.01446281 364:0.0020661156 365:0.016528925 366:0.010330578 367:0.0082644625 368:0.0020661156 369:0.0020661156 370:0.0020661156 371:0 372:0.0020661156 373:0.0020661156 374:0.0061983471 375:0.0041322312 376:0 377:0.0041322312 378:0.0061983471 379:0.010330578 380:0.012396694 381:0.0061983471 382:0.0082644625 383:0.012396694 384:0.055785123 385:0 386:0 387:0 388:0 389:0 390:0.0020661156 391:0 392:0.059917357 393:0.0020661156 394:0 395:0 396:0 397:0.0020661156 398:0.0020661156 399:0.0020661156 400:0.074380167 401:0.0020661156 402:0 403:0 404:0 405:0.0041322312 406:0.0020661156 407:0.0020661156 408:0.09504132 409:0 410:0.0020661156 411:0.0020661156 412:0 413:0.0020661156 414:0 415:0 416:0.018595042 417:0 418:0 419:0 420:0.0020661156 421:0 422:0 423:0 424:0.010330578 425:0.0041322312 426:0 427:0.0020661156 428:0.0020661156 429:0.0082644625 430:0.012396694 431:0.0061983471 432:0.67617083 433:0.29704005 434:0.60000002 435:0.0063020834 
-1 -0 0 0:0.075144507 1:0.011560693 2:0.0057803467 3:0.014450867 4:0 5:0.0028901733 6:0.0057803467 7:0.00867052 8:0.023121387 9:0 10:0.0028901733 11:0.0057803467 12:0.011560693 13:0.0028901733 14:0.0057803467 15:0.0057803467 16:0.031791907 17:0.0028901733 18:0.0028901733 19:0.014450867 20:0.00867052 21:0.0028901733 22:0.0057803467 23:0.00867052 24:0.028901733 25:0.0057803467 26:0.0028901733 27:0.011560693 28:0.0028901733 29:0.0057803467 30:0.00867052 31:0.020231213 32:0 33:0.0057803467 34:0.0028901733 35:0.011560693 36:0.014450867 37:0.037572253 38:0.03468208 39:0.0433526 40:0 41:0 42:0.023121387 43:0.083815031 44:0.13872832 45:0.19653179 46:0.21387284 47:0.14161849 48:0.67630059 49:0.00867052 50:0 51:0.0028901733 52:0 53:0.0028901733 54:0.00867052 55:0.0028901733 56:0.66763008 57:0.00867052 58:0.0057803467 59:0.0028901733 60:0.0057803467 61:0.0028901733 62:0.0028901733 63:0 64:0.68208092 65:0.0057803467 66:0.00867052 67:0.0057803467 68:0.0028901733 69:0.0057803467 70:0.0057803467 71:0 72:0.68497109 73:0.0057803467 74:0.00867052 75:0.0057803467 76:0.0028901733 77:0.0057803467 78:0.014450867 79:0.01734104 80:0.72254336 81:0.02601156 82:0.02601156 83:0.02601156 84:0.020231213 85:0.00867052 86:0.037572253 87:0.011560693 88:0.84393066 89:0.049132947 90:0.040462427 91:0.011560693 92:0.020231213 93:0.011560693 94:0.00867052 95:0.00867052 96:1 97:0 98:0 99:0 100:0 101:0 102:0 103:0 104:0.97976881 105:0.014450867 106:0 107:0 108:0 109:0.0057803467 110:0 111:0 112:0.99421966 113:0.0028901733 114:0 115:0.0028901733 116:0 117:0 118:0 119:0 120:0.92485547 121:0.01734104 122:0.0028901733 123:0.023121387 124:0.020231213 125:0.0057803467 126:0 127:0 128:1 129:0 130:0 131:0 132:0 133:0 134:0 135:0 136:1 137:0 138:0 139:0 140:0 141:0 142:0 143:0 144:0.95953757 145:0.0057803467 146:0 147:0 148:0 149:0 150:0 151:0 152:0.85260117 153:0.0057803467 154:0 155:0.011560693 156:0.011560693 157:0.0057803467 158:0.00867052 159:0.014450867 160:0.93063581 161:0.020231213 162:0.011560693 163:0.0057803467 164:0.011560693 165:0.0028901733 166:0.0057803467 167:0 168:0.94508672 169:0.011560693 170:0.0057803467 171:0.0028901733 172:0 173:0 174:0.00867052 175:0 176:0.61271673 177:0.12716763 178:0.10982659 179:0.02601156 180:0.020231213 181:0.023121387 182:0.01734104 183:0.00867052 184:1 185:0 186:0 187:0 188:0 189:0 190:0 191:0 192:0.14450867 193:0 194:0 195:0 196:0.0057803467 197:0.0057803467 198:0.0028901733 199:0 200:0.11271676 201:0.0028901733 202:0 203:0.0028901733 204:0 205:0 206:0.0028901733 207:0 208:0.13872832 209:0.023121387 210:0 211:0.014450867 212:0.0057803467 213:0.011560693 214:0.0028901733 215:0.014450867 216:0.22543353 217:0.0057803467 218:0.0028901733 219:0.011560693 220:0.00867052 221:0.0028901733 222:0.00867052 223:0.014450867 224:0.01734104 225:0.0057803467 226:0.0057803467 227:0.011560693 228:0.0057803467 229:0.00867052 230:0.0057803467 231:0.011560693 232:0.0057803467 233:0.00867052 234:0.014450867 235:0.023121387 236:0.031791907 237:0.063583814 238:0.066473991 239:0.092485547 240:0.33236995 241:0 242:0.0028901733 243:0.011560693 244:0.0028901733 245:0.0028901733 246:0 247:0.011560693 248:0.40173411 249:0.0057803467 250:0.0028901733 251:0 252:0.0057803467 253:0.0057803467 254:0.0028901733 255:0.014450867 256:0.36705202 257:0.011560693 258:0.011560693 259:0.00867052 260:0 261:0.011560693 262:0.0057803467 263:0.0028901733 264:0.48554912 265:0.02601156 266:0.011560693 267:0.01734104 268:0.00867052 269:0.011560693 270:0.011560693 271:0.00867052 272:0.072254337 273:0.0057803467 274:0.0057803467 275:0.020231213 276:0.011560693 277:0.0057803467 278:0.014450867 279:0.011560693 280:0.028901733 281:0.028901733 282:0.03468208 283:0.023121387 284:0.037572253 285:0.049132947 286:0.11560693 287:0.14161849 288:0.91618496 289:0.0028901733 290:0 291:0 292:0.0057803467 293:0 294:0.0028901733 295:0 296:0.86416185 297:0 298:0 299:0 300:0 301:0 302:0.0057803467 303:0 304:0.95086706 305:0 306:0 307:0 308:0.0028901733 309:0.0028901733 310:0 311:0 312:0.98265898 313:0 314:0 315:0.0028901733 316:0 317:0.0028901733 318:0 319:0 320:0.93063581 321:0.03468208 322:0.0028901733 323:0.0057803467 324:0 325:0 326:0.0028901733 327:0.0028901733 328:1 329:0 330:0 331:0 332:0 333:0 334:0 335:0 336:0.41907513 337:0.00867052 338:0 339:0.0028901733 340:0.0057803467 341:0.0028901733 342:0.0028901733 343:0.0028901733 344:0.39884394 345:0.0028901733 346:0.00867052 347:0.011560693 348:0.011560693 349:0.0028901733 350:0.0028901733 351:0.00867052 352:0.39595374 353:0.00867052 354:0.00867052 355:0.01734104 356:0.011560693 357:0.01734104 358:0.00867052 359:0.011560693 360:0.44219652 361:0.028901733 362:0.03468208 363:0.023121387 364:0.020231213 365:0.020231213 366:0.014450867 367:0.011560693 368:0.0433526 369:0.0028901733 370:0.0028901733 371:0.0057803467 372:0.014450867 373:0.0028901733 374:0.00867052 375:0.0057803467 376:0.037572253 377:0.01734104 378:0.01734104 379:0.028901733 380:0.037572253 381:0.072254337 382:0.13872832 383:0.12716763 384:0.24566475 385:0.0028901733 386:0.0057803467 387:0.011560693 388:0.0057803467 389:0.0057803467 390:0.020231213 391:0.0057803467 392:0.20231214 393:0.0028901733 394:0.0057803467 395:0.020231213 396:0.0057803467 397:0.00867052 398:0.00867052 399:0.00867052 400:0.19942197 401:0.00867052 402:0.0028901733 403:0.0057803467 404:0.011560693 405:0.0028901733 406:0.0028901733 407:0.00867052 408:0.20520231 409:0.00867052 410:0.00867052 411:0.0057803467 412:0.011560693 413:0.011560693 414:0.014450867 415:0.0057803467 416:0 417:0.0028901733 418:0 419:0.011560693 420:0.0028901733 421:0.014450867 422:0.014450867 423:0.0028901733 424:0 425:0.00867052 426:0.011560693 427:0.028901733 428:0.040462427 429:0.06936416 430:0.0867052 431:0.10115607 432:0.63333333 433:0.095531367 434:0.60000002 435:0.0045052082 
-0.1364631492957302 -0 0.02214493152037446 0:0.053097345 1:0.0017699115 2:0.0017699115 3:0.0017699115 4:0.0017699115 5:0.0017699115 6:0.0017699115 7:0 8:0.033628318 9:0.0017699115 10:0 11:0 12:0 13:0 14:0.0017699115 15:0.003539823 16:0.0017699115 17:0 18:0.0017699115 19:0 20:0 21:0 22:0 23:0 24:0.007079646 25:0.0017699115 26:0.0017699115 27:0 28:0.0017699115 29:0 30:0 31:0.0017699115 32:0 33:0 34:0 35:0 36:0 37:0 38:0 39:0.003539823 40:0 41:0 42:0 43:0 44:0 45:0.0017699115 46:0.0017699115 47:0.003539823 48:0.56106192 49:0.0017699115 50:0.003539823 51:0.0017699115 52:0.0017699115 53:0.003539823 54:0.003539823 55:0 56:0.59646016 57:0.0017699115 58:0.007079646 59:0.003539823 60:0 61:0.0053097345 62:0 63:0.003539823 64:0.66548675 65:0.003539823 66:0 67:0.0017699115 68:0.007079646 69:0.0053097345 70:0.0017699115 71:0.0053097345 72:0.68849558 73:0.010619469 74:0.0088495575 75:0.0053097345 76:0.007079646 77:0.003539823 78:0.007079646 79:0.0053097345 80:0.69557524 81:0.030088495 82:0.040707964 83:0.03539823 84:0.007079646 85:0.0053097345 86:0.0088495575 87:0.003539823 88:0.84778762 89:0.024778761 90:0.014159292 91:0.014159292 92:0.017699115 93:0.0088495575 94:0.0088495575 95:0.014159292 96:0.98407078 97:0.0017699115 98:0 99:0 100:0 101:0 102:0.0017699115 103:0 104:0.88672566 105:0.0017699115 106:0 107:0.0053097345 108:0.0017699115 109:0.0017699115 110:0.003539823 111:0.0053097345 112:0.99292034 113:0 114:0 115:0.0017699115 116:0 117:0 118:0 119:0 120:0.96814162 121:0.0017699115 122:0.0017699115 123:0.007079646 124:0.0053097345 125:0.0017699115 126:0.0017699115 127:0.0053097345 128:1 129:0 130:0 131:0 132:0 133:0 134:0 135:0 136:1 137:0 138:0 139:0 140:0 141:0 142:0 143:0 144:0.87256634 145:0.003539823 146:0.007079646 147:0.003539823 148:0 149:0.003539823 150:0.007079646 151:0.003539823 152:0.76106197 153:0 154:0.0017699115 155:0.0017699115 156:0.003539823 157:0.003539823 158:0.0017699115 159:0.0017699115 160:0.84601772 161:0.0088495575 162:0.003539823 163:0.007079646 164:0.0053097345 165:0.007079646 166:0 167:0.003539823 168:0.90088493 169:0.0053097345 170:0.0017699115 171:0.0053097345 172:0.007079646 173:0.003539823 174:0.0017699115 175:0.0017699115 176:0.53097343 177:0.026548672 178:0.038938053 179:0.065486729 180:0.046017699 181:0.03539823 182:0.024778761 183:0.019469026 184:1 185:0 186:0 187:0 188:0 189:0 190:0 191:0 192:0.046017699 193:0.0053097345 194:0 195:0 196:0 197:0.0017699115 198:0.0017699115 199:0.0017699115 200:0.037168141 201:0 202:0 203:0 204:0.003539823 205:0 206:0 207:0.0053097345 208:0.056637168 209:0.0017699115 210:0.0017699115 211:0.0017699115 212:0.003539823 213:0.003539823 214:0.0017699115 215:0.0017699115 216:0.09026549 217:0.0088495575 218:0 219:0.0053097345 220:0.003539823 221:0.0017699115 222:0.0053097345 223:0.0053097345 224:0 225:0 226:0 227:0 228:0 229:0.0017699115 230:0 231:0.0017699115 232:0 233:0 234:0 235:0 236:0 237:0 238:0 239:0.0017699115 240:0.22831859 241:0.0017699115 242:0 243:0.0017699115 244:0.0017699115 245:0 246:0 247:0 248:0.16106194 249:0.0017699115 250:0.003539823 251:0.0017699115 252:0.003539823 253:0.0017699115 254:0.0017699115 255:0.003539823 256:0.09026549 257:0.0053097345 258:0.0017699115 259:0.0088495575 260:0.0017699115 261:0.0017699115 262:0.003539823 263:0.0017699115 264:0.14513275 265:0.007079646 266:0.0088495575 267:0.0053097345 268:0.007079646 269:0.007079646 270:0.01238938 271:0.007079646 272:0.023008849 273:0.0017699115 274:0 275:0 276:0 277:0.003539823 278:0.0017699115 279:0.0017699115 280:0.01238938 281:0 282:0.0017699115 283:0.003539823 284:0 285:0.0017699115 286:0.0088495575 287:0.007079646 288:0.79469025 289:0 290:0.0017699115 291:0 292:0 293:0 294:0 295:0.0017699115 296:0.78053099 297:0.0017699115 298:0.0017699115 299:0.0017699115 300:0 301:0.0053097345 302:0 303:0.0017699115 304:0.90973449 305:0.0017699115 306:0.0017699115 307:0 308:0 309:0.003539823 310:0 311:0 312:0.96637166 313:0 314:0 315:0.0017699115 316:0.0017699115 317:0.003539823 318:0 319:0 320:0.76637167 321:0.044247787 322:0.063716814 323:0.024778761 324:0.014159292 325:0.014159292 326:0.017699115 327:0.014159292 328:1 329:0 330:0 331:0 332:0 333:0 334:0 335:0 336:0.29557523 337:0.003539823 338:0 339:0.003539823 340:0.0017699115 341:0 342:0.0017699115 343:0 344:0.28495574 345:0.0053097345 346:0.007079646 347:0 348:0.003539823 349:0.0053097345 350:0.003539823 351:0 352:0.25840709 353:0.0017699115 354:0.0017699115 355:0.0088495575 356:0.007079646 357:0.010619469 358:0.007079646 359:0.0053097345 360:0.26725665 361:0.0053097345 362:0.014159292 363:0.010619469 364:0.0088495575 365:0.010619469 366:0.0053097345 367:0.0088495575 368:0.024778761 369:0 370:0 371:0 372:0.007079646 373:0 374:0.0017699115 375:0.007079646 376:0.021238938 377:0 378:0.003539823 379:0 380:0.010619469 381:0.010619469 382:0.010619469 383:0.010619469 384:0.24601769 385:0.003539823 386:0.0017699115 387:0.003539823 388:0.0017699115 389:0.0017699115 390:0.003539823 391:0.007079646 392:0.23893805 393:0 394:0.003539823 395:0 396:0.003539823 397:0.0017699115 398:0 399:0.0017699115 400:0.25486726 401:0 402:0.0017699115 403:0.0053097345 404:0 405:0.0017699115 406:0.0017699115 407:0 408:0.23539823 409:0.003539823 410:0 411:0.0017699115 412:0.003539823 413:0 414:0.0017699115 415:0.003539823 416:0.054867256 417:0 418:0.0017699115 419:0.003539823 420:0 421:0.003539823 422:0.003539823 423:0 424:0.033628318 425:0.003539823 426:0 427:0.003539823 428:0.003539823 429:0.003539823 430:0.0053097345 431:0.010619469 432:0.64902657 433:0.27952135 434:0.60000002 435:0.0073567708 
-0.7532134287615084 -0 0 0:0.028028933 1:0.00090415915 2:0 3:0.0018083183 4:0.0018083183 5:0.00090415915 6:0.00090415915 7:0.0018083183 8:0.0085895117 9:0 10:0.00045207958 11:0.00090415915 12:0.0013562387 13:0.00045207958 14:0.00090415915 15:0.00090415915 16:0 17:0 18:0 19:0 20:0 21:0.0013562387 22:0.0013562387 23:0.0013562387 24:0.004068716 25:0.00090415915 26:0.0022603979 27:0.0022603979 28:0.0018083183 29:0.0018083183 30:0.0018083183 31:0.0027124775 32:0 33:0.0013562387 34:0.0027124775 35:0.0054249549 36:0.0076853526 37:0.0090415915 38:0.0099457502 39:0.017179023 40:0 41:0.00045207958 42:0.004068716 43:0.033905968 44:0.038878843 45:0.05153707 46:0.054249547 47:0.081826404 48:0.6586799 49:0.0054249549 50:0.0090415915 51:0.0067811934 52:0.0081374319 53:0.0076853526 54:0.011301989 55:0.0099457502 56:0.62748647 57:0.013562387 58:0.01084991 59:0.015370705 60:0.016274864 61:0.02079566 62:0.032097649 63:0.02169982 64:0.62341774 65:0.043851718 66:0.049276672 67:0.04159132 68:0.032097649 69:0.0198915 70:0.015822785 71:0.011754069 72:0.66184449 73:0.078209765 74:0.049276672 75:0.028481012 76:0.02079566 77:0.02169982 78:0.013110307 79:0.01039783 80:0.81735986 81:0.08318264 82:0.023508137 83:0.01084991 84:0.0022603979 85:0.0013562387 86:0.00045207958 87:0.0018083183 88:0.94801086 89:0.0081374319 90:0.003164557 91:0.003164557 92:0.0018083183 93:0.0036166366 94:0.0027124775 95:0.0013562387 96:0.99321878 97:0.00090415915 98:0 99:0.00045207958 100:0 101:0 102:0 103:0.00045207958 104:0.94710672 105:0.0081374319 106:0.0063291141 107:0.0067811934 108:0.0045207958 109:0.0045207958 110:0.0036166366 111:0.003164557 112:1 113:0 114:0 115:0 116:0 117:0 118:0 119:0 120:0.98146474 121:0.004068716 122:0.0045207958 123:0.0045207958 124:0.0013562387 125:0.00090415915 126:0.00045207958 127:0.00090415915 128:1 129:0 130:0 131:0 132:0 133:0 134:0 135:0 136:1 137:0 138:0 139:0 140:0 141:0 142:0 143:0 144:0.73282099 145:0.014918625 146:0.016726945 147:0.014014467 148:0.016274864 149:0.013110307 150:0.015370705 151:0.012658228 152:0.44936708 153:0.011301989 154:0.014014467 155:0.015370705 156:0.035714287 157:0.028481012 158:0.030289331 159:0.034358047 160:0.94936711 161:0.0036166366 162:0.003164557 163:0.0036166366 164:0.0027124775 165:0.0022603979 166:0.0036166366 167:0.0013562387 168:0.9805606 169:0.0018083183 170:0.00090415915 171:0 172:0.00045207958 173:0.0013562387 174:0.00090415915 175:0.0018083183 176:0.53254974 177:0.32188064 178:0.098101266 179:0.020343581 180:0.0058770343 181:0.0045207958 182:0.003164557 183:0.00090415915 184:1 185:0 186:0 187:0 188:0 189:0 190:0 191:0 192:0.12477396 193:0.0018083183 194:0.0018083183 195:0.0036166366 196:0.0013562387 197:0.0027124775 198:0.0018083183 199:0.0027124775 200:0.099005423 201:0.0022603979 202:0.0049728751 203:0.003164557 204:0.003164557 205:0.0027124775 206:0.0022603979 207:0.0027124775 208:0.11030742 209:0.0036166366 210:0.0013562387 211:0.0036166366 212:0.0022603979 213:0.0013562387 214:0.0036166366 215:0.0027124775 216:0.10714286 217:0.0036166366 218:0.00045207958 219:0.004068716 220:0.0022603979 221:0.004068716 222:0.0027124775 223:0.004068716 224:0.013562387 225:0.0027124775 226:0.0013562387 227:0.004068716 228:0.0036166366 229:0.0013562387 230:0.0049728751 231:0.0054249549 232:0.0063291141 233:0.0027124775 234:0.0049728751 235:0.0094936704 236:0.0072332732 237:0.0076853526 238:0.014466546 239:0.037070524 240:0.36573237 241:0.0013562387 242:0.003164557 243:0.004068716 244:0.0045207958 245:0.004068716 246:0.00090415915 247:0.0045207958 248:0.31374323 249:0.0013562387 250:0.0058770343 251:0.0018083183 252:0.0045207958 253:0.0045207958 254:0.003164557 255:0.0018083183 256:0.26672694 257:0.0027124775 258:0.003164557 259:0.0054249549 260:0.0013562387 261:0.0045207958 262:0.0027124775 263:0.0049728751 264:0.24412297 265:0.0049728751 266:0.0027124775 267:0.0045207958 268:0.0045207958 269:0.0036166366 270:0.0027124775 271:0.0027124775 272:0.043399639 273:0.004068716 274:0.0045207958 275:0.0090415915 276:0.004068716 277:0.0054249549 278:0.0072332732 279:0.0072332732 280:0.02169982 281:0.0063291141 282:0.0045207958 283:0.0076853526 284:0.01084991 285:0.030289331 286:0.032549728 287:0.033001807 288:0.8101266 289:0.0076853526 290:0.0067811934 291:0.00090415915 292:0.0018083183 293:0.0018083183 294:0.0027124775 295:0.0027124775 296:0.69801086 297:0.0054249549 298:0.0049728751 299:0.0049728751 300:0.0049728751 301:0.0085895117 302:0.0076853526 303:0.0036166366 304:0.93896925 305:0.0072332732 306:0.01039783 307:0.012206148 308:0.0058770343 309:0.0063291141 310:0.0049728751 311:0.0058770343 312:1 313:0 314:0 315:0 316:0 317:0 318:0 319:0 320:0.64240509 321:0.21609403 322:0.073688969 323:0.037974682 324:0.024412297 325:0.003164557 326:0.00045207958 327:0 328:1 329:0 330:0 331:0 332:0 333:0 334:0 335:0 336:0.1880651 337:0.0049728751 338:0.0049728751 339:0.003164557 340:0.0058770343 341:0.0036166366 342:0.0049728751 343:0.0049728751 344:0.15099457 345:0.0058770343 346:0.0045207958 347:0.0045207958 348:0.004068716 349:0.003164557 350:0.0036166366 351:0.004068716 352:0.15235081 353:0.0049728751 354:0.004068716 355:0.003164557 356:0.0045207958 357:0.004068716 358:0.0076853526 359:0.0049728751 360:0.15551537 361:0.0049728751 362:0.0058770343 363:0.0045207958 364:0.0058770343 365:0.0049728751 366:0.0094936704 367:0.0054249549 368:0.023508137 369:0.0018083183 370:0.0054249549 371:0.003164557 372:0.0036166366 373:0.0036166366 374:0.0022603979 375:0.0049728751 376:0.013110307 377:0.0063291141 378:0.0067811934 379:0.0058770343 380:0.012658228 381:0.018987341 382:0.026220614 383:0.038426764 384:0.10036166 385:0.0045207958 386:0.0018083183 387:0.0018083183 388:0.00090415915 389:0.0036166366 390:0.0018083183 391:0.0027124775 392:0.08318264 393:0.0018083183 394:0.004068716 395:0.00090415915 396:0.0027124775 397:0.003164557 398:0.0018083183 399:0.0036166366 400:0.08318264 401:0.004068716 402:0.0013562387 403:0.00090415915 404:0.0022603979 405:0.003164557 406:0.00045207958 407:0.0018083183 408:0.076853529 409:0.0013562387 410:0.0022603979 411:0.0022603979 412:0.0013562387 413:0.0013562387 414:0.0018083183 415:0.0022603979 416:0.015370705 417:0.0013562387 418:0.00090415915 419:0.0018083183 420:0.0036166366 421:0 422:0.00090415915 423:0.004068716 424:0.0076853526 425:0.004068716 426:0.0018083183 427:0.004068716 428:0.0058770343 429:0.014466546 430:0.025768535 431:0.041139241 432:0.62985986 433:0.27940953 434:0.60000002 435:0.028802084 
-0.04981308608562156 -0.01123904411950368 1 0:0.028977273 1:0 2:0.0011363636 3:0.0017045455 4:0.0005681818 5:0.0022727272 6:0.0011363636 7:0.0017045455 8:0.0056818184 9:0.0017045455 10:0.0005681818 11:0 12:0.0005681818 13:0 14:0.0017045455 15:0.0017045455 16:0 17:0 18:0 19:0 20:0 21:0 22:0 23:0 24:0.0034090909 25:0.0017045455 26:0.0028409092 27:0.0017045455 28:0.0028409092 29:0.0011363636 30:0.0028409092 31:0.0022727272 32:0.0028409092 33:0.0028409092 34:0.0045454544 35:0.0045454544 36:0.0051136361 37:0.0090909088 38:0.009659091 39:0.009659091 40:0 41:0.0005681818 42:0.0085227275 43:0.028409092 44:0.037500001 45:0.041477274 46:0.050000001 47:0.073295452 48:0.6068182 49:0.0022727272 50:0.0039772727 51:0.0051136361 52:0.0034090909 53:0.0045454544 54:0.018750001 55:0.017045455 56:0.56079543 57:0.015340909 58:0.019318182 59:0.025568182 60:0.019318182 61:0.018181818 62:0.018181818 63:0.015909091 64:0.57443184 65:0.043181818 66:0.039204545 67:0.036931816 68:0.042613637 69:0.038068183 70:0.022727273 71:0.020454545 72:0.61022729 73:0.07272727 74:0.071022727 75:0.043181818 76:0.030113636 77:0.018181818 78:0.013636364 79:0.0068181818 80:0.8085227 81:0.071590908 82:0.032386363 83:0.0045454544 84:0.0028409092 85:0.0045454544 86:0.0017045455 87:0.0011363636 88:0.94034094 89:0.0034090909 90:0.0028409092 91:0.0045454544 92:0.0062500001 93:0.0039772727 94:0.0028409092 95:0.0051136361 96:0.98920453 97:0.0017045455 98:0.0005681818 99:0 100:0.0005681818 101:0.0005681818 102:0.0011363636 103:0 104:0.95681816 105:0.0068181818 106:0.0056818184 107:0.0090909088 108:0.0034090909 109:0.0022727272 110:0.0022727272 111:0.0017045455 112:1 113:0 114:0 115:0 116:0 117:0 118:0 119:0 120:0.98409092 121:0.0045454544 122:0.0022727272 123:0.0034090909 124:0.0011363636 125:0 126:0.0011363636 127:0.0005681818 128:1 129:0 130:0 131:0 132:0 133:0 134:0 135:0 136:1 137:0 138:0 139:0 140:0 141:0 142:0 143:0 144:0.75852275 145:0.019886363 146:0.018181818 147:0.014772727 148:0.017045455 149:0.010795454 150:0.014204546 151:0.011363637 152:0.48636365 153:0.021022728 154:0.019318182 155:0.028409092 156:0.013068181 157:0.030113636 158:0.03409091 159:0.040909089 160:0.96193182 161:0.0022727272 162:0.0022727272 163:0.0022727272 164:0.0005681818 165:0.0005681818 166:0.0022727272 167:0.0011363636 168:0.98124999 169:0.0005681818 170:0.0011363636 171:0 172:0 173:0.0005681818 174:0.0005681818 175:0 176:0.54090911 177:0.3215909 178:0.10170455 179:0.011363637 180:0.0056818184 181:0.0028409092 182:0.0028409092 183:0.0017045455 184:1 185:0 186:0 187:0 188:0 189:0 190:0 191:0 192:0.1465909 193:0 194:0.0011363636 195:0.0022727272 196:0.0017045455 197:0 198:0 199:0 200:0.12784091 201:0 202:0.0017045455 203:0.0022727272 204:0.0005681818 205:0.0005681818 206:0.0005681818 207:0.0011363636 208:0.10909091 209:0.0011363636 210:0.0017045455 211:0.0022727272 212:0.0017045455 213:0.0005681818 214:0.0017045455 215:0.0005681818 216:0.10113636 217:0.0028409092 218:0.0039772727 219:0.0011363636 220:0 221:0.0005681818 222:0.0011363636 223:0.0011363636 224:0.0125 225:0.0017045455 226:0.0011363636 227:0.0017045455 228:0.0039772727 229:0.0045454544 230:0.0034090909 231:0.0022727272 232:0.0045454544 233:0.0005681818 234:0.0028409092 235:0.0028409092 236:0.0022727272 237:0.0045454544 238:0.014772727 239:0.038068183 240:0.30738637 241:0.0011363636 242:0.0045454544 243:0.0022727272 244:0.0011363636 245:0.0017045455 246:0.0034090909 247:0.0039772727 248:0.26534089 249:0.0011363636 250:0.0011363636 251:0.0022727272 252:0.0005681818 253:0.0034090909 254:0.0011363636 255:0.0017045455 256:0.22670455 257:0.0022727272 258:0.0039772727 259:0.0022727272 260:0.0028409092 261:0.0028409092 262:0.0034090909 263:0.0034090909 264:0.2090909 265:0.0028409092 266:0.0022727272 267:0.0039772727 268:0.0028409092 269:0.0034090909 270:0.0022727272 271:0.0045454544 272:0.019886363 273:0.0056818184 274:0.0045454544 275:0.0034090909 276:0.0039772727 277:0.0051136361 278:0.011363637 279:0.0045454544 280:0.0056818184 281:0.0017045455 282:0.0051136361 283:0.0056818184 284:0.018750001 285:0.016477272 286:0.028409092 287:0.043749999 288:0.80113637 289:0.0011363636 290:0.0034090909 291:0.0034090909 292:0.0045454544 293:0.0056818184 294:0.0051136361 295:0.0022727272 296:0.68409091 297:0.0039772727 298:0.0039772727 299:0.0051136361 300:0.0085227275 301:0.0045454544 302:0.0039772727 303:0.0062500001 304:0.95738637 305:0.0079545453 306:0.0090909088 307:0.0051136361 308:0.0045454544 309:0.0022727272 310:0.0039772727 311:0.0028409092 312:1 313:0 314:0 315:0 316:0 317:0 318:0 319:0 320:0.65511364 321:0.16761364 322:0.10454545 323:0.041477274 324:0.027272727 325:0.0039772727 326:0 327:0 328:1 329:0 330:0 331:0 332:0 333:0 334:0 335:0 336:0.19204545 337:0.0045454544 338:0.0068181818 339:0.0051136361 340:0.0062500001 341:0.0045454544 342:0.0051136361 343:0.0028409092 344:0.1465909 345:0.0028409092 346:0.0068181818 347:0.0045454544 348:0.0051136361 349:0.0073863636 350:0.0051136361 351:0.0090909088 352:0.15681818 353:0.0045454544 354:0.0073863636 355:0.0045454544 356:0.0028409092 357:0.0062500001 358:0.0051136361 359:0.0051136361 360:0.16306818 361:0.0034090909 362:0.0079545453 363:0.0085227275 364:0.0056818184 365:0.0039772727 366:0.0045454544 367:0.0051136361 368:0.040340908 369:0.0051136361 370:0.0028409092 371:0.0039772727 372:0.0022727272 373:0.0034090909 374:0.0028409092 375:0.0005681818 376:0.027840909 377:0.0079545453 378:0.0022727272 379:0.011931818 380:0.0056818184 381:0.017613636 382:0.014772727 383:0.024431819 384:0.13011363 385:0.0034090909 386:0.0022727272 387:0.0017045455 388:0.0028409092 389:0.0022727272 390:0.0011363636 391:0.0017045455 392:0.10681818 393:0.0028409092 394:0.0022727272 395:0.0045454544 396:0.0028409092 397:0.0034090909 398:0.0028409092 399:0.0017045455 400:0.11022727 401:0.0017045455 402:0.0022727272 403:0.0017045455 404:0.0017045455 405:0.0011363636 406:0.0028409092 407:0.0017045455 408:0.10340909 409:0.0028409092 410:0.0011363636 411:0.0022727272 412:0.0017045455 413:0.0028409092 414:0.0022727272 415:0.0039772727 416:0.027272727 417:0.0039772727 418:0.0017045455 419:0.0017045455 420:0.0034090909 421:0.0005681818 422:0.0034090909 423:0.0011363636 424:0.019886363 425:0.0034090909 426:0.0062500001 427:0.0051136361 428:0.0079545453 429:0.011931818 430:0.030113636 431:0.027272727 432:0.63170457 433:0.6152212 434:0.60000002 435:0.022916667 
-0 -0.5815863810817552 1 0:0.02275862 1:0.0010344827 2:0.0003448276 3:0 4:0.00068965519 5:0.0010344827 6:0.0010344827 7:0.0010344827 8:0.010344828 9:0.00068965519 10:0.0010344827 11:0 12:0.0003448276 13:0.0003448276 14:0.0003448276 15:0 16:0 17:0 18:0 19:0 20:0 21:0 22:0 23:0 24:0.00068965519 25:0 26:0.00068965519 27:0.0010344827 28:0.0010344827 29:0.0020689655 30:0.0037931034 31:0.0017241379 32:0.0003448276 33:0 34:0.0020689655 35:0.0017241379 36:0.0055172415 37:0.0065517239 38:0.0055172415 39:0.0065517239 40:0 41:0 42:0 43:0.0020689655 44:0.014827586 45:0.024137931 46:0.019655172 47:0.021034483 48:0.57103449 49:0.0082758619 50:0.0051724138 51:0.011724138 52:0.019655172 53:0.016896551 54:0.013103448 55:0.014827586 56:0.55758619 57:0.017241379 58:0.017586207 59:0.033793103 60:0.028275862 61:0.023103448 62:0.014827586 63:0.0075862068 64:0.5962069 65:0.050689656 66:0.042758621 67:0.015862068 68:0.015172414 69:0.0082758619 70:0.011724138 71:0.0089655174 72:0.63793105 73:0.062068965 74:0.022413794 75:0.016896551 76:0.019655172 77:0.0099999998 78:0.013103448 79:0.011034483 80:0.75448275 81:0.052758619 82:0.036206897 83:0.018965518 84:0.013448276 85:0.0068965517 86:0.0003448276 87:0.0027586208 88:0.90482759 89:0.017931035 90:0.0058620689 91:0.0027586208 92:0.0034482758 93:0.0034482758 94:0.0055172415 95:0.0031034483 96:0.99379313 97:0.0010344827 98:0.0003448276 99:0.0010344827 100:0.0013793104 101:0 102:0.0003448276 103:0 104:0.94931036 105:0.0037931034 106:0.0034482758 107:0.0065517239 108:0.0041379309 109:0.0027586208 110:0.002413793 111:0.0020689655 112:1 113:0 114:0 115:0 116:0 117:0 118:0 119:0 120:0.97482759 121:0.0034482758 122:0.0031034483 123:0.0037931034 124:0.0034482758 125:0.0037931034 126:0.0041379309 127:0.0020689655 128:0.99551725 129:0.0034482758 130:0.0010344827 131:0 132:0 133:0 134:0 135:0 136:1 137:0 138:0 139:0 140:0 141:0 142:0 143:0 144:0.6765517 145:0.0062068966 146:0.0086206896 147:0.013448276 148:0.0082758619 149:0.0099999998 150:0.014827586 151:0.017586207 152:0.51965517 153:0.0044827587 154:0.0058620689 155:0.0041379309 156:0.0051724138 157:0.0082758619 158:0.0065517239 159:0.0055172415 160:0.94620687 161:0.00068965519 162:0.0010344827 163:0.0003448276 164:0.0010344827 165:0.00068965519 166:0.00068965519 167:0.0003448276 168:0.96793103 169:0.0003448276 170:0.00068965519 171:0.0013793104 172:0.00068965519 173:0 174:0.0010344827 175:0.0003448276 176:0.38999999 177:0.17379311 178:0.29551724 179:0.077586204 180:0.019655172 181:0.0062068966 182:0.0058620689 183:0.0013793104 184:1 185:0 186:0 187:0 188:0 189:0 190:0 191:0 192:0.11724138 193:0.0013793104 194:0.0017241379 195:0.0010344827 196:0.0010344827 197:0.0010344827 198:0.0010344827 199:0.0017241379 200:0.10896552 201:0.0013793104 202:0.00068965519 203:0.0010344827 204:0 205:0.0013793104 206:0.00068965519 207:0.0020689655 208:0.11413793 209:0.0010344827 210:0.00068965519 211:0.0010344827 212:0.0020689655 213:0.0037931034 214:0.0020689655 215:0.0010344827 216:0.12 217:0.0020689655 218:0.0020689655 219:0.0013793104 220:0.0013793104 221:0.0010344827 222:0.0003448276 223:0.0013793104 224:0.024137931 225:0.0020689655 226:0.0027586208 227:0.002413793 228:0.002413793 229:0.0031034483 230:0.0020689655 231:0.0020689655 232:0.0093103452 233:0.0031034483 234:0.0031034483 235:0.0051724138 236:0.0051724138 237:0.004827586 238:0.0062068966 239:0.0058620689 240:0.19344828 241:0.00068965519 242:0.0013793104 243:0.0031034483 244:0.0013793104 245:0.0027586208 246:0.0034482758 247:0.0017241379 248:0.16896552 249:0.0013793104 250:0.0010344827 251:0.0017241379 252:0.0010344827 253:0.0010344827 254:0.002413793 255:0.00068965519 256:0.16103448 257:0.002413793 258:0.002413793 259:0.0037931034 260:0.0013793104 261:0.0013793104 262:0.0020689655 263:0.0017241379 264:0.15793103 265:0.0055172415 266:0.0017241379 267:0.0017241379 268:0.0017241379 269:0.0020689655 270:0.004827586 271:0.0041379309 272:0.033103447 273:0.0013793104 274:0.0017241379 275:0.0013793104 276:0.002413793 277:0.0013793104 278:0.002413793 279:0.0010344827 280:0.020344827 281:0.0013793104 282:0.0020689655 283:0.004827586 284:0.004827586 285:0.0058620689 286:0.0062068966 287:0.0044827587 288:0.82379311 289:0.0031034483 290:0.0017241379 291:0.0027586208 292:0.0027586208 293:0.0051724138 294:0.0013793104 295:0.0044827587 296:0.68275863 297:0.0037931034 298:0.0034482758 299:0.002413793 300:0.0041379309 301:0.0027586208 302:0.002413793 303:0.0065517239 304:0.96344829 305:0.0058620689 306:0.0044827587 307:0.0055172415 308:0.0055172415 309:0.0034482758 310:0.0041379309 311:0.0020689655 312:1 313:0 314:0 315:0 316:0 317:0 318:0 319:0 320:0.5848276 321:0.13275862 322:0.14896552 323:0.041034482 324:0.023793103 325:0.019655172 326:0.016896551 327:0.011724138 328:1 329:0 330:0 331:0 332:0 333:0 334:0 335:0 336:0.15862069 337:0.0020689655 338:0.002413793 339:0.0020689655 340:0.0020689655 341:0.0017241379 342:0.002413793 343:0.002413793 344:0.12965517 345:0.0027586208 346:0.0034482758 347:0.0027586208 348:0.0013793104 349:0.002413793 350:0.0013793104 351:0.0027586208 352:0.13724138 353:0.0020689655 354:0.002413793 355:0.0017241379 356:0.0041379309 357:0.004827586 358:0.0034482758 359:0.0027586208 360:0.14931035 361:0.0020689655 362:0.004827586 363:0.0013793104 364:0.002413793 365:0.0013793104 366:0.0044827587 367:0.0013793104 368:0.039310344 369:0.002413793 370:0.0010344827 371:0.0017241379 372:0.002413793 373:0.0031034483 374:0.0017241379 375:0.0017241379 376:0.024482759 377:0.0055172415 378:0.0017241379 379:0.0055172415 380:0.0068965517 381:0.0055172415 382:0.004827586 383:0.0051724138 384:0.15793103 385:0.0017241379 386:0.0010344827 387:0.0013793104 388:0.0017241379 389:0.0020689655 390:0.002413793 391:0.0017241379 392:0.12965517 393:0.0020689655 394:0.002413793 395:0.002413793 396:0.0013793104 397:0.00068965519 398:0.0013793104 399:0.00068965519 400:0.13137931 401:0.0017241379 402:0.0017241379 403:0.0031034483 404:0.0017241379 405:0.0017241379 406:0.0020689655 407:0.0010344827 408:0.13068965 409:0.0003448276 410:0.0041379309 411:0.0017241379 412:0.0020689655 413:0.0013793104 414:0.0027586208 415:0.0034482758 416:0.027241379 417:0.0041379309 418:0.0027586208 419:0.0013793104 420:0.002413793 421:0.0034482758 422:0.0013793104 423:0.0041379309 424:0.014827586 425:0.0058620689 426:0.0058620689 427:0.0041379309 428:0.0072413795 429:0.0041379309 430:0.0065517239 431:0.0055172415 432:0.61846936 433:0.1332207 434:0.60000002 435:0.037760418 
